0.5324718275381594,0.080695483673391,0.03487169135046802,0.0015506565545602765,0.6065798556699323,-0.3089592744509982,0.02769197821681076,0.07774692663037197,-0.004131404514461331,0.13446859922460785,-0.0157090867439204,0.0960589063712603,0.025103672293143853,0.039168473480297145,0.03927863706077319,-0.3541876447123636,0.016767146247059772,0.012699021061654398,0.033325471885540844,0.03407734667494143,0.020575790613929047,0.0033009887338573403,-0.004238183399254414,0.006689763640983585,0.04520231070560657,0.0013351047548675692,-0.0038710832087250173,-0.09602422250003996,0.43097249449685926,-0.003964140717955171,0.011753697076404512,0.019531702252515677,0.015172344702691494,0.040117375570792715,-0.09459668807674804,0.018660408930446817,0.04549057191435882,-0.003989564402731656,-0.09278555301585023,-0.0852959286488481,-0.22421542258138522,0.01845731715847202,0.019512629456842245,-0.3919578617192441,0.02483543315281882,0.06466031540510542,0.10905664299611324,0.0366428147596525,-0.12200362026758665,0.031302522307162677,0.01845803020528048,0.027158676521049172,0.027980761669612646,-0.07254795369655456,-0.06023042867910002,0.028335593603705845,0.010934402620497366,0.030542868902400926,0.046529852307360856,-0.00836144740819305,-0.05634233352878208,0.02896188477965495,0.04328569899592844,0.022438124678677757,0.07899536316572554,-0.12005118281351858,0.00010654286208552354,0.031131930097221337,-0.01179519278311583,0.027896799691579596,-0.13990030424987074,0.17740870629190478,0.009540460431958282,-0.08400723123858575,0.01577663765435083,0.01648466917271134,0.027866972264792476,-0.028393343721013795,-0.25860657914428814,0.003160926609421014,0.02357074559626255,0.04223094424044833,0.02591749759947534,0.05014033500567224,0.08051750415963368,-0.3996918577130462,-0.01811515140282463,0.02018343124002585,-0.03416248531092583,0.062210296431640104,0.04943508044972134,0.057044603497122884,0.04320412188257889,0.05114085106510399,0.02770708321742667,0.0564870880316685,-0.018631328475382944,0.01527701765303398,-0.16381845970687411,-0.10488961245438906,0.020894014983660822,-0.0026760192525913627,-0.01201930190211974,0.05965431722350874,-0.1086774373386284,0.03658998816754084,-0.019286741577428466,0.03281455334437115,0.009521849702598794,0.021540403379880002,-0.04555128928848175,-0.3665275535087753,-0.0628646484509734,0.021577198611637628,0.03697607513438479,0.05123174267453984,0.033272373976031736,0.04035230125746436,0.0017542762519902914,-0.02239154511378079,0.004488004945593006,-0.1048090972723566,-1.4182652672030174,-0.016912253852679106,0.05126865252590696,0.037621931064747975,0.015569887890694942,0.04441546415420715,0.032722622643051154,0.1576860620082389,-0.07595711518404194,4.580175376662752e-05,0.01939078452115418,0.05027034470639465,0.03099329776758465,-0.11449637846565647,-0.010121064048776872,0.0014960098852744746,-0.010750364180017086,-0.008124005746339197,0.019038060044721576,0.034870611933978723,-0.03026767274080058,0.023564027364632693,0.019782552795552202,0.013262631824787876,0.21050033728837922,0.0363377071561056,-0.012144160886392908,-0.6472881675269486,0.041415676457974296,0.00336756954256213,0.033373528113910804,-0.02700239665743816,0.03979125154677526,0.009978008115096727,0.030361943092831953,-0.006687660850649076,0.037884177070080516,0.02185623470374063,0.006218369829505174,-0.0300300014552477,0.028355639094905447,0.046783529901731805,-0.05559013849427241,0.014108138555344844,0.02310834832623598,0.07803431346526353,0.04886730954437643,0.011866879913993919,0.01747779403136836,0.07520298911199995,-0.021845531883226747,0.06200269379426285,0.008386862763611546,-0.03170751923152987,0.4615758944448615,-0.01710304457755589,0.04853547612850618,0.006217589894330174,0.03824564671054874,0.021862907143013827,0.02741775778101283,0.029413469087795796,0.036315551429116855,-0.14432880073785576,0.0014550917435723187,-0.015980809676738074,-0.015373460223564875,-0.037797303166232935,0.010740288418750674,-0.07017255357608027,0.015240227678709894,0.03316446347428615,0.04613127487324536,0.014062648308429324,0.001428761860745755,0.3109974465846738,0.017804367807291516,0.0035890741478129882,-0.04003870910636645,0.02630741813192658,-0.13517138205876522,0.01678506374625598,-0.002758084434739997,-0.010827139407651903,-0.028772272679500343,0.033939945339388274,0.007835624045612293,-0.06404787506772824,0.04061306202881099,-0.10759560571166868,0.036348564713869394,-0.007515664147522104,-0.5823862996213417,0.001222253405206938,0.02450036498033521,0.009982858647271012,0.040578062303143356,0.05305585885826538,0.032605941783599816,0.07527393528157346,-0.11006687423711255,0.009276299417545214,0.025574180472559452,-0.4215514984080465,-0.5243732476985066,0.01120085241280378,-0.2494340837442249,0.06260862123809968,0.03095854894578268,0.015163001609586713,0.011951459819405609,0.02031723362633419,0.07889630974390775,-0.06900749620778307,-0.05696402220681878,-0.04267889251749983,0.00902834660810656,0.027813705973619124,0.021477722013305733,-0.05873098658055402,0.0073056940921372585,-0.023469016549656895,-0.091797303209595,0.07021324653773077,0.05931168489892709,0.010572344133529124,0.005966660152945796,-0.043474251193348044,0.2479125840419824,0.020939552023624353,0.4282072650323856,-0.06275532138683984,-0.003027521280539136,0.01357128121625379,-0.0498870466457613,-0.010495205966157998,-0.5405948967529222,-0.19279996139101613,-0.050609352343659465,-0.17174693826648513,0.005341471917106072,-0.0033503923182449853,0.022265476143442285,0.028121553388002554,0.015961006047448403,0.016142850589380742,-0.06298456433775784,-0.009650742891198126,-0.023473007533397563,0.3322884781670502,0.18531374355592464,0.010096868042044323,-0.013942905392286448,0.5480775135819197,-0.012317067344852705,0.1685259175767943,-0.10682615785475932,0.04608607266110543,0.009231922776052675,-0.023134898391837955,0.006049007409167737,-0.31060283829063956,0.03694695828907573,0.04255137291197097,0.03180448806910862,-0.014998438333098402,0.04018309791825277,0.07691133747753716,-0.021205098928637603,-0.04581366245879701,-0.03618263729989597,0.07018742482486065,-0.11803196520511278,-0.36707900168227153,0.0043035275518883255,-0.18319926175236115,0.011420434340762438,0.029243688293822668,-0.06860618085500708,0.10748407968068348,0.03852921561215118,-0.028362849452627806,-0.26578230016906745,0.024611243718885158,0.01933857010433265,0.1999113695480694,0.02402886962722689,0.03805596331353795,0.04202608923637271,0.0004329594395108879,0.9254637920471019,-0.07241117545013447,-0.15253756157327322,0.0020419524023963746,0.033998818981849976,-0.0343427579620832,-0.0729423677554593,0.04742425373962157,-0.0740547450606092,0.0036383978419500186,0.08780411395596296,0.05092830800180697,0.02614332630945381,0.034134845428838156,0.02692290080298881,-0.5761998779038733,0.03987114727652854,0.04740400886802989,-0.03632176883340619,0.012761060500787175,0.007915283643916696,0.03718680826270475,0.019813518331077182,0.4614229271599729,0.04558244824306167,0.06298292169780026,-0.029696239440551928,-0.22294779892827926,0.012818959287993108,0.03549177650819614,0.04466363595738437,0.028038027230894394,-0.016546156198655692,0.03107604230237614,0.028869244200376728,0.009823563356974466,-0.09662380498903658,0.0073115022661635505,0.016996270875299067,-0.033789060925041504,-0.015388404728220968,0.010212963858283918,0.047328854818796263,-0.034693197945566336,0.014604264993287649,0.0020916009645786174,0.040061021086832634,0.07200019858690496,0.01735501318360472,0.06321887219078402,0.04785527961557258,0.06026149250078423,0.010321591982867367,0.014623802019539715,-0.01961595736128469,-0.30450743477494907,0.030787602429009797,-0.07447745268700673,0.006468188406940949,-0.033501905256979395,0.07212807493873906,0.0566664914842126,-0.005478559377337792,0.009314554311648045,0.05087145262769279,0.013716603876985397,0.03168385438624732,-0.02911944683862272,-0.6044674823371851,0.0315155936862933,-0.8436944458793414,-0.018528168841757023,0.038065995489770466,0.014190973072521136,-0.0025789926252660932,0.014625338427943287,0.025108420330652477,0.037487692076028575,0.07708491451231363,0.014277373288648795,0.3344719750361186,-0.01275724070481032,0.16901751481297628,0.036263340714657026,-0.09053570385430607,0.2608902252349054,0.035293920762107044,-0.020295136477484647,-0.018161153131722473,0.05685329563661541,0.030561228008182617,0.03936239979324939,-0.130967558710008,-0.04161773721701063,-0.010609524578721573,0.06343111024577348,0.0062444758114268235,-0.014473155606669286,-0.3856726480103971,-0.09751858474348901,0.04199429962129323,0.025369064845767984,0.03871115855979891,-0.0263239536466478,-0.0763323350654817,0.002924239010556385,0.021500414644089517,0.042676402864194524,0.02802502454522131,0.009176059133774173,0.025303379485771566,-0.11511583754154538,0.019705149335725772,-0.011065347660637648,-0.0241015878712784,-0.5916696520195869,-0.0032796522056762266,0.025937284717263816,0.041677844738294834,-0.5490413671857644,0.03684500957711698,0.04934996389612553,0.001516551904382978,0.029388129760409804,0.01764884058331244,-0.6035258884977677,-0.049581002956304944,-0.01351967582985528,-0.017462000271977005,0.21134038700725166,0.001317458481690224,-0.449634401641802,1.1432000464488201,0.01763748561282514,-0.0327325600111475,0.03399652539551337,-0.00663149586715702,0.01784408142071547,0.006281888201644912,0.017420901880027685,-0.02585108689294807,0.014501008887943425,0.017062795620258128,0.009984922008650749,0.033440493959904324,0.01288888774955889,-0.01831541344694932,0.07563260839170562,0.03366595052950209,-0.05225894175442114,-0.05670582267976904,0.03654394797802706,0.023526864328650914,0.02166635203980516,-0.004838604553856259,0.0573427944125794,0.0023707680040741057,0.03474033065457811,0.04365031861625263,-0.005233685251501936,0.03874329790378003,0.03945002220204771,0.033214427655946975,0.03436291023362363,0.05461913457438762,0.03423964297268695,0.018018224780181155,0.030766673432703475,0.009684303461453988,-0.11298221402914664,0.033645904083608895,0.042137340957294774,-0.013908997650382284,0.029810210268360785,0.6455550336975407,-0.032866348401322354,-0.06921226401772758,0.0011450810451412823,-0.3649298768806826,0.014697946145319036,0.301958649220042,0.019541183257074175,0.028660858739197395,-0.038665194844343255,0.05453982586380015,0.00802692029464916,0.017169790224057315,-0.024444327842001335,0.010974400594176703,0.03046399224694421,0.2632871138605975,-0.052368971694165746,-0.0292566502998012,-0.006054142999030831,0.13726434467065074,0.018610643893295486,-0.07144985519602799,-0.21676448927782135,0.27500890266962197,0.04398194909699959,-0.0033473480040504327,-0.04242884984162618,0.03188642792985197,0.04328422863320496,-0.002700007223906663,-0.04612578062324686,0.026829622732229566,0.012479815261241594,0.02687624217325816,0.010986695645097978,0.2999450151536351,0.021632649230728974,0.006437769220649718,0.019727854042875137,0.0002926950045712358,0.06968823687236843,-0.1241880917020095,0.04482648007758001,0.002484936348796739,-0.012851688826746303,0.05053521185923693,0.007196795073688188,0.040359992368163185,-0.0035678055687231322,-0.0020403993090387213,0.044450263920119505,-0.41595624198355874,-0.0052171006689615265,0.04525638780374969,-0.05641536190609834,0.00791779613107773,-0.06703078726485841,0.42225806965334367,-0.03037546042182463,0.022522166297284974,0.041472228584606224,0.0328666750545111,-0.03248786866283613,0.00949869120720778,0.021483224711388978,-0.001377647606237548,0.021452517399116702,0.040158935234504645,0.026891273759331914,0.035134929634917544,0.4452394008734355,-0.017564844274271667,-0.48705941574931727,0.23028967568256137,0.043248031805159355,-0.0051685780328160685,-0.021013514279124193,0.05292934857652696,0.03472873184714208,0.03776666744558524,0.035544905407492645,0.007686326414330137,0.033952881250156254,-0.03841973265757696,-0.0008264348975411518,0.039633690302007606,0.0302050364799726,0.04654889659617402,-0.051564331626303486,0.046073296544976314,-0.07804458747515759,0.03237328750369493,0.04115175013425414,0.14116608265938455,0.048565634551548026,-0.002859683071455204,0.03305948600641548,0.010176795616073684,0.0031645276399868017,-0.0009340163135533278,0.020808756086430118,0.03799894564516204,-0.027416174908142833,0.08569306966296143,-0.03942439376563768,-0.06304207630668593,0.03893059399368024,0.1351081601115059,0.02797776169014397,0.03780553639170609,0.013458773829204402,-0.02310531449593242,-0.04807919379557533,-0.08536369868474612,0.014222861381040024,0.01851732990769605,-0.016763937064544324,0.040379288173866774,0.02443251748058739,-0.008689446162757327,0.030522264946818475,0.03562464498694365,0.05966204939291988,-0.017175114671022916,0.04087139398728939,0.05146415811242481,0.0013508968078119092,0.024605341306480892,-0.0060989244564136035,0.024603356147025707,-0.026553149327826223,0.10703862592778193,-0.01479815947725459,-0.004337151616837207,-0.010371333876590302,0.06160100617771812,0.7666483884135726,0.02274173689217253,0.010025299057555823,0.0068422418519658,0.0037855555938502423,0.012932258606030311,0.02317157357431758,0.025147265355656714,0.03675403664643266,0.03180908775530022,0.052186155647720736,-0.04117855988187953,-0.01653057502992803,0.018077784819066908,-0.3095692822287386,0.0451003091021454,0.04075256370176249,-0.03485897632046559,-0.004950690890286289,-0.25285525920151036,0.04268170688353615,0.03511408423908486,0.02988485618395814,-0.423569366231065,0.018435238409986593,-0.3764507966953131,0.18792489001633228,0.015479446038803244,-0.13701557493889951,-0.10750739752591079,0.36010073962891703,0.06331526555121848,0.01172890346095945,0.025685641155865704,-0.05896296768950387,0.01612261074554657,-0.04714745760858257,0.0330666878103998,0.014155778413100567,0.02848798915565601,-0.03916402810312233,0.039568406899128904,-0.0290090593451555,0.04253601849297633,0.05642035837432725,-0.44466430578738253,-0.014749120758273181,0.00396874737449649,-0.11401611757220056,0.00019214410239553898,0.004505712050520945,-0.06783793797244035,0.038037993270873,-0.09118600734568356,-0.19938306830698035,0.015451850090434975,-0.07295110433190274,0.04920237681747821,0.03417616633122067,0.05248106295600116,0.05522304209036097,0.03490196451947384,-0.020736649054541062,0.013235048990710763,-0.046760051338061756,0.01583252098617813,0.05769323427839825,0.04782211497860293,-0.009428656029259177,-0.028101605829048908,0.02368841736109937,0.01796045335944561,0.051122593273974316,0.04005041833780794,0.018011355164653402,-0.008668542742553258,0.004462957428876828,-0.11573375256579349,0.02745116715246958,0.11419812432229624,0.035140379254874184,0.5132629979503253,0.022155850712451425,0.05169640330687118,0.015589453835199493,-0.03471540437888841,-0.025780518581852905,-0.003506539111507651,0.024940317171199093,0.041761933239036444,-0.001609513497313848,0.07326593654231027,0.025735612478347474,0.012333093741578588,-0.012432420908434133,0.04015168697004288,0.006157217259442453,0.0376661330458577,0.028222397622934634,-0.008262336929232238,-0.01938047159316591,-0.03070364695460077,-0.27614363812836495,-0.029490268092493777,0.05405991420371604,-0.40950463130369447,-0.030734284022459778,0.018116959252726845,0.03350471159927352,-0.032728786443121154,-0.03157760025449264,0.043634924689754453,-0.01586987275516562,0.021117817828724673,-0.030763650914928616,0.024389805696899768,-0.024245437437176286,-0.07142637507944544,-0.010445955159118206,0.06617952254985542,0.049967100115125576,-0.06778886387674561,-0.1287327365605241,0.04721547012653874,0.04906260040808204,0.7884459099706713,0.029197432760511184,0.008041188676286816,0.039455319807552326,0.03674851100126571,0.03466350224409682,0.03911617290102971,0.024629036911990927,0.059414211040813215,0.017958162802927762,0.008488409949476522,0.15953089971204382,-0.01598629045538214,0.04145759066114445,0.024031522764840534,0.025057934309331828,0.05718868907283758,-0.01690971370891252,-0.08827849054810409,0.11208589607599248,0.08441598650608771,-0.029908159207462655,0.2650476715889686,0.001022860142800832,0.032355255544642206,0.03393475172733506,0.030529192887973445,0.036764768829759015,0.0026283590956686447,-0.01030638471648372,0.01773683027093608,0.019996172528352913,0.044824818243103734,0.02107269799820938,-0.0437936625832151,0.014718524993118669,0.03188569197983345,0.02324633230798492,0.010424208976770962,-0.003506717204663406,0.08502384250370994,0.06889647800616086,0.0209960151742682,0.07266340056511081,-0.02176075310084122,0.02700667093290151,-0.1528184813331107,-0.050605525700012616,0.02873479897889189,-0.0014449095473241542,0.08670872497715455,-0.09236350202870157,0.05424315905447737,0.05406525028649735,0.012703172080684041,0.0019737999199378638,0.02586342315094454,-0.07963670283747122,0.011826621679402212,-0.18729712704528712,-0.02671913378066004,-0.04410161378459149,0.03612809842892811,0.031049810149708795,-0.0032165942679757203,0.047559955170380766,0.022239494787483896,0.025356917300189095,0.04820685355695892,0.010969096148638138,-0.022217549807182355,0.031682763814436174,0.35343350011566,-0.10470787305098608,-0.04582586477840514,0.034753440592674975,0.020615885920028845,0.005896960747580772,-0.019870377078101003,0.028956174652595274,0.013281472811377136,0.0002919272929286223,-0.0583293982030287,0.02120576923899681,0.031203314348036824,-0.27129069774028247,0.028905918364676878,0.020970594769802238,-0.17774260585183413,-0.05618917593561636,-0.0056752012509930765,-0.033507503343333425,-0.054272315435075345,0.04986857870681102,0.040813911004474984,0.07692805178490175,0.018553862867256354,-0.04417138307381899,0.035775110048089,-0.006041904620215614,-0.01307054491680114,0.01449063676253071,0.02893392626404718,0.022271942653570263,0.02068797484976957,0.002091772161619221,0.05204843409067886,-0.02202968457773511,0.01710124567937946,-0.041657288498192994,0.015027053354894643,0.044725793951910744,0.005209691801867571,-0.013571316669615991,-0.04151130465787445,0.04781662314211433,0.02159949755783783,0.03107449814766489,0.03259789035508649,0.03406745139534236,-0.006994403656045783,0.041023534471874214,0.0013142257517232891,-0.037463500739371824,0.02074276412132555,0.0331797990504499,0.026784404874419684,-0.035283396844869364,-0.017661740416225844,0.023220511487388972,0.029553390259263797,0.031449403742244655,-0.07929338032460335,-0.01325782581916196,-0.0028470885423162702,0.010862216252889002,0.04093982231597859,-0.03781851529971496,0.0465218316079048,0.029567573121269026,0.01955386137280777,0.2580448563984117,-0.025115444390713882,-0.008729904275495425,0.028328338498360906,-0.15299568603332173,-0.030270178874017447,0.6020202107211082,0.024228129970299335,-0.03170359784882378,0.031102429144849467,0.050930751544309906,-0.0190174746444621,-0.6430607298777992,0.02709790669728267,-0.026566274235526897,0.021142240333240657,-0.5230833922632837,0.032637273201834176,-0.018682859436375612,0.02058718275317293,-0.05806885989852747,0.03789010031400708,0.0375959684523051,0.010889580897096348,0.025683659776970208,0.03211738248972748,0.034934433093299286,0.017433633424569685,0.012655865618217691,-0.1710432179255527,-0.0168796065852786,-0.08641460209489442,0.031925627000555484,-0.34138161216817803,0.014329230424159109,-0.037021796853033744,0.019571481976781605,0.01967054323796378,0.022826065941240776,-0.013949935926065228,-0.08003131929691736,0.02017360601075696,-0.024040442311180514,0.00675235764288613,0.11112094081300274,0.021575039745578298,-0.021603061713765737,0.006753385806946735,0.04892625432892503,0.05069524075786018,0.017388099578148172,-0.029527931930232915,0.036610937946044066,-0.058424117873087385,0.05277232159315399,-0.052377045062563306,0.03699548917861149,0.028153938529072685,0.020601098556765833,-0.028865706796145998,0.016489446797858638,0.042686719749357935,0.027887268021141765,0.002598237010033165,-0.014060762942677746,0.03883523640123176,0.03303976983676074,0.05727059786711564,-0.01706295797933817,0.00406665203023961,-0.031341404982920276,0.2829640923837006,-0.04049034886415591,-0.00559938701919397,0.04933697990099296,0.02624351880982949,-0.02082806941580417,0.010589966234044616,-0.022068390998838026,0.036093503019988135,0.028958055992600037,0.008595485017788031,-0.3995824222301836,-0.01043776623486241,-0.029957786632168158,0.007373122414360816,-0.01946868235263937,-0.023662739245659502,-0.07033300116562344,0.032665858092145506,-0.039107687654956334,0.026515631412559987,-0.05140101041404834,0.07893603663969195,0.0018767447556775991,-0.026539197659081457,-0.09029722970123988,0.04895841029322924,-0.023056308354124446,0.024892472725512982,0.022225710886408175,0.2687396229127635,0.030193088316655986,0.04712168207546048,-0.03568058495622274,0.02233360872659037,0.028117043486316773,0.028669453606096795,0.008836956780288221,0.018932410079910315,0.04214333752539843,0.031132350205251017,0.03803599626008369,0.03142319533693108,-0.008651077685709734,0.02528664788967759,0.020820532165472156,0.024909397238884343,-0.0500189137206647,-0.019849181089104214,0.033395101654773184,0.05306861570096974,-0.05547992118020807,-0.6368136415810138,0.03685666030907519,0.022821294895291434,0.020363610813836173,0.021386952206404786,-0.07931518492934123,0.02824317113922535,-0.00951284333608162,0.04752306162608581,-0.06730299034919576,-0.028375921808997194,0.0009472873676467181,-0.0007741985545909305,0.02341563762030606,-0.007591346076214531,-0.10629590527767195,0.02518128857438055,0.037618552783259755,0.021907910360735493,-0.0086931956880585,0.035944892740539365,0.014157058922971807,0.019498908646874785,0.2452343939734095,0.029891224064492995,-0.0067855936911263934,0.036366457131412254,-0.05023632479477167,-0.09392536285432448,-0.009960403863697242,0.03083837517679524,-0.02779497574829009,0.25290093495263316,-0.028629028760039178,-0.01773762477806558,0.2992978342359037,-0.060851581212182405,-0.3489164531045758,-0.009699086805977536,0.12375539847429425,-0.14028324198208578,0.00320615339563213,0.02043974652499194,0.03483349649193859,0.0068705081908353016,0.0019378507777879834,0.029766256096361014,0.2967620278688369,0.012111983685211263,0.053429862805772145,0.027622624999222006,0.008292183514455265,0.0016031675291462086,-0.01626113867170002,0.005787018920086002,0.03289133051495781,0.01429559449481813,0.020159565889384536,0.0070964728948512195,0.0009116008297772436,0.06064618735706257,0.016331554033328102,-0.0516924600254026,0.05457416205469509,-0.016407183905647122,0.01396792195047136,-0.01942103058142987,0.05853005653003598,0.04349214169117334,0.010081838321350397,-0.038354731147228815,0.017955637609022208,-0.219579486185227,0.03499016256691176,-0.02546520938274247,-0.08947346107624751,0.000503930925919018,-0.039030981721279494,0.021438065671683125,0.00961032960059997,0.02425377684464702,0.035097184288580455,0.04457923546903543,0.042410720698366426,0.014970535366835817,0.0781882461026349,0.03206174047866795,0.0199663549593383,0.017523696057150095,0.0643768494336135,-0.03614646912689357,-0.16217858071842492,-0.07160222828480642,-0.0504264649902437,0.03343412743891475,0.031814381958464526,0.03527943690093952,0.01987353258965904,-0.07409355526609372,-0.006368065529494167,0.04221755186005705,-0.046448257744631315,0.030961048682861682,-0.009289490222759203,-0.10304201533161601,0.008232616109149367,-0.044520093143144236,-0.02251872913045383,-0.0016171966134538938,0.02960158178339863,-0.04109862065506812,-0.002432906767760989,0.03819345768320578,-0.03169907083140447,0.019334557546880182,0.01026060146803137,0.040876123270144595,-0.02611822983855158,0.01263563787202076,-0.013667495212996003,-0.0035213488176328443,0.024946187867015822,0.008512688773855567,0.09854944241711826,0.014101232945962229,0.03171187158307575,-0.03293390798898282,0.0261544878588635,-0.04324508340744454,0.24253506265675692,0.023946028203126902,-2.0252724954287338,0.01486685678929266,-0.039463388283471394,-0.0414604157777261,-0.029337498051863573,0.03742898372542114,0.025348611917377254,0.009660019143866773,0.015265222027484978,0.006058503461081541,-1.188963174010545,0.19431158700764786,0.11083260282311012,0.007398329378644178,0.07464508071412823,0.021908606828132213,-0.0008613571175228802,-0.04450508331852622,-0.09532123514786313,0.0459504434409034,-0.03205040801767315,-0.04711040511565862,0.0263976645656114,-0.0803373123018555,0.002702242291892556,0.044063835963792056,-0.2602410057837188,0.008690913212022266,-0.0069366764351563295,-0.04270759637812974,-0.04452029686468919,0.06481070751768316,-0.005410724887988116,0.012146771605074434,0.09077753906899419,0.05210113426714261,0.04606394254588492,0.02981346986215637,0.0100420740788217,0.03853032077927592,-0.014519842399344856,-0.03322673965067979,0.0005384241385293189,0.014706411657148595,0.01808776498181859,0.03230388429108282,0.019158981140904995,0.02972123665626285,-0.09348809901246978,-0.0464686079842639,-0.008772854992875976,0.017986450451092335,0.012905916449789728,0.005512029081717428,0.16122091754642892,-0.027212727579964697,-0.008063034680838436,-0.04175211158654719,-0.031231542667795275,0.029461373387463567,0.04854054477859088,-0.02551818122421752,-0.024177565867898914,0.045015113954214,-0.017674848042136003,0.04898467301290373,0.03101111276275281,-0.2840118927338522,0.014624615607672465,0.01671137580167825,0.027878877625421288,0.037962687887502365,0.020835089454229676,-0.23677071726219562,-0.004642709985329092,0.04429725807135163,0.0015158192294808324,0.11564757137658775,0.049537243598934466,-1.6603085834461444,-0.06733851068521769,-0.10047529918552836,-0.0002478775672725751,0.046940965675447886,-0.0026269939466404533,-0.012358808448464228,0.03720436479517449,0.028340183572550658,0.014929514801505027,0.01205008667929239,0.05486089434736962,-0.058156801699532495,-0.0882664303774847,-0.005429294144423936,0.006370977107362584,-0.005605001326620242,-0.016100137300534854,-0.07260604269170551,0.017978779696020034,0.695614348630967,0.00385608973992615,-0.008464612993542574,0.025988283116778685,-0.5608849354068828,0.002644963954401706,0.053603094000981906,-0.059308943116614894,-0.00241868725696917,-0.021741638020605244,0.017804942400680125,0.0334819556800858,0.022796482944407222,-0.017469634060189306,-0.03656846336437673,-0.013719945854993087,0.026742293948831267,-0.10982233941475138,0.03523483731378524,-0.046235979150038,5.158980342761275e-06,-0.11105402464432192,-0.003709195841268271,0.042588633598751105,0.02888566935271385,0.029831248086959812,-0.06626216411770483,-0.04069037980990868,0.030543970294736714,0.013498323319219024,0.02854333271991981,0.014653483796860791,0.020253087417099417,-0.044343513749675316,-0.048863565727724635,-0.00019785147911778692,-0.042433599423590665,-0.44794721219119066,0.011715360638886337,-0.03828602856828676,0.2525675984243927,0.18120493316644193,-0.06112320231555929,-0.043943842560584236,0.0123562420436741,0.015386633321194087,-0.01795571746682084,-0.03840428016822002,-0.0483462531541537,-0.016807705202095714,0.02026474216225064,0.009459671978775333,-0.022060356757389682,0.04955256527670983,-0.014346967609743543,-0.030341598621650187,0.006550372302728889,0.018531332776319714,0.036641646864939856,0.0025603586373679752,0.023675238539003843,-0.04568366265979573,-0.10679371630491882,0.01360793770020443,-0.4642964974883299,0.011692277763045808,-0.051640407077299874,0.04335416933580203,0.010402238866508153,-0.020446628107493522,0.016573530131521835,0.02403776257303426,-0.015473547826563355,0.06728166413344434,-0.009211094937908983,0.0075390882541496165,0.023494913233845834,0.028729832925797314,0.017667910662824554,-0.06263756649122253,-0.06516231779751468,0.002531883284314617,0.3197618244645591,0.017322927727932223,0.01019298137981571,0.013158703131339534,-0.035376682384029474,-0.002066112857091726,0.02767809968294443,-0.027519202408088857,-0.02633165327711567,0.03542150985128936,0.0052515051253039695,-0.08391798233462044,-0.07406613580336782,0.003967951709450299,-0.007224620378836071,-0.05055749846368063,-0.011391458137019871,0.014179013824081784,0.03548571186974928,0.043077360009684935,-0.01995703937231059,0.016672835967680138,-0.010553993573917442,0.018810078533573877,-0.07652936328476552,-0.015883555858100865,0.020070813987884288,0.027831367921479677,0.03496148961391258,0.008128831487063408,0.0370207048782849,-0.049215892827847954,-0.0011212564381439243,-0.03458681217946762,-0.016263722364651345,0.021178048477901033,0.011362994605341339,0.17336985560992008,-0.0037940905480801307,0.04187303204438766,0.02200008708540541,-0.0577227700243072,-0.00424027871068426,0.03338418993872756,0.0518546556132699,0.04188980135877788,0.019321225220063836,0.016417025495425053,-0.0024329443275897308,0.04874659965513299,-0.1204192328736468,0.02407193540479023,0.015985103310536736,-0.010820374870854332,-0.0425742966546592,0.017846574887582255,0.0362316555263059,0.013874721074181442,-0.010194623877193108,0.014783092691261497,-0.03553077195345427,0.032314503313738085,0.035164242401215136,-0.10458111201294233,0.03341659335424475,0.024072577126592946,0.04947344633383281,0.02980379052846839,0.018628803025711085,0.00432848692033895,0.001958939661476136,-0.050662753931708306,-0.013143323506429966,-0.013449071459153802,-0.10414012291015069,0.0009921051719025526,0.7787238526911211,0.02240437756840619,0.04445755501356289,-0.08597273143187009,-0.001486378914640689,-0.012382961353789338,0.016169347614224533,-0.01664279790690369,-0.12156300589975462,0.024121022310060306,0.03272771085539463,-0.0003681503484101014,-0.05970638955175718,0.030491454519509426,-0.011406393084115625,0.0071902676627079,-0.14796912876128698,-0.013328483591995665,-0.01606634825170018,-0.027775858649965453,-0.07591571766675552,0.2723668033354827,0.021775888737491197,0.01747869207696666,-0.03991851231643914,0.016210994836440007,-0.017810648608251524,0.6985674150696296,0.03598350435800826,0.012204445805081733,0.07172845223895988,-0.006253472030495344,-0.014008554657494465,0.01466787291086035,-0.011509218397824419,0.027806845631296026,-0.042403218191813946,-0.03083090198845656,0.02311078018257685,0.04068014833699795,0.00914496963214646,-0.12126948034248224,0.05374578088373856,-0.0474928825124731,-0.10857017415938526,0.0025372713790071033,-0.016033154570104752,-0.03720899098338562,0.011265888114022233,-0.004413265451802685,0.028746708886418018,-0.16629445154623063,-0.018417802477881967,0.002296833167756972,0.0036403037729627434,0.3252996172520499,-0.019168255416165916,-0.08797129420481815,0.0019348309329707035,-0.028863700159242115,0.037194259044946956,0.02184751478068783,0.034657665211150976,-0.0014603276709072657,-0.9738754193455786,0.00015987258094517974,0.007302457363659556,-0.09014015279216339,0.04684192420664021,0.027893895695352285,0.06070587787638101,-0.004745301005352805,0.041979530914281256,0.0067907494505750525,0.008563432880282234,0.04590325463275336,-0.0008633693332102278,-0.019005017128092643,-0.3809924386519009,-0.14950207662539422,0.03838824156465605,-0.011103537074593665,-0.06700972262342524,0.007095003206137746,-0.025688503771695518,0.03503662514211694,0.017605280510778868,-0.0021706971894022175,0.01898262121123482,-0.08930186607720769,0.028127525159462635,-0.07832519103290436,-0.023978174873349866,-0.23836783453796567,0.012813577073091977,0.03407656080902505,0.030355686257299792,-0.03228756149980939,-0.0021131119112613424,0.01891900993672257,0.02081022401891196,-0.15486800482853483,0.031908307909254606,-0.1347630193799876,0.002177345543180141,-0.07652242530149986,0.04785972714772651,-0.02548496551154277,-0.025903267989255397,-0.07058471683348323,0.046816492828434204,0.04893377256675768,-0.03291735131346528,-0.046836885137773794,0.04053255958251095,0.020950336235571562,-0.42597355625004923,-0.01268501215740345,-0.00390970483378928,0.031831323757895505,0.02765212482012194,0.03773628655073864,0.030190835573071288,0.04241016972738097,0.05815670202636968,-0.008075445111077018,0.0011122768839472467,0.2120436542724304,-0.06721608886093235,0.17263410515399147,0.05484120425845716,0.035979640868986106,-0.0267045540569007,0.04186462003148437,0.009644488322434894,0.07337695866076945,0.2522158764814812,0.04660310802877949,0.10009525362920206,0.01819669449446911,0.010960245599776413,0.040582394582609815,0.005932549874246001,-0.0543690075446223,0.04616264336150726,0.023532481975393628,0.01801388138713673,0.004510083613400825,0.48997140544533613,0.03850794777073083,-0.2607637096375559,0.03282069609355778,-0.030193464181537594,-0.014931339851211436,0.03751641099280366,0.002339263051485741,0.18400592729263865,0.038186079290718114,-0.0031391145669948588,0.023216566843164477,0.02853979513195227,0.02238323569810857,0.016491180450764635,0.023709001588075252,-0.029319938169117096,0.014971009932008136,0.030024101054932424,0.02722765944620046,-0.09394689004420972,0.022573931918327957,-0.010853719566815974,0.057135858382117606,0.044257846595796284,-0.06376271152161939,0.04023030159004273,0.010066710904054926,-0.018637052176690427,0.017517358374838796,-0.005414445696665234,-0.1654408860224434,0.006940956336534974,-0.04016651779401913,0.03890742861975377,0.021373312306099974,-0.02561444488563001,0.019631459219990596,-0.00035689027510127467,0.05360894828038313,0.04751747721880955,-0.04458274685434142,-0.030270285571840628,0.03601812384699481,0.025894728499691554,0.06146797457088183,-0.104265060946744,0.04299761277605425,-0.4505928343665269,0.04943899353881655,-0.013865654983909651,0.02019929691008888,-0.0048911877884363275,-0.018792610326110425,-0.015952922763910336,0.032348703664042924,-0.056061560470045894,-0.041960064384865554,0.028392621222840073,-0.005892644456495138,-0.012282053763777374,-0.07811170354991585,-0.0021978299912353595,-0.13208467427505707,-0.3211879306303651,0.03506523360406296,0.023975407499130113,0.0040719405133218395,0.018630881730805758,0.010533117268934087,0.027092406252659875,0.01849895339838635,0.04210347170019362,-0.2049014853673225,0.046580212428021316,0.03782566786844072,0.03335598709930157,-0.011178765364448699,0.1700660527903587,0.008209606174286009,-0.11296311481254344,0.023952177832194037,-0.6766151912686302,-0.00975227755431939,-0.11267003153844639,0.017603772006449123,-0.017072715140147805,0.04184605575587764,-0.17452897489360134,-0.09983000351369471,0.014485621431207088,-0.05880134798070282,0.028537570321461325,0.04569588480273658,0.019358171677750658,0.025892158768931813,0.04283825349923193,0.0018953133443308098,-0.0436363448856878,-0.02640573534019823,0.05065354071706657,0.059589681119937496,0.012481285679879684,0.016904029204119406,-0.25440873993945384,0.036974837819373364,-0.024256219557895163,0.0334495994214532,0.043671387312483934,0.0027974256934591778,-0.05591428006867528,0.04196424192261979,-0.015383804560724454,0.009785602665382606,-0.12639799809640348,0.05896179241166325,-0.03960913166494636,0.008037202368411074,-0.0019376393204751242,0.039457060599356775,-0.013294623428342518,-0.03713077165442742,0.005728563156467926,0.06041362638488803,-0.036247116920108166,0.010790777385658973,0.04263288962722425,0.010722518040331228,-0.015598491495653465,0.032343959403654476,0.048831141517602684,-0.2537355775216392,-0.010497947957750308,0.04480011646915108,-0.04357790517690715,0.0512310660397197,0.02173322465080199,0.014944740873271538,0.04664367106136232,0.014352260890028445,-0.008481433394079528,0.040113731698496614,-0.14302819928628555,0.03778748071655128,0.13630297453215426,-0.02802532121512469,0.06903883833752814,0.005088875088418417,0.03286945452058549,0.03931020285246306,0.019613096001990002,-0.039895983068961444,-0.05300085468754054,-0.07690598755762938,0.031228648212999695,0.02138094020964523,0.040511086404288243,-0.027299837922146748,0.05491627431746767,0.0069500238066656905,0.004574402653482878,-0.012687664900210014,-0.009672968460048935,-0.14358175818957256,-0.004988585870277392,-0.0037935424581297082,0.7914998070795068,0.004435736860871648,-0.009319667652082452,0.023643669917104357,0.03356153697770576,0.03237608776461269,0.0013832901319061576,0.0036945126874860816,0.0328251557740432,0.0017826818380286009,-0.016284663629688487,0.04232872939275881,0.3774099006258508,0.03974875507688237,0.024445761509167017,0.05745835899006094,-0.015017168324286147,0.029230231321249998,-0.11828290769650239,0.03429132352662819,0.06536701292339854,0.08076935966323663,0.01737169766720843,0.0015811054557765534,0.032159266920907474,-0.016339016830007044,-0.027910317916783233,0.008656989068152876,-0.11697384283350476,0.0419915234231559,-0.03442995063644497,-0.2899659455301149,-0.03059339699829996,-0.1096063524901043,0.052514219185381426,0.010363401072327822,-0.027085931412103224,0.019277888832148288,0.03491170441076629,-0.001236185648936561,0.017510025493757755,0.02671442044932225,-0.04398030451897126,0.002324247366782772,0.03749649808941314,0.034979768086815924,0.015923742339105363,-0.03311544152644084,0.026377610166383812,0.03470564623104853,0.02199407634712042,-0.07955307249554383,-1.5004271591989786,0.11047285968824368,-0.14081578291011826,0.11332682131143049,0.015209164151430142,0.06774591212431479,-0.03896676363668697,0.27945993608897723,-0.006241974372057485,0.026403847684337393,-0.004259680279424407,-0.003942691467160827,0.04118403952977645,0.027078794395663696,0.13670762571841968,0.008821773834213086,0.018293946751978027,-0.011916286203963431,-0.03387449248830312,0.05078353263266603,0.033483355525503036,-0.0945389780958996,0.06377698627930387,0.025242163878664292,0.012798690613930871,0.05662827412108877,0.008700181649965912,-0.03497486818707144,0.008211100316877273,-0.016853836520357008,-0.020712740744169927,0.010868081538273311,-0.025824993993636625,0.0027269430948758254,0.011002657038780698,0.03453162392244692,0.043123821396252926,-0.005614794516288955,0.052984862279869635,-0.09541707107176729,-0.0313176551815421,0.018702481320300852,0.01138702466673278,-0.018066048080362395,-0.025246291593056754,0.032365011396363205,0.03352676175017994,0.005273090618727115,-0.023182336974713964,0.03985381006747898,0.09163046705306609,0.011072479998748313,0.012273413306526261,0.029426276864579565,0.38391458612012597,0.017486611864536972,-0.1240811009237,0.29617394106675415,0.026520731680664798,0.0014607701629642175,0.024756127591672207,0.03528756806107646,0.12196736393028922,-0.022651321340892136,0.0024612668376838413,0.013653716236632,-0.04401796408233216,0.07126027722325447,0.02353657702694755,-0.01679467203600199,0.008031166893015246,0.013223210682265304,0.009551764730643305,0.0736321002507709,0.034038055115811885,0.02423663652190646,0.03547419387401567,-0.2640068677877473,0.026869398840245372,0.02754391406612696,0.0185993516755633,-0.02813534743654658,0.004911575445915117,0.031167525050310514,-0.007123096611701416,0.09424542394252942,-0.03875235154198503,-0.0028536531921534436,-0.05868927422975065,-0.0004434912956438392,-0.018364749867303402,0.043344956390648136,-0.014510351114784437,0.011383731535806386,0.03757437945953192,-0.007335029023415915,-0.06242892870403513,0.019216640541079303,0.01718742479189067,0.025089807430108538,-0.010978532972946105,-0.02461911652760224,-0.006617963343527534,-0.018149044359511562,0.031044971901507266,-0.14479048651103976,-0.04339802533475119,0.03079487667014254,0.03878348823729843,-0.15530088304516143,0.023265667244289922,-0.08704572468913271,-0.012560906405185574,-0.021720248523334915,0.01880982389902183,-0.004304195569790041,-0.10970415507354558,0.007551106971575605,0.0014812871298823915,0.012299114844846666,-0.01969860576467719,0.043434841718934115,-0.07656355121932748,0.066257690153926,-0.027438687076254232,0.07603905651536572,-0.0034331187790069212,-0.041140707887618776,0.024166633763459684,-0.004890397084555509,0.06721835011106227,-0.014503657984522916,-0.026593420959428543,0.0478431168328324,0.057545280928667335,0.05112160033430515,-0.03561019023506705,-0.015898141225768922,-0.04316944324199372,0.043341741719769664,-0.03759391208477209,-0.01458971278254468,-0.01661966960382226,0.03989972249253927,0.05014048776044473,0.04657992351627235,-0.3035716116655736,0.013240149834758167,0.04271787391272473,0.024463559198235132,0.00618775561268644,-0.14112466988454764,0.04195344360173898,0.052423367854121765,-0.08196844127345404,0.007863308038511348,0.02418475734278272,0.04093342217566876,-0.016860005110785295,-0.4128592942951864,-0.05403566367536817,0.04612817153000404,0.028222713340392228,0.051688073731342245,0.033256900084737584,0.03418509599229691,0.005200380426255105,-0.014741586651878122,0.029942436438119474,0.03891501029365981,-0.030977874637378448,0.021838259720866532,0.04065873249492649,-0.004543949276104836,-0.0505973000416429,0.016909894439507397,0.008296260420578506,0.07675745258830587,-0.02147575468531856,0.05327643662825333,0.033492087375704825,0.04273306731404065,0.03106170970016872,-0.07953983308590683,-0.055263304271826116,0.023304664699111244,0.0057563547378898065,0.10736452961607539,0.029189400571949072,0.004823394193041771,0.0036595999743267277,0.024018713954567908,-0.010367701284116302,0.01786923467199873,0.027016467681393985,0.058762125494288456,-0.07454672417499357,-0.0051891602323698395,0.014231739047037464,0.0003842997162462378,0.03170220318931768,-0.5468667418295141,0.04188538821028793,0.00467090432901235,-0.03960226454088012,-0.004579739072782936,0.037227725071670235,0.024690261381492107,-0.05581202540859419,-0.007448088394494262,0.029548255587511688,0.005798583672333077,0.023816608216225464,-0.050781313940406116,0.07286601051027289,0.026193778084887535,0.00520614449593214,0.04733243542776313,-0.08244616793692804,0.02755417196197617,0.07174669135787227,0.016671272554631553,-0.006702508462783736,0.03490400073241206,0.07937363389514598,0.03922585489270009,-0.015294516154513924,0.024602558144190274,0.0004011405682856328,0.04033006571933763,-0.043373714663604075,0.04175535072322767,0.01850182489735386,0.03840401469206408
-1.423911457277195,-0.2205186895124519,-0.16979813546136938,0.27242933051369556,0.010203515285770343,-1.912569135839395,0.008019269710071884,-0.04892145726729881,-0.2720343621295764,-0.23590448307652798,-0.30398472013352296,-0.2077006026077011,-0.558175032925661,0.3552186130418783,-0.16605734791675997,10.03024746838291,-0.11116479678171752,-0.2336082912129604,-0.512984769122099,-0.6102666052546037,-0.5833147783935854,-0.48187684069124376,0.026791014044811295,0.18969348638026173,-0.10091328330603778,-0.18974135335073505,-0.17683357946852085,-0.050120411376109564,-0.2872996001978054,-0.3091748120427073,-0.06402837572235257,-0.24434796747448267,-0.5135006872851828,-0.10296727951596825,-0.011399300523855413,-0.008558610980756266,-0.15750947846000266,-0.20169667364758642,0.061855904487406556,0.06801371716417166,-4.251921574883506,-0.2467412664873239,-0.18302333484481215,2.7382503071049653,-0.2248617025425932,-0.04035061114077593,-0.07259667919938022,-0.040685964052320334,-0.15873769980641775,-0.6919783122566954,-0.2572637331208034,-0.036490757107216366,-0.5142337614135013,-0.04304665457028303,-9.222682876616652,-0.16086715222165918,-0.21336068156096105,-0.5492090047951349,0.07101731606673574,-0.16809119703180936,0.10674266922796989,-0.07510885013626725,0.005490691990839541,-0.5593397356434185,-0.20376060518936254,-0.10256381266076436,-0.12201706910231605,0.03506283496706277,-0.14821066184191786,-0.5536805402179297,0.36339714612495216,-4.792250581353453,-0.12981780287063072,-0.16206264599135678,-0.13044384794578687,-0.49251000316874594,0.1120736609869209,-0.1565298935801581,1.1216120278318156,-0.21481031616934668,-0.6705018526295733,-0.010230155622928016,-0.14797327951803008,-0.2723076511360911,-0.20337675832530866,-3.119259348644553,-0.25861589184429795,1.2723883002703567,0.06975983710847884,-0.2233917189845434,0.22512985740691124,-0.1900858605362242,-0.7216876848919337,-0.17519938670263316,-0.14374086550211404,-0.15129781985332813,-0.030244322449351737,-0.31014137978611794,0.41641733344613824,0.07196471079433198,-0.08514001733870533,-0.31447226103666476,-0.4029941164580042,-0.2497542373417412,-0.09978873096112637,0.13288727978209283,0.021791854530921823,-0.11289403332904724,-0.29809183759323893,-0.09740019076567469,-0.02145286004275924,4.059764202509705,-0.11635325261408616,-0.3581148519243778,-0.1633238917282464,-0.11420208295645808,0.005733885049854486,-0.24660040688560125,-0.09453075779483244,-0.05194459029530359,-1.2971561829194735,-0.16163761455153103,0.770416954425989,0.07012845311989853,-0.23751507572529246,-0.6390248543554032,-0.4126912575335753,-0.07558218073179065,-0.14726419415138656,2.4060061583288457,-0.20137836842840692,-0.3414664264596724,-0.5650867752469803,-0.13499628993094218,-0.5579101139613898,-0.1417095195643011,-0.11620089408932033,-0.3849354923261142,-0.22561612840217793,-0.26315627056157287,-0.5317589860418835,0.05975913563669817,0.0019383845785965088,0.1691489365641297,-0.3240554488164422,-0.3352412152722441,-6.1525772053672645,0.061029352630798825,-0.3753678839316773,-0.6393741408777116,-0.15245317215275955,-0.3471421219123078,-0.22805444061181251,0.10187513119199108,-0.07621543540326357,-0.4350898141285954,-0.42111510469399593,-0.21047789681666765,-0.612362541540578,0.0395767123342748,-0.15362273968017698,0.21062878340185162,-8.254980879147986,0.035676502579593775,0.12546765143388502,-0.2773019058266626,-0.5478727584017088,-0.11035863297000555,-0.22311804727252935,-0.0924844079511502,-0.14114520228088917,1.43066856712159,-0.1970518463316464,-1.136056075794838,-0.1413251384354315,1.8738511404561689,-0.8431565983673913,-0.2848696411045426,0.06405364704643507,-0.1050705496527268,-0.4665580244226673,-0.567041546839166,-0.04281143904995399,0.14138609365686677,-0.6247946344295873,2.783058671401357,-0.27250583303601217,-0.2660880212011056,-0.18761554072929648,-0.016303809043534023,-0.47208707902245645,-0.14941465854942904,-0.21288970116098282,-0.5744147538898641,-0.013113028626377496,-0.4886548273253852,-0.3361635815157672,0.24794978657004532,-0.23362145317982386,-0.09836814730730935,-0.18942341011213398,-0.10045088047883599,-3.243674198211946,-0.06894877201125796,-0.2315474528763437,0.047628100027720145,0.1436328804523379,-0.5840911498396113,-0.2496443481785253,-0.12321525701321301,-0.07578300234562163,0.07213714485480709,-0.06960957819886714,-0.15757048713945176,1.4889933123614782,-0.0387609080645213,-0.19615477445158677,-0.387397993345518,-0.712727275889169,-0.25486059342986384,-0.6701562076541991,2.6950597145568373,0.9187734857206382,-0.3403508204501782,-0.5801707411942831,-13.763986635111447,1.2213001865419302,-0.26371448769192857,-0.21101893161384025,-0.22745674788562784,-0.6511126641542632,-0.10797082158706973,-0.6713002913040041,-0.22770385268630985,-2.483586878980778,-0.21263150004556364,-0.06345509450236227,-0.17291511694144857,-0.025696424755677325,0.12081947737167076,-0.36129201397005006,-0.25613616912274634,-0.127179813817871,-0.1664814847835818,-0.0912224589744061,0.0315875009068748,-0.24037347237120024,-0.0930931524377464,-0.20981767340016172,-0.19853383341297282,-0.9313577298550046,1.8054939540285069,-0.33820828674781994,1.099302183988913,-0.07371539945084525,-0.1765698529240461,-0.14055464097182743,-0.3828787626539556,2.770606109327482,0.5117900009759034,-0.1336715521921567,-1.1031398410788114,-0.42447766796165054,0.008316949662407746,-0.10522319018281992,-0.015341830427106774,-0.11281200842323953,-0.4413930825639774,-0.6117690804527319,0.03318682135153654,-0.32422985561615236,3.897047265375855,-0.35394005367676634,-0.050189601203631605,-0.17459156230634335,1.4760954457497293,-0.049130527126299714,1.5157816552963275,-0.08896496991675407,-0.27975151437374907,-0.3625630394692377,-0.1402720068781076,-0.07554757251213712,-5.565889733195896,0.13772576166875025,-0.042875683230679015,-0.6253611369977693,0.1495421281298343,-0.15819842845530777,0.13347273393570436,-0.27469620101067005,-0.18036585942076525,0.060095366958471015,-0.017967636093211843,0.1667663677821308,-0.00829762526024237,-0.45201604299204656,-5.6152318638542305,-0.021891458054052786,-0.13430847747060345,-0.2011800845308648,0.10109930815489862,0.012741482265854,-0.1152883647872791,0.4630173202207514,0.050099257896820605,-0.10180861886891694,2.9146386365396797,-0.19422625265615587,-0.19048373327331802,0.10818333814007684,-0.0375815046744074,1.1841030500561573,-0.20525013867349767,3.845396342581778,-0.07395885187426196,0.021131771695322207,-0.30497194538384986,-0.006134785717890258,0.04940006021342162,-0.048072870469072805,-0.23412437914100687,-0.13268990836077735,0.3139332004611882,0.18653789022868464,0.051682634923215405,-0.6496863404568385,20.464715801177373,-0.1485171793307717,0.02715285499263545,15.872673508803624,-0.07815721471887638,0.10972624691176995,-0.00842169606865483,-0.45892673023860353,1.2718438336976412,-0.07558944885574961,-0.20758117852198713,-0.18531695587958066,16.126064713154843,-0.1699519125019212,-0.636050519402045,-0.17736422088114978,-0.06383891801691509,0.005221083858883435,0.12236837804185582,-0.04728412665846243,-0.07008351913609337,0.05439288199025959,-0.12187963446548616,0.07992711704581681,-0.30795411421812013,-0.10354118667571739,-0.36717894065048,-0.6458370603801838,0.14680333475296445,-0.4810766430152395,-0.11166390696989469,-0.028362704082257894,-0.2680373030123175,-0.2289348247099802,-2.392184762645415,-0.02048824279839747,-0.2823673302011978,-0.38386561768069805,-0.2738225516708177,-0.2667345697199196,0.7741265190855001,-0.537334405095662,-0.037309917500939704,-0.10914103223709684,-0.08952371267538381,-0.19506145490713048,-0.03162291910246009,0.0763714192635127,-0.4239627440787287,-0.1349492069539386,-0.5578728442457415,-0.5471495251175752,-0.25231450419590457,1.6087524182470785,-0.186141415453396,0.31876510962627763,-0.0876347362654014,-0.7601666477440977,-0.009001795838716884,-0.2455532446265617,-0.5132052647690096,-0.18037196270233655,-0.7282483598863374,-0.2416311263733151,0.08803016844360124,0.21290344564713962,-0.36668527972467785,-1.924872376689695,-0.7053140583581644,-2.069571887370047,-0.26072297310347126,-0.2073521842684904,-0.323004449462146,0.0331344087320917,0.2714327125560816,-0.148309880331487,0.14777878664065794,-0.1985132472052115,-0.24642890960283584,-0.2344285726571321,0.016645293685353,0.0005452027024911959,0.11848189977343535,1.1032829474240426,0.1546180348601256,-0.010309494611198353,0.563810878003453,-0.17728047913933292,-0.12671024776134435,-0.17810459044648488,-0.23357733594994692,-0.02892752154466202,-0.7868640335626316,7.715984635759794,-0.22290132840269222,-0.6070365766398363,-1.348034491059785,-0.018376778079342647,0.06742266006369715,0.008253593475656868,0.03377265475387405,-0.3620556927517807,-0.006440127194953401,0.08747076176334566,0.8760528781186496,-0.15994637069516002,0.044419545959052245,-0.39967119246159777,-0.4652964173713806,-0.12504860463699913,1.6727450265446389,-0.2725495003981342,-0.4031275425370067,-0.3591938464440587,4.873281320145995,-0.19683326842623625,11.896289286991616,0.8876319203150812,-0.10818892896004308,-0.09669360666246406,-0.6371657671459575,-0.026058056743998213,-0.08458307635504528,-0.5200434176808443,-0.02119970232182563,0.036701675830739716,-0.11252280330652886,-0.4777108529594938,-0.24989206627578625,0.3825845156887584,-0.5325005126335078,-0.21346217629894323,0.22776265945130136,-0.5426403897185118,-0.20329423154254733,-0.17801626654633873,-0.14368496738812397,-0.16674881321320897,-0.004295856104635981,-0.23501969405733514,0.17225229243666623,-0.138513306088571,-0.19160150486894392,-0.24031488031408155,0.12622202594188664,-0.5719878985505356,-0.01606439796140375,-0.24749450146754684,0.08906766668539683,-0.15069467581710022,-0.03690912960626061,-0.4633236881481796,-0.502700843048865,-0.1946745643270365,0.07002316107162804,-0.002233875208343809,0.0705386093864417,-0.20677857925961804,-0.6706513310100636,0.5389575645242294,-0.0926893873371404,0.030847318909309675,-0.19698159404121682,1.1297760997905248,-0.12071968063124912,0.20416804046954493,-0.14072292216880314,-0.1841665844820717,0.013798961082591104,5.9627851947423425,0.1456752389168251,-0.13051914725722308,0.002415658227610821,-0.23281799788181193,-0.1540664139786345,-0.733321114975689,-0.06669232035604819,-0.08727192294995648,-0.19086255581776077,0.7720778763519635,-0.42541636216347034,-0.071328559818488,-0.09014560377413185,1.70220309453158,0.0004581295264062693,-0.4445416414058115,0.06363190104173003,-0.06460557360037159,-0.10757611955549179,0.06976717212239282,-0.18268796607850538,-0.14085081158722768,0.12838738299746233,-0.5798901200892279,0.032815086912710144,0.10606082235419534,0.11664053983018827,-0.2028246924825446,-0.1833806005482228,0.09981363356659186,-0.223193235851313,-0.11273405942817306,-0.014869169509561882,0.26412617957652756,0.09797362615502815,-0.07244244493984596,-0.3882016509623185,-0.7184126751103291,-0.414350390560991,-0.27404259011401,0.08787597799488646,1.2621401068969422,-0.2632272061692739,0.016746132055782386,-0.23080119597609886,-0.11171700713391071,10.530489755502344,1.148707452716725,-0.25500082874559526,-0.45838767002862385,0.08284014195278204,-0.15842558925143843,-0.26923186447496295,-0.18788993863296236,-0.4728685566580934,0.015352366100865504,-0.22167842277000266,-0.017325819950378563,-0.1620321812376656,0.13706807541827107,-0.11549256298484327,-0.07072313435219242,2.3943799957214345,-0.34402930179310404,0.17446297624110085,-0.08676726881218348,-0.23716008344131798,-0.24625821956512706,0.014140024755065532,-0.18203722312641069,-0.11681066039808297,-0.40367889652255584,-0.2525862067494184,-0.202565886983769,-0.03369573572142994,0.09197494147005746,-0.5675619136463039,-0.17621132969800288,-0.19141032818498824,0.010645995244203054,-0.22942374503180096,-0.04153991316267562,-0.6465884812655601,-29.631293873743328,1.4672116539190263,-0.126312644669865,0.08522419523287426,-0.5162985879489491,-0.22620133680893395,-0.07721911261333342,-0.5713865796380401,-0.7439627767655709,-0.2223815185255923,1.910372978289001,-0.03362007964598866,-0.24233093850621,-0.677327964748544,-1.4680016453192233,-0.045432642178070755,-0.43245395178117285,-0.48623038201520113,-0.05308717345324516,-0.23293233856913714,-0.21922583906875517,-0.15409115001574436,0.16649242384483104,-0.15463137963511173,-0.21403326344952658,0.04448371160998149,-0.18060485922913042,0.09155214941651448,-0.09910202817189943,-0.25681891092444303,-0.3630167278949988,-0.6817290322651045,-0.17858301761100343,-0.08514345237196116,0.06894143624944792,0.09329912542316383,-0.5347944499599442,-0.1809271442013646,-0.13326276852452174,-0.02715172672139986,-0.033020364917856176,-0.12258264980941966,-0.22323034437598768,1.5834103032951983,0.2723874296730674,0.05413363488805581,-0.1924398340234851,-0.4135650706519462,-0.17511311366035845,-0.14919460444171373,-0.6034752979904382,-0.12145037522769042,-0.6100136793636489,9.22009981980896,-0.24257457721715686,-0.2099302207990631,-0.0211992207372593,-1.0170992849169622,-0.19996908625184082,-0.15757239481858287,0.024842272993398504,-0.22731639917075952,0.5359298470939365,0.00863479501343069,-0.2057280381476752,-0.6208106480665238,5.034084086972675,-0.08860221772770469,1.0862838719602634,2.500653965375839,-0.5015308318788216,-0.11835421884010343,-0.41408512081519944,1.7796727899916125,-0.2002621684383497,-0.16711866943377118,-0.06862575729257704,-0.21620837231023246,0.03037432224088952,-0.24824918737902685,-0.1530168298763261,0.440430844024162,-0.19502346512830682,-0.10884055318839651,-0.2137293651128829,-0.14357081971130656,0.03031512824429394,-0.26698357572794573,1.2219751729396027,-0.013836667577030465,-0.18050846665323417,0.6295990683827039,-0.17573342226530866,-0.3637522915820941,-0.18710958780422246,-0.13208612314092855,28.24669831046002,-1.08765268686567,-0.30018883312177713,-0.13454985555017718,0.15426544627987582,-0.5526421354813263,-0.2466813157282417,-0.160271356452835,-0.22272974427311568,-0.08688747934837171,-0.45092593145798754,-0.28504690250899284,-0.42898130695024134,-0.3097869923846522,-0.1701676262049582,0.046610377254739974,-0.22557054766721413,-0.1774498542447554,0.05323844794088347,0.07761331152354646,-0.024611149406194674,-0.1412004185017482,-0.25861592814075174,0.08308692717718084,-0.23338891671295645,-0.759414948757145,0.8952020908206776,-0.12927245381820843,1.5103830095775073,-0.5273082622753017,-0.17945120298775194,-0.0951362691085365,-0.21736692669863705,0.00012794069041430713,-0.1283897169135066,-0.03793820883568427,0.021669155087366474,-0.046847970650986705,-0.19853291821863586,-0.3565636173610222,-0.03153015675580547,-0.3506290379481615,-0.2184780624429938,-0.2417504980470561,-0.049706556330553556,-0.09869452775127888,-0.08422134954494422,0.08093988642932848,-0.2856077828292983,0.8736156126604653,0.033588756289785894,-0.056482311277152614,10.494157597437447,-0.026115607397772234,-0.49078000449935216,-0.08920334093830085,0.141056569564502,-0.264566490435353,-0.18474515111705217,-0.20549263361355397,-0.48845155775718874,-0.279144377457343,0.960638915584844,0.06060153031790241,-0.10740548728671331,0.01169604933448001,-0.264449403939127,0.051115245168785024,0.004383803939169747,-0.27310444848473103,0.014031166472099168,-0.17401185323688445,8.444156416005823,-0.12154716650227915,-0.08809022951516851,-0.7383369817223051,-0.070389812189722,-0.11121281335364591,-0.14574444923481775,-0.46937360799832745,-0.17048247173363204,-0.19385703352315092,-0.12165716868814519,0.14197757131431937,-0.09475024573685457,-0.6568141170211158,-0.4486989424221731,0.038308263509342876,-0.1622382826469158,-0.29010845944867014,-0.15880333783628187,-0.640374317442692,-0.2016562550070668,-0.19936013914957856,-1.0375849127494563,-0.02414728916976174,-0.6641435040550479,-0.233418423033181,-0.06228235752382473,-0.04338914867468532,-0.22123592707670686,-0.17783965987770448,-0.11009922386990673,-0.5202644866975377,-0.6053235891001246,-0.25467861218450866,0.1367307655896483,-0.1112651404501969,-0.53742961207513,-0.5493347697908547,-0.06359809863078845,-0.1612685211400576,2.853464607343697,9.991185943370182,-0.5501652896698617,-0.24012214578059216,-0.038894749679547314,-0.20232776258306695,-0.15449393500740377,-0.1896978768962078,-0.2620102738714767,-0.3366412711278912,-0.09318455301663357,-0.1927480001902509,0.06603544874026568,-0.22353314986306663,-0.38797837192485557,-0.12995471119692847,-0.4717961181023301,-0.14586069300479332,-0.3549903002090119,0.5123327399956672,-0.3267737169996152,-0.18193416162632764,-0.6812150493232942,0.10780057394975051,-0.2781454913455905,0.09753511872509973,-0.38873644574354854,-0.5228712455468696,-0.04220648739220852,0.053029797126223,-2.301659063533158,-0.05423012220755639,-7.8386625255846045,-0.1088309292375385,-0.23392205701814406,-0.5850235658549745,-0.15000597138713034,-0.04738061269101111,-0.21718604881903347,-0.4919941553578135,-0.06990299664600054,0.1209126071357421,-0.27345284820205834,-0.04417688007676763,-0.5299053611767897,8.813525610762449,-0.5964868907942674,-0.4896211991241898,-0.047071579856308755,-0.2500901132977669,-0.06306049587305741,-0.22627074389353993,-0.2587942154239777,-0.004781921932585414,-0.6344289182410103,-0.23408873588547352,-0.10293298220763968,-0.2601314384285659,-0.08359544448990101,-0.1082031339585587,-0.05198172107475348,-0.1008622238580636,-0.6284969008555632,-0.4656817966690944,-0.12625994856318765,-0.42542969222314697,-0.18960349623306758,-0.34763348093102797,2.7608510087476805,-0.11725886070369979,-0.4266775925200033,-0.09345024627358567,-0.16944610401347487,0.1881634611755836,-0.10036560738592734,-0.24631047110823193,-0.1558199393959817,-0.7603406615407566,-0.5718640713830235,-0.27477620559319427,0.8481811711522,0.0003101177667756113,0.03514651933685301,-0.20948891935231237,-0.022131415930636857,0.013749586232143438,-0.16325897451407728,-0.24269561837075826,-0.26217647738431055,-0.46829842273190625,-0.3020999188476268,-0.662156209385897,-0.006409184219082875,-0.07413478776906879,-0.41506867436982636,-0.4533322234277536,0.05845288302591852,-0.31152685947251646,-0.001468426491789601,-0.5620725291968484,-0.16412429184585747,-0.4049814350308306,0.030562189718278773,-0.11351211331190496,-0.0671108806682253,-0.1400293617853889,-0.1586511246262588,0.06691671763961576,0.0859929763101988,-0.29998733850169373,-0.4738706061021615,-0.16169352560267364,0.037946778034588916,-0.6580085131823687,0.06311325991191602,0.10971640123366397,-0.13185513420699366,-0.47894191617144793,-0.599815946758255,-0.02363264868328449,-0.20019408771506816,-0.053071557874373454,-0.21722109876493637,-0.7139085290703151,-0.048439760553598596,-0.0108467003687237,-0.08214468496628048,-0.09166033884828619,-0.49969968274255155,-0.49618799245996525,2.005282431325444,0.018262600129789586,-0.15181368195392922,-0.5280086006089679,0.08448975989386329,-0.46808734658673623,-0.17014597145510393,-0.3151829696820535,-0.359316700307124,-0.12862017749612556,-1.3217071692279334,0.05352673365916259,-0.1509130185193713,-0.3011097381762345,-0.12264532904270606,0.15986845105294162,-0.4602862839181851,0.05067920280326329,-0.4317061888266291,-0.01333271448941106,0.13882790997825428,-0.46228790586001867,-0.31459752695349213,-0.30221285254211044,-3.213635319230654,-0.17353467764611713,-0.22751038726396455,-0.19361191908934977,-0.18198879458119166,-0.3316865543975567,-0.1296354040377315,-0.04062449241723337,-0.7143725835701347,-0.5669640233817592,-0.35935580089284935,-0.015295452266733628,-0.1556064427279248,-0.033462709270579497,-0.22271955766797794,-0.03770648541494674,0.10427758204246665,-0.3491951624595575,0.27065751257683124,0.13382699286541022,0.9625227036708138,0.06994890208566358,-0.5905329924523618,-0.18955972559702047,-0.13651660674509486,0.04068427744013751,-0.21800422021740118,-0.12146905298007038,-0.06295710994421222,2.3506194855873925,-0.3406200758175038,6.223530695518052,0.08996928599412776,0.1250502291728726,-0.28063392042293,-0.26474960794371033,-0.1290352236295134,-0.17373605088542124,-0.16485746688150868,-0.19624185869505015,-0.1097869757651663,-0.1935518809451402,-0.3405441532770308,-0.0009740002881212061,0.10672316806699912,-0.34049187687640203,-0.2436392739521654,-0.19711563339419402,14.271521748563945,-0.4885495890620679,0.0777715982867328,-0.21221835321749313,0.03582582012594575,0.24893854459647538,-0.11879246599667011,-0.012803730307297497,-0.17133333376836518,0.058768095111504125,0.1791778220214825,-0.21364077539474866,0.038548643772390166,-0.37917734474069287,-0.2810465763753399,-0.4486517202255272,-0.022032981572758677,-0.19599206454207935,0.661679179245564,-0.16971534613530878,0.08675068054318555,-6.426851006096737,-0.21875202356028556,-0.48939277741535103,-0.4617864816151346,0.004093412742233922,-0.016232526936910692,-0.10922622383409229,-0.17896113315282677,-0.3541968589115837,-0.34095507323942337,-0.20689186063832174,-0.12726967791152988,-0.11068010610184785,-0.1900463197188553,-0.5439654724321143,-0.26581058837975724,-2.1079760717967693,-0.10866605205296176,0.013509259082291775,0.15017932262506353,-2.6067259683855273,-0.13612953403849906,-0.5303328647552221,-0.09108847152204974,2.2832743982033223,-0.48698237388649196,-0.19507998925332926,-0.11186931675191428,0.2899741760945644,0.05236242551423482,-0.27628452052697894,-0.18443290269040874,0.044742429952410706,-0.9698703034002377,2.4583543568511512,-0.30026501928553745,2.0469031772886637,-0.021348627962534637,-0.148882999534573,-0.34285110698563087,2.8585495256054254,4.108769244227098,-0.16836325545305605,2.7503515881378067,-0.09717158499728273,-0.19991089686392272,-0.2176778090409336,-0.12135044235049217,-0.5128192450239942,-0.18254535498204075,-0.25509060464255773,-0.4394377803050527,-0.39254646307240454,-0.08244577251883076,-0.1362805192711462,-0.12829128440456417,-0.6846651904684685,-0.48319122643309426,-0.37963501382463755,-0.21690585650384184,0.10691308138355038,-0.2144849890010634,0.028608412750618723,-0.07905936125878288,-0.19911155017080567,-0.2945985218586673,0.15011927948743867,-0.3231064838437648,-0.1785949249031108,-0.17831046993530086,-0.16954936758283218,2.486821697498063,-0.3877071899212665,-0.9793367158365807,-0.572645036484453,-0.23522320900605315,0.03654362693875503,-0.10673006516025846,0.07012334823041988,-0.4750628217149114,-0.09707669967960716,-0.5930751256000171,-0.06333328774619404,0.00693194663184214,-0.7021945388372385,-0.2562485110131472,-0.11954686123705612,-0.5893297970277439,-0.11913038723214552,-0.17653149618868783,0.23828402450955344,0.0527854912944933,-2.035674760245477,-0.0005393908254880253,-0.20707801874045284,-0.5947128188439507,-0.5311848946525399,-0.532113538333246,-0.5355802147560813,-0.19990904329678882,-0.3018091710973658,-0.7252452248592228,-0.23979202249170894,-0.15621445010290086,0.07997675921087999,0.011430911502638823,-0.12935250593787956,-0.18751357683520833,0.06363393557073233,0.07427783623467095,-0.24093245798347745,0.02590243638893703,-0.3325320452251232,-0.5585741849582199,-0.09772170252805544,-0.2761713471614037,-0.4489594883586129,-0.05950408662141125,-0.348031460716949,-0.03392021067688172,-0.19202879886905233,-0.17441258303911722,-0.4054050928660493,-0.2977381107003095,-0.1382082604146261,-0.46398634633957525,-0.14120053271919492,-0.07579987138925265,-0.12642974709816704,-0.07888903971652414,1.2782238660606302,-0.08696932621685627,0.737127442109135,-0.1869832334891127,-0.12489869124015543,-0.07566992750114639,0.07427396462008014,-0.16820900221070695,-0.14721635359986399,-0.03543218963152998,-0.06571022893379527,0.028188913304388438,-2.261457398031488,12.790903890973611,-0.2723665614595025,-0.24963597749348182,-0.38904023475932786,-0.12643311493895695,-0.13768902221085572,0.14767925849092528,0.33287905846044996,-0.18496231327428586,0.058542669393389486,-0.05368418790429542,-0.14435043181025348,-0.006866728660446151,0.01662112280538203,-0.1456300889369935,0.37813026364015556,-0.20883291636816537,-0.157079398861691,-0.06095036741623902,-0.2550979878146532,-0.21532972427656652,-0.37765642050597403,-0.08004366069808079,-0.10370440475526457,0.10113649337323408,-0.031202188809973032,-0.5226760217953923,-0.11789710961756607,-0.0069405841310234894,-0.05530146959480449,6.321358810487744,-0.3433609469382813,-0.10804093333449916,-0.5146097847550662,-0.5378766144709344,-0.5477887036959046,-0.09646141207616798,0.1221331690618523,-0.119735345501122,1.1545629735671692,-0.23947616560493107,-0.4113739616602536,-0.08184464358240787,-0.04866043539364999,0.0990356868916804,-0.34660065913905375,-0.24825905714744526,-0.36675637181910403,-0.3661767197286069,-0.14484777366486884,-0.19283955457660815,-0.8508923348970495,-0.2796904447003671,-0.1389070377970844,-0.2024741374735385,-0.26936639462617784,-0.2876786328757401,-0.31196721075080497,0.03675089760207967,0.0695597218318299,-0.6067551646669203,0.018003598464948006,0.6789698638210357,-0.2754983735151086,-0.004186489752317473,0.08110715910522484,15.75324793787288,-0.20583588905346792,0.2499914297301315,-0.1555944496577141,-0.1415582803696334,0.004231220030768486,0.097143500325814,-0.4673403099769289,0.06500560244018128,0.13448491263097342,-0.16658407581365478,-0.08197012568160199,-0.46009731012556426,-0.22924853959187166,-0.11105440119950989,-0.06563678571749755,-0.005152135133679175,-0.17633193272734402,-0.384946975079111,-0.2580920177824763,-0.04587101462270442,-0.2822350115649523,-0.6062973479945714,-0.2395780257542618,-0.29679675482361034,-0.46332027453369407,2.412817630891176,-0.21549541780549267,-0.18786704110222502,-0.02025150010738545,-0.08607588591717089,-0.11362875763457363,-0.021156764945320535,1.0155094132564944,-0.015144364865631041,-0.15035929899938363,-0.29895101810524677,0.03929150411633163,-0.6047077927427683,-0.19713907296939326,-0.5679292606577563,0.4536613927258141,0.17564449857682282,0.13338893924505688,-0.25142160144923115,-0.05799233317962895,1.0428716139759817,-0.3796531383382507,-0.11756091997006785,-3.215383070072645,-0.6173068056923876,-0.2534297886427333,0.21047655311581,-0.15961854612868007,-0.08410397323119667,-0.16193963985614226,3.6688209206342766,-0.500906934045521,-0.3290950996553565,0.4910073589276651,-0.23934701479929,-0.20820671115014688,0.1659805180286788,19.601386008725076,-0.11027582042056659,-0.1331309729106741,-0.03633635790497561,-0.4451714159071828,0.0832183773106338,-0.0709998632253808,0.09020052690452228,0.04167391170809128,0.0476521505843242,0.2969429210567362,-0.09692186191828048,0.045816555083117085,-0.09966864993538245,0.00992562501567957,-0.25930904562717383,-0.4543746966898145,-0.03337476497663579,-0.32824254200869984,-0.4973583530335015,-0.18701801070145782,0.059000364362240085,-0.5341200507511039,0.4085274811738568,-0.20883030643113948,-0.2074004027358175,0.16066622152543517,-0.04442244895821528,-0.13170458837685006,-0.4347721963246695,4.0499510927599,-0.1584911021777321,-0.22744947327141243,-0.36955326391704146,-0.2641992552840783,-0.5104427739734195,-0.16882957232811405,-0.6481688871757875,-0.20201757975947826,-0.1849164320477629,-0.15195691676255468,-4.144060206911065,0.6123585662502267,1.2250915339197943,-0.32450391476615104,-0.0975806207060477,-0.19173642165039118,-0.11140960637096739,0.0036767762737386117,-0.2229258958007076,-0.028671567400221157,0.6093345719816212,-0.07382209804661909,-0.22180791677219197,-0.0718088500873748,-0.4435529091450235,0.148578928999691,-0.11945640906270451,-0.08213466442800794,-0.184901899293911,-0.05123832069284066,0.12289134997255646,-0.452285947381533,0.024720840537493727,0.15288672412909646,-0.23610931868068008,-0.06910539799534257,-4.880927496307569,-0.5547081297467538,-0.7631278415258212,0.15194083947521572,-0.18708568505598566,-0.21851114873818828,-0.16592642873160335,-0.25882619128654005,-0.19133904561950021,-0.05507327139933866,-0.16814273703082463,-0.2674690459955732,-0.09281788766639398,-0.03827452214388177,-0.18063789953186693,-0.18941499718506288,-0.33352672244642817,0.3257439986191882,-0.19079689916029416,-0.11088046171608225,-0.20570014544499893,-0.06693894978617497,-0.08631265281651279,-0.1471319355310972,-0.10036789494754422,-0.45981246019788713,-0.5237965298091483,0.0969342301341523,-0.2689831874230638,-0.08044857055003823,-0.6642576661084804,-0.14760745561151173,-0.106479176325278,-0.1589331451551339,-0.18164803216945694,-0.14090387825567535,-0.6243994036927691,-0.0911214575940769,-0.09469495572070417,-0.23642217600454077,0.04479336789027112,-0.5851216385974064,-0.17325444292653627,-0.24042672879664373,-0.2874963720133549,-0.11917558285592238,-0.1764707880688276,0.015232437162253077,13.832585860653616,-0.43731850695995306,-2.36840576618827,-0.28423719239755224,0.04488637524155428,0.10475513235247083,-0.04648150827554947,0.08061599948839084,-0.32056450737128944,-0.21633389492600832,0.2794304420159069,-0.12642125289955333,-0.5877596862154626,-0.4404390504468912,-10.96399095814501,-0.6893574935858016,0.14238249842781722,-0.25634098091921725,0.44997677843876327,-0.03838931078098205,-0.3969016077323625,-0.32157873089506805,-0.2002545709824164,-0.15267897747260703,-0.08799219359968756,-0.11623941260988585,0.09843613762371607,-0.1304727250296498,-0.2944304225557559,0.016657257833518794,-0.19796451231127074,-0.5163624641720796,-0.29171125849927326,-0.48915553678377477,-0.6119347130660246,-0.4700915832972665,-0.40179052790510045,0.13261534719343024,0.05898579965245127,0.8544342279382837,-0.12772900666712317,-0.15239524017584588,1.8603842942169648,-0.1327668252332251,-0.17965009577773453,-0.1690858877042586,0.4465208843544442,-0.10052421215989844,0.46998460628085337,-0.06561618401934068,-0.36406784435141964,-0.10766629847836852,-0.11193535824077555,-6.0997257550698905,-0.27889510418741653,-0.00950468053699875,-0.18380593704797918,5.642514343341829,-0.11556449210272106,-0.0074110102126073215,-0.4706014119129121,-0.11160102672255519,-0.15346265183182745,-0.11863842220570511,-0.3523286558814414,-0.3650755683437323,0.972323337214205,-0.1179118281525606,-0.08683059579716487,0.065203064208158,0.061959085592798016,-0.006589565555085986,-0.09804071401572038,-0.4399347687076842,0.014251842713473727,-0.14257281740936256,-0.3837041578317753,-0.7536695789958622,-0.16125310119000644,0.07721725615603688,1.5099468493661081,-0.25769143993051763,-0.15791580510876613,-0.42502587526989144,0.19372390379225063,0.11111137328214121,-0.2098074097691939,-0.28747906784499566,-0.3242121872289129,-0.30674741449930415,-4.986993658586108,-0.1781448631976536,-0.5637342237170526,-0.1740480534841118,-0.33694983300460757,17.736836917553457,-0.38565623275857497,0.06341970785319641,-0.21819037953309822,-0.09864250536708727,-0.3922151963014674,-0.4047662507332591,-0.0967616238056361,-0.10690080618831213,-0.598073898602769,-0.08379369498858932,-0.35943884687089656,-0.018547567635643875,0.09677651927236061,0.0062655599003033115,-0.19676707718280242,-0.12165935043306922,-0.10200160652047445,-0.06330422113365135,0.09841472693691806,-0.04817758524920103,-4.041570706981959,-0.5282007030699121,-1.4315834513037478,-0.36158512065119547,0.06926107751845477,-0.5405193346885937,-0.15373686294406674,0.07049777247166969,-0.5204681191100325,-0.23532854917423435,-0.09846917464861928,0.12058121143828364,-0.022085832764976616,4.493436889714302,-0.11570282404044463,0.11749921931939625,1.422464318701181,-0.12482946909452339,-0.31558769774554607,-0.23745354306553365,-0.11488024299089764,-0.9479932702551326,-0.7635979917791528,-0.005395872606910898,0.8092268955644012,-0.027465694540858957,-0.11430957911031824,-0.08360981284569477,-0.22574540517933445,0.10493715167094017,0.0464697214094128,-0.43592824468235414,-0.0980442022086585,0.08837591128619003,-1.0989327596824243,-0.706218032261158,8.031968028496555,-0.15272339834029083,-0.25697484328953696,-0.10919358275924232,-0.1221121447273363,-0.21836969301557932,0.44816587167189637,0.005769270205292571,-0.14417056022199431,-0.021543850540191624,-0.15178382721239564,-0.5346580765080376,-0.18562355372337103,-0.13635327562122537,-3.2644135198573423,-0.4808666205305471,0.0675546516733046,-0.28371882650728975,-0.08720191552043945,-0.017872628640467302,0.025589742033583166,-0.2031147278122549,-0.13551226324005058,-0.2431895470195504,-0.7692983212021806,-0.08217545241487975,0.07522244630900494,0.08641688462511986,-0.364596660049618,14.923864954622607,-1.270401899360005,0.1242340168109129,-0.1984908842646464,-0.009315153562510052,-0.8041856179508068,-0.13491364792088364,-0.37215115062657,-0.275340633978356,-0.11266581220569259,0.07192101772150072,-0.1273318380177685,-0.05417344562568088,-0.5398482548278242,0.19610511847350443,0.07414316560867726,0.027686526555076533,0.7843086770763205,-0.1773829629737323,-0.32293585502413885,0.16675691157802386,-0.36841035291060215,-0.2779297379526703,-0.17450695506076716,-0.5780417695642216,-0.09016471647187123,-0.1699416356646091,-0.5661508449431443,-0.3303420961986728,-0.3546475119697289,-0.1949853059632149,-0.27135438208250307,0.25548808344784246,2.47336854501476,-0.6226352960933252,-0.2520929047279277,-0.10467141757320074,-0.4592323224065505,-0.1888215375179162,-0.26685457249939326,-0.13558948980713242,-0.7188897115284915,-0.007557702520934997,-0.0634832648011207,0.058948682950916625,-0.19998641126249722,-0.1856979803462488,0.958216597220729,-2.6705491954381264,0.07828585872742565,-0.24831325120354014,-0.5884651805506731,-0.6791531682842533,-0.1060577835211139,-0.10454127589997415,-0.9627388400503687,-0.036751252471491774,-0.060520041012714465,0.05163571286335149,0.5196134077849532,-0.1115100768372741,-0.06905639565781198,-0.26728385160679086,-0.01570959327473423,-0.025583678797521447,-0.30677213995110636,-0.3415283618183185,-0.10273383635321294,-0.1727613343478063,-0.015847828417640847,-0.22667162273217903,-0.026556249324521487,-0.21391499237632708,0.20482017395338994,-0.01080043104768763,-0.2878552170544239,0.012949254744865869,0.04751562722076434,-0.06049777588862019,0.10560426689140633,-0.22275252746180713,-0.13182069503735458,-0.118600873087288,-0.12274109515763296,-0.15772619844847494,-0.12599811272464803,-0.38559716167090236,-0.05865634475187445,-0.6901016599539117,-0.24507224509640213,0.08762241749592188,-0.5024754561724405,-0.18811347766057673,0.03402834811252176,0.05836213874818447,0.04427985904807094,-0.4473508354333788,-0.10221029881262277,-0.6057979549083777,-0.30207422586307847,2.0403126443797617,-0.20705832118629028,-0.05806150939278553,-0.26507312864005084,-0.2463131480803773,-0.5020834043154176,-0.06536474920605215,-0.23156102768897516,0.06163052732621309,-0.2864468949823823,0.04205323897895976,-0.08640747522434339,-0.2654526498310082,-0.2614732402831782,0.013025526954168606,-1.1202046394463256,1.154304805499614,0.19493763058105384,-0.6437221467829263,-0.27400849084844286,0.08988717750019919,-0.22567193389573165,-0.11923173791813409,-0.5871405527920905,-0.10816136262933339,-0.7093621587362327,0.4109709211924348,-0.16818342557041907,-0.14358672525606664,-0.3324342990678964,-0.36096255351305573,-0.41235467193446,-0.12768255462428593,-0.09036226905991297,0.6731032551142571,-2.120797143342992,-0.4886570093038866,0.0852671238538785,0.04906142033741527,-0.23012040473762646,-0.5857357777311408,-0.45889252261502844,-0.21847781536108168,-0.2006418779082139,-0.2242042424240544,0.03435692584123821,-0.22486404911019103,-0.8747320172852271,0.017823065164972993,0.37854402214800587,-0.2065882304897156,0.11642663655099297,-0.47979065954014777,0.20808763828534607,-0.1883448666335102,-0.23923562427311873,-0.23669109148068015,-0.23246073445676793,0.030729006978517003,-0.6133973963268188,-0.16824486129941588,-0.044831982941765575,-0.408572233503991,0.05797292190080228,-0.6981363182246956,-0.2802355080717575,1.938537095374049,-0.31114170465089935,-0.12588047889449375,0.0816844901018329,-0.48172068325016104,5.754608712612533,-0.22436008840112107,-0.467474373558265,-0.42272835334626263,-0.25784789573564615,-0.5275671472060942,-0.25393100819300474,-0.024020284218094927,-0.17133493790958032,-0.23888108334423497,-0.6440046293640131,-0.0253137573315687,-0.6806839471861637,-0.5377679527490025,-0.06827495634519208,-7.959623910990761,-0.8785757525400876,1.3233240045323826,8.939548201548796,0.17282589504245893,-0.1641199189611001,-0.06922160170228629,-0.188319112328204,-0.07986287107915709,-0.06298927385188698,0.007170484586687978,-0.07867801459532746,-0.3373908523956303,-0.09390406027991306,-0.23222726063250362,-0.4319961770588331,0.07578593547646881,-0.5173704470293619,-0.10594118213136412,0.06012933495563846,0.00192410682396285,0.02714424799367178,-0.19617267780738554,-0.21547365543997954,0.14321429935608393,-0.45793190098915393,-0.23957668913909175,0.8817859812116146,0.08566205074774304,-0.5158078277136929,-0.1815205668759157,0.10450946818700903,-0.10068220730201137,4.12950815296193,-0.01928932153531309,-0.3843441416765307,-0.2888846219311174,-0.19109434752034532,-0.22329174983487918,-0.22425680988611071,-0.12188726467471725,0.0453381217703795,-0.08411697682233865,0.34015373181065706,-0.16892415994217042,-0.18855912198652547,-0.6692429990069655,-0.1145032967281014,-0.18658926804873052,-0.3884677133887323,0.00138622512320975,-0.2291823994794853,-0.4279503173843926,-0.09658208613134518,-0.5868903872154313,21.243986748484563,0.05155742332759352,10.153459254566073,1.1007366945187058,0.13406993168959913,-0.468227765693391,-0.19120343984011567,-0.5358910084498102,11.464419981773394,-0.17802478907531954,-0.16422042650074278,-0.17560583660540546,-0.06887813864020997,-0.07306899740470954,-0.5416631374467511,-0.03751374615093448,-0.22262406030117196,-0.07934403488027074,-0.12898260774852024,-1.1136356062033197,-0.171902257665262,-0.1813569877101598,0.03956307800882336,0.7177934740488019,-0.5435539999325767,-0.14483131010757316,-0.13959869990814838,-0.17612850681496178,-0.4657516610716958,-0.10475317407268965,-0.3749477892315903,4.363344271326754,-0.2222016196582145,-0.2818762608984152,-3.6810237121815077,-0.3476164616988638,-0.23513101311026696,-0.029965780924808637,0.02258538611525517,-0.17413845780872456,-0.0032192750246948956,-0.016360628890003483,-0.19360210867642907,-0.5393516867507729,-0.08174308135082745,-0.522668114857089,-0.024028709815460635,0.008479781389707125,-0.14778555297909965,-0.35125438932373554,-0.1644135471411487,-0.21430528217364275,-0.2682505873961928,-0.24662064402966802,-0.5894689062746078,-2.3730249599594715,-0.5109030433764596,-0.16828588502132216,-0.11137756580799597,0.033248190418794565,-0.20846428784815332,-0.346547686958287,0.10043239615383795,-0.17567463175460207,-0.37934950544512547,-0.18161264829049947,-0.11317956868123735,-0.05390288418901059,-0.026037377499251335,-0.23657950903328148,0.05168558843612262,-0.23011115342085342,-0.1895969274776051,0.13369334788283802,-0.056975755995452695,-0.24835825661541788,-0.23536150315190255,-0.3857199283519708,-0.2872809867178829,0.2498130205021975,-0.22076260717511154,0.01733859671412896,-0.2297922487554702,-0.31930364749998125,0.08498874203993398,0.03081749917853953,-0.22606713615356464,-0.35235543113601664,-0.10001955194894281,0.2558129637651572,-0.012715309739854838,0.01905341552100085,0.0625826140300962,-0.08170776828130892,-0.045662219984712774,-0.4914491287020943,-0.00913092410527604,-0.19496802843477742,-0.6586146772504772,-0.21032802493097785,0.0724124401191302,0.07935213373759882,-0.3991086493184789,-0.23052518151473458,-0.009337733806882857,0.7338969242436452,-0.03779671059942726,-0.13930400875747534,-0.19840902764714285,-0.2272504888403932,-0.2437602001807148,-0.23140071543389854,0.08069383060330469,-0.017504742637077013,-0.6245446258359629,-0.20719589376130565,-0.15233585761174803,-0.5871411158326625,-0.06616370697544256,-0.25408962790097905,0.19284826353762516,-0.15245760769226424,0.04172581902759676,-0.04735644839542677,-0.013374904456140405,-0.20544389664846094,-0.20224945331840805,-0.20538306384255842,-0.2543338130202531,-0.11465772342123896,-0.09062922062123366,-0.5489173434417836,-0.5274676742031467,4.186625402131635,-0.5664415024278826,-2.38962001389812,-0.35235393021158523,-0.6853651800183248,-0.20786303528892014,-0.27946237755835973,-0.4919664782139791,-0.22688743353793175,-0.21352508653946278,-0.10131059798047141,-0.17294852010380798,-0.09224134657685938,0.2658242818070495,1.0033811564992077,-0.14456496599528768,-0.15219532099221933,0.0034890951616391042,-0.033886947499698936,-0.6807663813986881,0.6653818269037678,-0.22115627161483564,-0.18965481560481384,0.07624458343351333,0.053297728249697654,-0.5523882859298029,-0.045082844597731146,3.4635043825301546,0.0719085842614701,-0.04694609056936805,-0.18225829064838403,0.020637233897872326,0.26754385496656247,-0.05641668434500463,0.0793158078257301,-0.11681796469936431,-0.14902089733615584,-0.23342052646596087,0.021294148911235402,-0.1803317051400053,-0.02598226417796067,-0.22299505796396515,-0.13987753476328132,0.011693435066373556,-0.05528614060942791,-0.11654805724696796,-0.18222273569121308
