0.7989827064024193,-0.3256447097902526,3.4209928440983735,0.6245804513954683,-1.6922967534676596,-1.3497827767401602,-0.18774069190405404,-0.14301059340830188,-0.5609044075350673,-0.8940740567107215
-1.095294062863516,0.11469519173588127,0.07173374458106527,-0.06020526848549863,-0.34357563612907577,0.030699174107585492,0.007843858873302663,-0.008259063938901117,-0.004077791787079552,0.09662079217575509
-0.5466973733649346,-0.9369599608777294,-0.12049567242369917,-0.16875396517818755,0.018967000667588232,0.0959393632397365,0.04066876337525285,0.022074966037899043,0.009727868828177685,0.07730117047923918
-0.4683967355995512,0.31300701890875077,-0.7908135854273732,-0.5301904923271066,-0.4082562977847161,-0.620454144965252,-0.41115593333903755,-0.21026333675285577,-0.34180418706354704,-0.2641489913757702
-0.3668158778325305,0.35699417035668607,0.639538361542116,-2.1308738214654,-0.3015287945369164,-1.3773191032620933,-0.5729487305694342,-0.019944939095487047,-0.22313116526421406,0.25367968247387085
0.4353510992371248,0.7559671290833961,-1.325468528142548,-1.17149441766296,-0.017578401964973532,0.21314154875344282,-0.07987795333068368,-0.2211258545428334,-0.5388615836427721,-0.6388950391131073
-1.1660997360520657,-0.03805357416987165,-0.07329968278541049,-0.1556989344893248,-0.4277019318021051,0.001452133683946609,-0.017769075951545563,-0.02621163102556442,-0.024534337639952983,0.08816210332627585
-0.6174084697267306,0.6351325942750495,-0.6270765745620152,-0.2257840674507424,-0.470150721999648,-0.5982126356545762,-0.3884117415509304,-0.2080758324937243,-0.364941240014877,-0.20687618082086234
-0.9348562202801859,0.2822734237456779,0.09813087591806458,0.08887357362028059,-0.20992105098784708,0.08605456528185439,0.07910284344142815,0.06316139076468821,0.041125871419633725,0.1172408271923845
-0.46339400437658557,-1.0724843721664423,-0.13129740871755188,-0.32452398125029935,-0.07948486067861521,0.03635353755399893,-0.001973403405409945,-0.008128109098446253,-0.0066373631684576995,0.08482135318285312
-0.8965700872906213,0.34362598217255275,0.11197439030279946,0.1364104801788675,-0.1407076544641146,0.09507096333903309,0.09432386094183107,0.08161722037518691,0.05730877495332208,0.12834204977131114
-0.558422437514808,-0.996875570335109,-0.09852439499343368,-0.20424369644940285,-0.046919689481598026,0.06093004378473432,0.01768440214583066,0.011046508351685696,0.005305198455409881,0.07328957101789561
-0.7168760923800367,0.42849546662012783,0.2180236137112048,0.32628660852715274,0.08923402614227449,0.10158664990548104,0.13559130447161574,0.09145325952465107,0.03660387533112885,0.1341644716637373
-1.177103125202263,-0.325278251420154,-0.18235359375168328,-0.005630423557284725,-0.445386950182492,0.002010879266893068,0.0725597304595989,0.03258919593180162,0.01275090551309091,0.1052617161286214
-0.549494654625566,-0.8623074797301606,-0.06125169185341282,-0.10269240646734099,-0.060062874533387885,0.07527183668988341,0.030499142279728525,0.019327451846627503,0.01001337320413191,0.0639096376278387
-0.7156656778891637,2.370044452703911,-1.016330482825048,-1.1267064858891291,1.651140540845881,-3.289141691486459,4.99008864933277,-1.4968390831580876,-0.3482686937015896,0.7151939809814399
-0.6508188702531914,-0.7886415199343697,-0.15921303411455504,-0.17891455082064986,-0.03101530787168566,0.08671917779718337,0.03503229708804396,0.01605428523766596,0.010804429170760431,0.0881562826212128
-1.0011736892789544,0.20201752738156883,0.082952534008824,0.03189232301561511,-0.2499558409514245,0.0709642922325933,0.058366591208247734,0.04398345720334251,0.032681995539153345,0.11138345910569716
-0.8194049061812212,0.4262397663854501,0.19151901371137248,0.2610708829210089,-0.01260003673913996,0.09079272773375173,0.11564809424344766,0.07697502815719609,0.03348039977143912,0.12975958068715157
-0.6606398072632663,0.4016177178397953,0.2563033793392338,0.367946197645246,0.12182041009617453,0.09661325406618837,0.13821436913859542,0.08914296269272202,0.03688470739838746,0.1396260593438637
-0.5817838722896519,0.4644604416226566,0.2269816725170794,0.36599051346493516,0.11628534432851666,0.10674859851391504,0.14569534085777472,0.10230985729079368,0.047263596634769,0.1401940062669897
-0.6372323433960265,0.49207815803219773,0.1617559189520968,0.28502153393522023,0.026374449484809544,0.10535746225916667,0.12744254426632415,0.09824866150553291,0.04466149923552828,0.12888368524157698
-0.7376151391118917,-0.5381434267142776,-0.13553664089576759,-0.1025780303911463,-0.10140892014567557,0.08979690943323512,0.06473244456080415,0.034829112118168415,0.040269560633090284,0.1106109607224046
-1.0880396478647816,-0.19385699033643178,-0.10674485166069651,-0.013031255292885043,-0.41914805140473305,0.03092389324177078,0.06905694096074634,0.03536494454453727,0.04047813212183957,0.12199806326890249
-1.151382648214225,0.025750319061534164,0.01520007973533171,-0.0697924528663045,-0.380691546470965,0.03915766193628348,0.023585093879747117,0.014150813354279024,0.030346532106206192,0.11137866341585155
-1.0285888122395015,0.16364077826529227,0.0655542133254864,0.014063124918391384,-0.29053186669877856,0.0730372546283113,0.06196097353609886,0.053789429371907414,0.05056786690675112,0.12192285387726273
-1.0378276743666555,0.15479159101123882,0.06068774726697165,0.012605075189261739,-0.28845250812473644,0.0737826878058606,0.06371956046658106,0.056498592472384396,0.05380985224948428,0.1243072745221376
-0.9185006059728258,0.1341289093545637,0.031504620388247445,0.05580081347913415,-0.29524773806283994,0.08023031594559375,0.10204559588618789,0.08811827901165735,0.060817011756993604,0.1321134134549562
-1.4261023027951683,0.8478606401860024,-4.1952468912469465,-1.1413720279054438,-0.250035038153138,3.0064076064846508,2.0658236854925875,0.822527373586741,0.36100597630521764,-0.06246187636199987
-0.9148624542349746,0.32801559424942417,0.11300521651853375,0.1234555555528467,-0.17345058950935735,0.09178722814699444,0.08953148099005051,0.0735684661919339,0.052039712373864934,0.12512784314569328
-0.6982415194980073,-0.6692256041340884,-0.12001315371421922,-0.12630540498413972,-0.11497797308818535,0.08233169067168676,0.042477766830230954,0.023679115896720743,0.023070742218005116,0.09073447999471694
-1.0133080195089381,0.20437017505398025,0.08851920487844558,0.032448718224342386,-0.26538126856012084,0.0721495701025823,0.05937977437658324,0.044765828941340916,0.03474083602880342,0.11515488203544784
-0.6768249785366351,0.4758388988853188,0.18157894113253384,0.29583938366598467,0.027882609445546977,0.10213801848961707,0.12921481452971117,0.0950227477188659,0.04436478138493107,0.13299338432945637
-1.1074323422960026,0.03283964496025017,0.013789458870604879,-0.06997670966125166,-0.3807254509831699,0.04054914907100623,0.024342767184082917,0.014471022836517834,0.027547525610481,0.10891874174421119
-0.5937396639140121,-0.6763660142732086,-0.6304605532665294,-0.464569218741089,0.010861733526543974,0.1146854846530596,-0.03528338743592541,-0.047107033204636314,-0.054593500479139925,0.0921783843885799
-1.1015908503219136,-0.03937290572644447,-0.02327699651860111,-0.0526132272377823,-0.40780972226769774,0.04252005811403952,0.04105078413497835,0.02867170264357426,0.04929508796975185,0.12056472296339937
-0.610713063192813,-0.8516800955897881,-0.08101095437100019,-0.12800866134875297,-0.032123138949347194,0.07382653242251158,0.02892200990067486,0.01881033106841154,0.013405042009997486,0.0719083773273684
-1.0053099381283046,0.18636220060148023,0.07066705368412385,0.027830683774167284,-0.28019258816982867,0.0775948880110281,0.06708995206415495,0.057464884539602655,0.04822753799156983,0.12163682222081582
-0.6531681924060988,-0.3688380720574685,-0.679293237253512,-0.48523269898242605,-0.12160300185153557,0.030485989176308497,-0.12058408645956471,-0.0889159703663668,-0.1373841905925922,0.042255389072763286
-0.7017352662523131,-0.2658321298862258,-0.6341136307702695,-0.46194240303447964,-0.14057518604093225,-0.002660435617858584,-0.13047011529783253,-0.07901391550777902,-0.10233964558139332,0.05627579272844417
1.2733246240508327,1.633506546921076,-0.2460847252409948,0.14529937051869346,-1.9683962067859224,-0.4574205808208169,0.5346017462020517,-0.8337008085677869,-1.0351866838336106,-1.0759338202681108
-0.999981661642214,0.2097671929190014,0.0883312163323178,0.03580824174938785,-0.2369830713475481,0.06907602909530451,0.05614910692332159,0.03931120247547304,0.02701180563022233,0.10898353791033924
-1.04628431089222,0.13284740483741347,0.060112855844545496,-0.011698283134807896,-0.32468943563308844,0.06418268078572098,0.04994888790252286,0.04105669315581016,0.04308188651989745,0.11785564463257839
0.2524972997140419,-0.651315898396874,-0.6594388930299787,-0.7692375489338183,0.45235503360739715,-0.03127728782450578,0.015884282598651666,0.12656094250622624,0.48682908007979725,-0.10452539369837278
-0.33538736954941156,-1.0514671365293151,0.022675134357558243,-0.03906472776311705,0.04820812893423008,0.08579562102507306,0.03689125931376009,0.019262921388798086,-0.004609830275274119,0.036062005404945446
-0.6044440397219517,0.6895625944735804,-0.5963908055122513,-0.26680001150095284,-0.2667692229605761,-0.4336487318597226,-0.31019986629802654,-0.21813294746960063,-0.312496172647594,-0.1603619717693608
-0.5129979900606345,0.634065559481927,-0.6582170387940219,-0.2982777379747947,-0.3074746183992374,-0.5854169873685054,-0.3925528945628492,-0.22742198825940782,-0.3836711123741786,-0.2181038141173265
-1.1280914764518173,-0.023953724091064412,-0.013974328361349344,-0.07408023674722902,-0.41618227663659374,0.035284257493264734,0.025672524450811505,0.014540258006264392,0.03305271636050354,0.1121311984836167
-0.07228969372110809,-0.7851408199211872,0.17267899827701882,0.12823789846039188,0.013505256065264232,0.2710188033802821,0.13770878316644689,0.02952429064226945,0.012769067408216435,0.06392004825904346
-0.3206408221941808,0.5579655453775308,0.2708846009809491,0.45361017950588184,0.26472090551897,0.130276929757682,0.17892696215870282,0.09711867578069157,0.023719885757882236,0.1306942526203948
-0.19977891532166164,-1.1618595476693216,0.09964203212657377,0.0016167828038111027,0.05299112715312203,0.07238198878674909,0.030287373293416794,0.009543640209219271,-0.026372078698724714,0.013071784094627425
-1.1313311002071516,-0.020180644419502184,-0.013562723829865272,-0.06189004930375147,-0.3717350387255099,0.03913922932758379,0.0321343667729045,0.020737787409894713,0.03930755296100557,0.1156490438512118
-0.7609802353177144,0.4432822169273487,0.18570468969616352,0.2729456625828135,0.00981282389734794,0.09223291073743965,0.11737475148413054,0.07808496282681666,0.029307278807140676,0.12595501839819745
-0.9461230081345483,0.09223304809522742,0.016327515884159,0.032876527783189946,-0.3149457499612508,0.07564167971221131,0.09194222383148362,0.07796321036538495,0.05904285554299846,0.1291133731546437
0.054657212745820465,-5.269614008546512,-0.09177236870475244,-0.31484446905410807,1.053280621651692,-4.708181136501223,0.2688894641266883,4.297389174013547,-1.272707726861794,-0.4984698836174451
-0.5640096025168289,-0.9096891282025718,-0.11047580002476763,-0.14952914754538196,0.024476734234302886,0.09703216892618904,0.04265986519694983,0.02468860840752485,0.013787676288457259,0.07805232503880141
-1.0310442842143595,0.1787283874198786,0.07583664890981834,0.01949402143169732,-0.2848062127843808,0.0725647278390283,0.06038788665988701,0.05039387641474221,0.045850105320876716,0.12103760745316103
-0.7407574938925693,0.43370436660172834,0.20794203251494983,0.30655197415491836,0.05988342666847599,0.09343984077734466,0.12492491947077948,0.08120123809632405,0.02898028269775215,0.1297419208647584
-1.1857484556144353,-0.1329704132933132,-0.06304201455291827,-0.07200225349147844,-0.47016443752143483,0.01611380664163018,0.023259557749715467,0.004370032905198066,0.025036322601547617,0.10941584963846118
-1.0122619906577626,0.15047678932643024,0.05535286221010617,0.009455835066379988,-0.3052030792562677,0.07502645348564428,0.06485240597461016,0.05639866756405534,0.048633180094484064,0.12084207104239263
-1.0691678027312657,0.1102550435304488,-0.383046259073346,-0.39649099185984493,-0.4159746815020327,-0.13981372494084832,-0.17624113396104596,-0.10537909263763255,-0.15430503819152672,0.03730399951242109
-1.1325652316894437,0.014079512821352468,0.005909540764292204,-0.05714555527101676,-0.3740381209570307,0.0451032459125571,0.03455555259279127,0.025779139963243276,0.04320626943233013,0.1185829554816646
-1.1695890110967555,-0.06786428103024754,-0.045122789956580915,-0.10083099404395117,-0.43095841522682743,0.017011613518816693,0.008609352876317554,-0.006164863470978642,0.007180614729334101,0.10182911261811772
-0.660088393373171,0.45102666807108277,0.2131100012048985,0.3347034002614387,0.09095192876864065,0.09945156575243126,0.13451256962136388,0.09413019089929255,0.04186161934525281,0.13694582809624492
-0.5243579594961971,-0.9315213642250991,-0.04216215172683346,-0.11418654515505702,-0.06859722252185563,0.056613481386540265,0.01649069238967011,0.011659715013000373,0.003017041594144633,0.05444067003109582
-0.2537665447616439,-0.625532033835495,0.03653946569948449,0.09014696254275245,0.03087261028072757,0.23691629979511358,0.12911950718063908,0.0473493752089667,0.026810491573973964,0.08846529812818746
-1.046660828124336,0.08846140677271258,0.03239661810137572,-0.019946304032654624,-0.3383550091088437,0.0640301297712669,0.05479365730364786,0.047777224849689444,0.05016241748300731,0.1215746035190097
-1.1669517555467026,-0.08861206040716439,-0.04651123976389985,-0.06206623293040345,-0.37152719715324867,0.029659924406482064,0.03152890293941991,0.014397025066519227,0.03609722327740344,0.11490249787848641
-1.0253881813454921,0.1316021628729323,0.04729183193708575,0.0038907262273329807,-0.30764972360913095,0.07270384573187894,0.0643881679502579,0.05745235935773485,0.052937354120845874,0.12452743140748779
-0.7104147575813765,0.44112252363257837,0.20907529284566398,0.3166797619843083,0.0709849974848066,0.0966672697890262,0.12890783916190995,0.08505839406426569,0.029423623911875543,0.12945575474903817
-0.5623508375120684,-0.10430974726065839,-0.9473308004607972,-0.7561086574961581,-0.13180284792774466,-0.254128659711849,-0.3281077745226309,-0.234053119528622,-0.19248054886563565,-0.173734686398614
1.8584957842331318,2.003180943831473,-2.5871550832177994,-4.1795014128437815,-0.864551568321579,-4.726920688524778,1.8445788663576135,-0.19510103677228258,0.257594611492564,2.9129422724435807
-0.5841763413861019,-0.8526558069203709,-0.1577426336111837,-0.1713698267495931,-0.011272768805431054,0.10368085777568939,0.04568369437472359,0.022741430699065545,0.013292953712519243,0.08697935701914361
-0.8767321791429545,0.28650963421035397,0.07445408661462248,0.10076414827963294,-0.20748059884302805,0.0994002137558314,0.10002627453302324,0.09446756678727225,0.06615765209198454,0.13159080094075673
-0.6233685504090313,-0.8449929033108586,-0.13424212114576425,-0.15712905637138538,-0.007280865049585541,0.09925733471080787,0.044249010878011946,0.0244384654989409,0.01646100465203213,0.08600523554541313
-0.7169870687190312,0.4636160538898621,0.1713491478176728,0.27088467580462555,0.0016184036839459153,0.09904074559454952,0.12130517591935344,0.08656308542020545,0.03684356943125349,0.1255125772369304
-1.149119342203199,-0.15223475609556567,-0.07639359310734326,-0.042750270335091475,-0.4202765135558744,0.026347339212424877,0.044271609513095646,0.020423559917373067,0.039474312137254705,0.11832267602480595
-0.3757098322721832,-0.8738551464980419,-0.01595072549629642,-0.019014477447282557,-0.026401957318486994,0.12163589072334624,0.06435138072088717,0.033614650305070104,0.016620495701690424,0.0618258791515273
-0.6237563685577646,-0.7969103769246696,-0.8080694096499582,-0.8423739196772138,0.05060681957058343,-0.1660271819510754,-0.3393078127794423,-0.2687740658285675,-0.3136222510717318,-0.18818556670110315
-0.29254183178096094,-1.0184917148786148,0.04285518157422036,-0.013834385479983708,-0.0010218333418444531,0.09297704716932291,0.04308669597711527,0.020328199816139432,-0.0049607746239593385,0.03534803588974868
-0.2901304381312258,0.5990278353125478,0.24427426372406102,0.4355802906065902,0.22693625874928813,0.13925405674441776,0.18324832994277257,0.10186818386429598,0.03316567781066444,0.12711175139248518
-1.1658230463774064,-0.05390101274568947,-0.03614661779815772,-0.09491774975462215,-0.41314736179319883,0.022731853053934572,0.01258859546031774,-0.0016213920822431634,0.012181793629616812,0.10327529420439949
-0.5997516877941965,-0.8892433509083363,-0.15886610298102294,-0.19840989669497738,0.0017518632310693323,0.09451691933992615,0.03622849521158554,0.014461265015603197,0.00016058191953183774,0.08209560258854226
-0.22771136974777353,-1.1707454117790135,0.0734730026177038,-0.02268451950662476,0.051399804081450506,0.057599888042104204,0.018559211292597456,0.005052227910750175,-0.028220331921225524,0.011038112199774566
-0.5278638522013201,-1.0109576312440116,-0.11913388861437643,-0.22081197822324977,-0.02829563131487211,0.0713012156309244,0.024430819005505065,0.014246213220067847,0.009016047390653816,0.0805305108427797
0.24819889971681916,-0.6540125343434973,-0.26534692003092564,2.13917521801452,1.0491185259194389,0.6382258891122218,-0.3440097340676667,0.37847318023293597,-0.06636900622903072,-0.05148933313609545
-0.07136359263445738,-1.2148848859536112,0.1889673658899547,0.04251473882404759,0.051308175999288046,0.07366342040350678,0.038016332502447875,0.0027343122877979036,-0.04752975197505885,-0.0025725829758566597
0.744401456408092,-1.5108926831551683,1.5354682160130175,1.6465155605946231,-0.35541221178495713,-1.3080784989086942,-1.0322719355799361,-0.4313779115871692,-0.4182431011686319,-0.5971200573199213
-1.1497289898029857,0.025838186770386,-0.19041367314486732,-0.2716061401375768,-0.447542885991844,-0.05477886653680324,-0.0844439411184071,-0.05165561296734493,-0.08552896194720909,0.06482884362768637
-0.4507825324975693,-1.042737128122596,-0.026329287206843594,-0.09988249812155918,0.008971610374085831,0.07597151076451761,0.02899701683784011,0.018476948895683923,0.0026854518620106566,0.04996967347865032
-1.201100472722005,-0.2520555007582748,-0.1322023906487437,-0.03462717514615574,-0.4605856070639173,0.0031184084183810447,0.04376628480655195,0.012242644560524889,0.017058678622457597,0.10846677467779364
-0.5249301643700828,-0.8922983009161841,-0.03671917053578992,-0.09263086999432196,-0.04685816677674251,0.06340916212561286,0.021401904149188283,0.014329541480691666,0.005423949161395073,0.055334911090942636
-0.38571086770047047,0.45087504024826375,0.3238783554821325,0.4702479975072813,0.2773280540517966,0.12207087518810927,0.17402571615845366,0.08910936693877809,0.024106570347135047,0.1397235511319059
-0.5808269354345443,-0.8912356723816728,-0.062275305042381914,-0.11506549998575846,-0.047904956925319854,0.0722394052556678,0.027312190401875443,0.018436655787414963,0.011390164493721364,0.06537722669097833
-0.5792704407980903,-0.8127810339718105,-0.07218693945517313,-0.10220471682779463,-0.05831842943814284,0.07999557787816543,0.03497332492963529,0.021812837840804827,0.014903839621486482,0.07096410121694262
-1.1216795759759424,0.06503551407349284,0.04008064984778582,-0.06520491477535764,-0.38616523328547364,0.03998602448458755,0.0210503095980539,0.011579158961162475,0.025402872607080247,0.10886286833711234
-0.9744646400373053,0.17350340841227355,-0.2513749733188055,-0.29609232882058256,-0.2864068546793504,-0.0670427002161835,-0.10356022937569961,-0.06841959579702735,-0.1104601710911021,0.04822459039112188
-0.0357830590925949,-1.3581037597703545,0.19677747446456126,0.04328316046343228,0.07222454918391044,0.034742159996926175,0.012450461430471136,-0.009298537317490686,-0.07084859005423809,-0.018298295824575705
-0.454320133381669,-0.1699246486562202,-0.9865826120446687,-0.744566745612241,-0.11927882974159025,-0.17576841548789224,-0.31732981047489994,-0.22945992105091678,-0.20542190644588823,-0.1407372084593985
-0.6940855045402176,-0.4857919763758232,-0.7359602532081512,-0.5381881894311101,-0.0001505205527360314,0.060527706598813485,-0.10492997236559727,-0.09270423984143036,-0.1140731413651732,0.048138449779258526
-0.6835581301725069,-0.6909657364916828,-0.09859477591615086,-0.11604150980234103,-0.11974742995529591,0.0777495185794655,0.03850541831437187,0.023721744993311557,0.025158720742165207,0.08686366441578484
-0.9001491522861863,0.33363453325943904,0.11308553557884501,0.12637376291504468,-0.16888126612794527,0.09177208613858456,0.08914769065588166,0.07051111177315517,0.04269102611916068,0.12023475718135124
-0.7017677775535576,0.4636327265818093,0.1330606576079409,0.22961643806591506,-0.047936576175734893,0.1065553651055612,0.11722484872444039,0.09692288341382063,0.05091880469298471,0.12672478685286578
-1.0567269537240842,0.15998318333075695,0.09167516397611421,-0.012782172815900328,-0.30688219511037323,0.05051175300285898,0.03222533047779458,0.01551748412444126,0.01416071540817386,0.10507418672129792
-0.22967556847818937,-0.6782932269802829,-0.03570823662382733,0.06103230796123021,0.048563921655395734,0.24016216167791832,0.128413130696586,0.047317847864702375,0.01906510058810816,0.06889427691927043
-1.1743067903675062,-0.17548082847088617,-0.08759995296408313,-0.04507592968172893,-0.42593614123648654,0.018694069198697,0.04006408636444799,0.014899121410480559,0.032767875441411604,0.11519838414421524
-1.0665714139896743,0.03958275635989803,-0.14764651883705546,-0.23970693612981245,-0.3587705918328397,-0.02548114638795299,-0.0583017342574527,-0.03795696803503997,-0.06083731793797058,0.06939526041666327
-1.1087945114487252,0.04779989470604527,0.02289884573670095,-0.054630486228204184,-0.35995982812894783,0.04630625723784683,0.03224487983927676,0.02383584718922106,0.03846182239761948,0.11474549927894465
-0.9606891534012734,0.28785781898834306,0.11047626951050034,0.0948456757745572,-0.19720911287515813,0.08302579717394712,0.07732570107224992,0.0597184444842472,0.042015515861825406,0.1205261308835284
-0.6713523733389685,-0.7151100310603451,-0.08936501490946581,-0.10889434562922665,-0.11397670067856908,0.07890314551111939,0.03860996927819349,0.025286063924846988,0.02819096373444327,0.08605119997319613
-0.7175678460754906,-0.6056443118519612,-0.35458979356089304,-0.2932591967577342,-0.08788273855599806,0.08430490980363044,-0.0038722251728872553,-0.02569327966164292,-0.04288756877464721,0.09631402647895179
0.03457951666931933,1.363665614454031,-0.9263220718699783,1.6372354703174932,-1.1737326029293147,-0.28466330634758874,-0.3924547007308688,-0.17520438193203144,-0.1744695874357702,-0.5010785088645452
-0.9508344484384863,0.16797609500373387,0.046207438115293265,0.044392004662067296,-0.2930778185490402,0.08537219107207339,0.08913307841286497,0.08133921427841251,0.06354519597066002,0.13031985815539035
-0.9412950656760969,0.3340845664359888,0.13388904734557736,0.13207432217516532,-0.1662314525219938,0.08444607158155887,0.08498693725511647,0.06289080894915479,0.04132326192507731,0.12291295184657487
-1.1097526969534515,0.09293307994026602,0.05084763059467716,-0.03668015006079145,-0.3444457625140632,0.053328164323850374,0.037592080814315414,0.029774917076935935,0.041831804328213075,0.11737104880054079
-1.1431031834510639,0.034663958886959355,0.019963278058148848,-0.07393020621859032,-0.38089089820499755,0.0359541956055549,0.018704777277429283,0.008976153218921716,0.02593128546025688,0.107845342799366
-1.1585799687327882,-0.06457254209284252,-0.03147188809620552,-0.06419588559278824,-0.4122081396971049,0.03352829954577005,0.03172576395898356,0.018107530602846464,0.041537536468794475,0.11745243698149113
-0.28607764847624917,-1.0943728545874074,0.04260870423226232,-0.035047997848608306,0.042883741991689525,0.07063432344669081,0.026897915535303532,0.012137586200760934,-0.015308063119871778,0.0243889297686265
-0.5854928497511658,-0.6872375465425925,-0.07659289259421988,-0.08210719125273125,-0.06704616414662565,0.09287267012137293,0.04877444637975257,0.02812689315944693,0.02251883680954366,0.0827435613848877
-1.0292124513200496,0.0410944135252555,0.0036532407746646582,-0.01302937738255933,-0.3395896066094657,0.06312430245029033,0.06475492622248963,0.05470558983968137,0.05704931116540359,0.12493050984644438
1.299337183747445,-1.346578179303522,3.2422539707289775,2.1506826411510374,-2.702753563963565,-2.8610501555925416,-0.6575220848669122,-0.5545779339239685,0.001638639879038025,-1.2239800900894995
-0.8002434971688768,0.34503082332940915,0.08151356747239698,0.12901753543266387,-0.15943779215401915,0.10372871755740293,0.10320303089663292,0.1001362611276448,0.06708671094898062,0.13229541995111957
0.746425229559433,-0.27971458501800556,1.4515735697388272,-1.0472664579857647,-0.006403058724560857,-0.34448194155958406,-0.0815081554144356,-0.11238468592872727,0.16951917479454362,1.3242037634208002
-0.9009358501501832,0.3394892272161482,-0.5125174153244282,-0.43592618247145576,-0.38509691196051815,-0.2285177686664022,-0.22446531613839354,-0.1521340103908148,-0.21596423590107383,-0.013134186975147469
-1.0589677763080305,0.15590131901819154,0.08666613201272083,-0.010899453991081267,-0.31600691266316405,0.05459713524063538,0.037394144974002064,0.023965988823912245,0.02598855062692911,0.10930928894972328
-0.6929092699767159,0.3280115661670061,0.30332090599613903,0.38549912403818154,0.14077168324727696,0.09775501056969664,0.1426020114311492,0.09069523009262827,0.04482491684649367,0.14571505056279527
-0.8709135541555972,0.3943708795759892,0.15077941600119252,0.19213280480883393,-0.0767005937524693,0.09054433188490896,0.10084506767433837,0.07581235719751424,0.044589960715593215,0.12799377587380598
-1.1526122706578343,0.0030761947442097715,0.0017340428688176186,-0.07595376572910444,-0.39233213033876696,0.03505245312645975,0.021239874693342597,0.011154649355705974,0.02971954693438846,0.1101700258959126
-1.117817580022249,0.08048195644423374,0.04197876341784181,-0.04044649138471698,-0.33127173862418485,0.05261511869632152,0.03704108742499467,0.02845559303411336,0.03793107452347988,0.11566488621107353
0.3700719807927696,1.0758983044551407,0.8361467836179038,-0.22366471169232618,-0.8273965295333685,-0.6842465823024009,-0.1748659516045004,-0.18560930863129577,-0.3453188722592289,-0.34689624237663547
-0.8247684113429607,0.34040389989723047,0.08417095248289842,0.12702564379260808,-0.16896943681999804,0.1035518088244277,0.101335658493855,0.09607763416425245,0.0668104112266843,0.1309286900201701
-0.875156923572395,0.3610540444113796,0.12140324805296088,0.14773040105490937,-0.14564283500217934,0.09401816265984962,0.09429951194722444,0.07304172274786921,0.04099155546833682,0.12050753572044759
-0.6328196775141637,0.4482124928647421,0.2187231790124084,0.347917173420906,0.11663062894211827,0.10302899387147811,0.13945200774504635,0.09815546158432396,0.042813566987097804,0.13580245632313637
-1.1334493747444123,0.05493463402521658,0.031290369868901324,-0.06539035409137758,-0.3602010798319622,0.039241043440260415,0.02130266504401449,0.011289709282750818,0.026110608368823892,0.1085437849752506
-0.7350104352594947,0.4298296695995889,0.21503552922761932,0.3151899739452057,0.0656609188315072,0.09289473169113988,0.12659400874038176,0.0839924401008002,0.037590875929614354,0.13437067119880763
-0.2764065122748453,-0.353582016306958,-0.011326754345223101,0.05787350107383193,0.032990436919921366,0.20981576604777363,0.1013660246626554,0.02912131620176504,0.016996537471670188,0.07280377982387787
-0.6032091423015145,-0.8644640328078934,-0.24958589360314326,-0.2503087308714717,0.004562692234226949,0.116383954449456,0.0412138228551718,0.009960297588174983,-0.0027305595653731116,0.09877603438065755
-0.8204355805825871,0.4056045664190618,0.13427696848723406,0.18810267331962757,-0.08848363386297652,0.09554589911400464,0.10231644363635622,0.07995656428082974,0.04269492849524666,0.12237079988595524
-1.0049138617947766,0.2271831379199756,0.08379896927554009,0.05838107623650423,-0.21716771914391844,0.0824138882793253,0.07420965432718635,0.06402205691483906,0.05052033337875388,0.12384275723403489
-0.9763916032442223,0.2689533348520935,0.09846801749476852,0.08635002869185321,-0.18751675094700307,0.09059269996179951,0.08343361227817073,0.06885059532781934,0.0502861355824314,0.12215596059866772
-0.6693965228316868,0.46940651792737675,0.1915812438226134,0.309545801918109,0.05402687898740203,0.1007536297083633,0.1303744644662828,0.09162033694452132,0.03804485756819354,0.131177559351667
-1.1645763378919003,-0.11398940684581593,-0.05458469141846,-0.058318762887884124,-0.43086743714072495,0.027088419306607794,0.034291353864452714,0.016310654574009036,0.040314317206366954,0.11741939353230932
-0.6114502926296868,-0.5032871958273106,-0.09511467504186359,-0.051986798204789235,-0.07857775082128997,0.12152970513457922,0.08257602596382049,0.043093715137474765,0.04040174993643514,0.10646088061795726
-0.871866371577156,-0.3725404761398117,-0.1664507157289622,-0.08860471274030864,-0.1469899372609849,0.06666191460657987,0.07593039005298319,0.035471137548525676,0.038576519547567835,0.12353534802395165
-0.016346789380559307,-1.4052977372347646,0.20468499440503818,0.048337325603678066,0.08481988835106996,0.026574750639917696,0.007839320596674124,-0.012290346612002637,-0.07859808997213373,-0.0219426594118737
-0.9492689761795816,0.32241096630084004,0.12544581438921112,0.12344353808727833,-0.15791042467315808,0.08516662529303176,0.08369585660302764,0.06392862212055324,0.040550131314449324,0.12171086519127318
-0.060247929407171115,1.0101207200937992,0.24275294813275677,0.6143171044752413,-0.7382241592254446,-0.716916731871407,0.874868458447466,-1.4363752259501117,-0.42191648510955704,1.6705425312424371
-1.174752794782368,-0.1161555377074547,-0.05515181605849709,-0.05835866397662421,-0.427948910359865,0.02643452717495846,0.03382679053188394,0.01577961624103333,0.040776747413554464,0.11765383873237764
-0.8044391446513237,0.4175117863037458,0.13401671728923967,0.20103830506577527,-0.05384692767015271,0.10205795614296184,0.11056972050475118,0.09488008037126693,0.057106955265537426,0.13174787891724377
-0.18250509114635377,-0.6159642079548997,0.6441482045835298,0.42829668642639396,0.3497097549866726,0.05955684162727374,-0.03954041268492651,0.08381128121652144,0.0016414531548692912,-0.11516217741553678
-1.1142400328463145,0.07850186958257636,0.043416631422822066,-0.0476300771587564,-0.3470165444448764,0.04794410260235889,0.03128753957674513,0.022569752078264255,0.035060021190160065,0.11277899544712347
-0.8825304662530561,0.3596147121002766,0.12427505502326656,0.14855665423783865,-0.13732698801680165,0.09158289928938765,0.09236825348759393,0.07106694439239428,0.040160148733147,0.1199401664982372
-0.36122987160365544,-1.0744962692257893,0.01283398219348758,-0.05404253418361122,0.05381910141739168,0.08713259880414054,0.037367642840786953,0.02114218302086539,-0.0009150540751448825,0.04050213662195712
-0.8189983911646951,0.29597776185543534,-0.5325137749973599,-0.4721828245565989,-0.2581927427439341,-0.2439061560688447,-0.24132880286572336,-0.1632847609638806,-0.22502025985149027,-0.031688466422692046
-1.1223935661574838,0.006617755069716962,0.003269028332208439,-0.0712360349270662,-0.4142224333859892,0.03955763805146455,0.026407232301114643,0.017024620130911716,0.03517883088125952,0.11317985716393471
-0.8070189325165708,0.4280173653543663,0.15529985519415265,0.22285241972957207,-0.050615582413166035,0.09691365446159456,0.11175869650232347,0.08679355002646913,0.04995951420660917,0.13066319148849131
-0.8849735038904832,0.38066216707711054,0.15220080692003393,0.17733557058557634,-0.09950598089736273,0.0835629671348472,0.09115034927285225,0.05740822556434163,0.019967194197471564,0.11453049593224066
-1.0069946707661843,0.20167860029801515,0.07581802604574138,0.03932442960519552,-0.2603568778156653,0.07963386131583668,0.07021360974730735,0.061008493269445636,0.05226638500153356,0.12367186458794355
-0.7178016300834894,0.3701737064886865,0.26408209161125445,0.35990560613672723,0.1241190935032974,0.09261292253803118,0.13380793925924492,0.08298086991966473,0.032278067590534185,0.14011988229239022
-0.6858608268454446,0.5806101596958445,-0.6328656611198281,-0.3869224350371184,-0.3411255096165298,-0.3501000070818384,-0.2648452143806756,-0.1669315522994881,-0.24565320209307795,-0.10145514411133365
-1.0538097513998774,0.11560857513156007,0.04778788514457733,-0.011973465791908874,-0.324406188814504,0.06634010856874377,0.05496578807028491,0.04811790802596052,0.05053185764182672,0.12208793921729935
-0.4974198918397576,0.03381981679400733,-0.9385406209626471,-0.7639078657312797,-0.1759573731114232,-0.3079879898227876,-0.32200727072402485,-0.25031062142986016,-0.25544428004714587,-0.16212381857126099
-0.3893033156184866,5.114100759470909,-3.083514191616274,-1.8183976445938854,-1.5916125736961788,0.2010015255885923,0.06926213922791678,2.74077598749807,2.173013221205893,-2.0027192470609716
-1.1964636117701197,-0.099893165409435,-0.0532034328376484,-0.0889420482747653,-0.43976962016110155,0.014605599491846227,0.013333805595417681,-0.0032596650001680294,0.01436650147812223,0.10395659242773109
-1.0248330367973113,0.14214378350825096,-0.4480563751053968,-0.44658566142801526,-0.4172736954791986,-0.1793378527363339,-0.20824249913540008,-0.1269265807205647,-0.17561077800512104,0.020851554366436653
-0.9798580285783534,0.2546913625433646,0.10223863552857397,0.0686139066421033,-0.23477979066126348,0.07925731138197954,0.07033223772210073,0.054003751797779886,0.03838538784541721,0.11707947367770895
-0.6346173655856034,0.4743130419041173,0.1945762414901972,0.3206950006916643,0.07410887572515977,0.09706357232547466,0.1272452878299926,0.0838542428388374,0.02527494951753536,0.11846119901917689
-0.6858454988300572,0.7250446315917157,-0.566443284803727,-0.14912442106640014,-0.4769310141338621,-0.521639973713556,-0.3428112155677755,-0.1867060434560972,-0.33491925718499205,-0.17141792130076416
-0.4200662372631412,-1.0158114345319498,-0.0010915087011825813,-0.06516303082063468,0.03562827490559945,0.07251098462176694,0.026626724741647043,0.015709290477617616,-0.001949057569851878,0.0418477242542562
-1.070646229432192,0.04632688392548345,0.015672924370452673,-0.040284073836827416,-0.3644059532073072,0.055154632011244216,0.045467957391692904,0.03730984675122552,0.046313422034705204,0.11928554086512037
-1.0645105536492427,0.07742533856394647,0.03131783540702876,-0.02861959096526666,-0.259994742407241,0.06610730485209886,0.04809578560408066,0.03255570290078216,0.04263493372091244,0.12463381465456974
-0.9595180317018799,-1.0335465921414262,-0.26441777803679267,0.5312316093048562,-0.29021852002601,-0.07615290947658387,0.18490377958174364,0.13147942418783107,0.008707623386048299,0.023264414855062625
-0.9875864861856227,0.20907888014928905,0.07153093365275026,0.047811293107824275,-0.25194063990621496,0.08404244231186553,0.07653376492463808,0.0679138328832596,0.054967653937534486,0.12465296361577995
-0.2515808795640487,-0.6074704783313153,-0.7157403916069988,-0.517365014796777,0.4270446873704881,0.00698795022150056,-0.0235939642955289,0.0290458243076167,-0.12772342382830976,0.1101266082314484
-1.0443802926133132,0.10000542789024913,0.03956643644005364,-0.022930158726496713,-0.3273308808705312,0.061935148662340414,0.04959685456620993,0.041247006979492656,0.04064919048357426,0.11642409962117281
-0.05184525255241248,-0.4593153106962931,-0.6194897791076561,2.262912957297273,-0.40198640975606176,-0.6606987953324097,-0.5003648192760569,-0.08937039497475704,-0.3705169461430023,-0.35858983266199324
0.5346424845767793,-0.6268306214985366,-2.740973291828139,-0.7174865789065948,-0.7725335656248223,0.11146321363994825,0.21840617109618163,0.04207529841524045,-0.5762547113710027,-0.2303085056916601
-0.902412300712197,0.32445713475063864,0.1040165847104904,0.12007198210000974,-0.1719013666394138,0.09390320868455979,0.09076317749462935,0.07760013721124386,0.054351209876846406,0.12515543182801595
-1.2159625080456102,-0.125997543318677,-0.06685645795743671,-0.0891248161621269,-0.45415812100952696,0.00776035613994695,0.011485850895751246,-0.007041132853195759,0.007174718990087498,0.10330158547219928
-0.6253086996541064,-0.7693171293922282,-0.11827344995482343,-0.12464565391151257,-0.03287493624873874,0.09606342503118896,0.046716942307345986,0.026701774275941555,0.020015257977688623,0.0859230153025809
-0.8794103962833507,0.3971546146683503,0.17146999867478982,0.20705691703134277,-0.06822363673004193,0.08402788014780699,0.09849326615854223,0.0601852365464055,0.019062765035459086,0.11865042506970329
-0.6118483522065619,0.47262420385513054,0.21091679236994884,0.3441621318055102,0.09019841370189467,0.10383639868072704,0.1388343220016461,0.09473002796356793,0.03691259346405681,0.1311868300895459
-1.1322445203920437,-0.014996114207205945,-0.008324647438550865,-0.05806697064334176,-0.3997418241476483,0.04255475788967208,0.03607161417166425,0.026640483874378337,0.04865354780991644,0.12105903202232553
-1.1476597345340522,-0.17676383481793828,-0.0894598630533068,-0.03727657420099338,-0.4279845781887369,0.02282900189147102,0.04714491701613775,0.020776625195509733,0.038218613999236234,0.11801029756731937
-0.6966784616239715,0.34720604072248784,0.2819222706845613,0.374770215017997,0.1456610561411235,0.09302021128595475,0.13557245612271085,0.0851761248316643,0.03667781969429624,0.13656817766562254
-0.36082807247850157,1.1207462287217598,2.3423710017788215,1.7004608623273116,-0.42525362603221356,-0.15127221162057247,0.1182057503506898,-0.02489181485500655,0.20746964821911953,-0.10543148409591561
-0.9530130599059997,0.27133045738075273,0.09925328121925826,0.0829611993989562,-0.19002150709387836,0.08017171137056969,0.07238034814226202,0.055508253343427856,0.03613506039027315,0.11202478403217214
-0.9340132878854345,0.29569929200610134,0.09832899942496887,0.10041952442044168,-0.19932197516856842,0.09152765834396022,0.08691433156580691,0.07565311403308253,0.05663263219830405,0.12649843084312962
-1.0069579808874136,0.1857556777465033,0.06668647900127123,0.03260026745449072,-0.27729952660855123,0.080578718512596,0.07239223385509537,0.06513964247902503,0.057110916128158704,0.1265809566891368
-0.7237237914111108,-0.6322366692171537,-0.31002017560040823,-0.2584202136175241,-0.08954130524226017,0.09101349221051461,0.017064453798754393,-0.007361546158293437,-0.006827133817183606,0.10857418125058835
-0.7429865229116984,0.4533792979539894,0.16721354124424392,0.26029954412768586,0.0018487982627993082,0.0990364296438262,0.119994655446808,0.09160570681200404,0.047510274274085024,0.13215804466119285
-0.2781446192372943,-0.8651382764522092,0.028487166266972723,0.03375920645621522,0.03559786304460866,0.1702064356152746,0.09329952387723398,0.03746924466500237,0.014560249715622505,0.06472494890493784
-0.35038139380595695,-1.0393716599268135,0.005950417612184399,-0.04583588436441062,0.051075761107192696,0.09842652087559217,0.045721728142503304,0.02504351147416524,0.0024374844355072203,0.044202295161331
-0.7218202274685913,0.42486162880381634,0.22135107718185354,0.32362254383464206,0.06443938031592265,0.10648832582404763,0.13922034866548233,0.08471325113466173,0.034293964408805534,0.1315712712134183
-1.1654826822122453,-0.056216338473933286,-0.029152420754394295,-0.08706560637310846,-0.4443963588440316,0.024947893151638936,0.01686223074468309,0.003949211724864303,0.023447116383194952,0.10784631238934336
-0.7374118375290056,0.45497550804270476,0.17498537660276034,0.27145474347920473,0.012438455320581214,0.0995215211064155,0.12285706877288467,0.09184784014446118,0.04626258132071283,0.13180351326209586
-0.8871235854425952,0.35174226522646945,0.12043297200277829,0.14096610518663874,-0.15186870544189496,0.09144994091050962,0.09124730889323071,0.07149223013317757,0.04284860123428404,0.12110260289544562
-0.42340526796581357,-0.2826089680903363,-1.1895832553104098,-1.0507969276798534,-0.19983809469964908,-0.5249292089466298,-0.31860987089882475,-0.2698556519601185,-0.4108148512103286,-0.19896733982215634
-1.0452812205897366,0.1928203899127912,0.08622043547661368,0.028437373795799276,-0.26400899143818185,0.07156436325521315,0.059623988628537856,0.048640022899503796,0.04497699678421625,0.12073504319549166
-0.6823446744450063,-0.7864088639443981,-0.19688834850545897,-0.20758977800501596,-0.007666009945842609,0.09488999916450927,0.03575466373735933,0.012806366676716134,0.004611409611033109,0.09503773636990426
-0.9590001983088716,0.23223641726132677,0.0719285976982749,0.06573464077351261,-0.23236172980849498,0.089086367470772,0.08453650085744623,0.07737010049933257,0.06012642838267838,0.12764490466139863
-1.1130081811122459,0.04073843564999882,0.01896203983335279,-0.04941256762757264,-0.3693344895413097,0.05005979066455948,0.038206331329285415,0.03064052501441659,0.0457956118604726,0.11983206625317883
0.29699835418791265,3.8260130383440027,-0.3820210021871382,-0.15684646713476363,-0.33914256691180605,-1.588846016427196,-1.6651204868638563,-0.5625677994875031,-0.43190067814483674,-2.670088456371632
-0.7413772862041987,-0.6865788012478204,-0.12348698247516063,-0.13649013208124078,-0.097705240123433,0.07947247500752515,0.03904821454128003,0.022812965698876485,0.02553476064073296,0.09279615768262937
-1.0064246867216928,0.22239138775394354,0.08523483933730805,0.05247789125393227,-0.23646385612417128,0.08034586484492429,0.07131488800308888,0.06060801768540238,0.05054188190427,0.12375105696261822
-1.0468982746096067,-0.0620944479635983,-0.042750685343441897,-0.023059697023389402,-0.3736424887910418,0.0490695029626406,0.06136811001915383,0.0414231041441642,0.052160672554647056,0.12322184548460353
-0.8600538356812577,0.31969144358427115,-0.6377161170073283,-0.53792248590906,-0.3972231316996059,-0.34611382377195254,-0.29740261687678315,-0.1869081163285168,-0.2322912649826868,-0.08192455073361954
-0.7303950709718824,0.40621166229239747,0.2373906380411249,0.33815320309421765,0.09433766154883062,0.09463070106570919,0.13203493153203275,0.08531840939323924,0.03471725994920092,0.13423768733462693
-0.1851670988385705,-1.1395950797590995,0.10643523119924325,0.009317472486781362,0.015983299260408784,0.07668681966043783,0.03403046223668961,0.010261480312734514,-0.02620589100415247,0.013398031849232663
-0.951141885323573,0.1793596677784778,0.04994760303126741,0.049253740140149826,-0.2629582382187108,0.08536119180636628,0.08789369692609313,0.0799020882581463,0.0591771748083986,0.12745031261164788
-1.1532813580406198,0.005443196862804704,0.0041259591004370495,-0.0693210129705503,-0.3909459642461559,0.03879793916263545,0.026092101265220116,0.01666217946208267,0.035732519711692515,0.11347182639499885
-0.6303289035237499,-0.418227864460345,-0.7240428817950271,-0.4950673568972483,-0.06161128525413147,0.05200744974606329,-0.11567225820434225,-0.08834466271796881,-0.08437209234887531,0.044559725815344856
-1.1470434371766796,0.002918976585007029,0.0022912782669882057,-0.06496098562420713,-0.3886533721347528,0.04051835544987038,0.029418585910921065,0.020279564989569274,0.040764350304515015,0.11623447679910544
-0.4667196944293812,-0.869680150935373,-0.03022858070370379,-0.04416065606575903,-0.007746318659972728,0.10522857899168694,0.05264445793656874,0.031624790539022486,0.021597677384351442,0.06765163905069138
1.2151658850505114,-0.4019699669759662,1.5857901175990883,-0.12645143296805203,0.6409316802328142,0.263249498863911,0.45303963193657004,-0.05867888976157891,-0.22080303195149828,-2.2878939562762337
-0.7217545394257457,-0.6363474336635998,-0.11808898794118117,-0.10962290173428728,-0.09449434644842926,0.08966474594805503,0.05279316695005743,0.03157483216100262,0.03709938857162824,0.10048837272071161
-0.4090758908662675,-1.0028626157666995,-0.06164143123929935,-0.10190578722663805,0.05936965652946158,0.10387806630272887,0.04882520844312069,0.028020142606203953,0.008463088513419561,0.06062574356565554
-0.8611170066746784,0.38711912646793917,0.13830088232478974,0.17688510841500174,-0.09602447982852949,0.09143544203815952,0.09731634271128421,0.072558562569557,0.0368836365677557,0.12050444814930322
-0.33202235020487947,0.560296176248504,0.2701151589482799,0.4511473505389753,0.28660423450575134,0.11995731691101089,0.170021927487519,0.08072967096466334,0.007119515617603599,0.1219413275105942
-0.28986643489964037,-1.0924498832542016,0.04515380556512639,-0.036179402101675924,0.01264845045271466,0.059979848523219914,0.019390629033606572,0.008199360941073725,-0.01767824617552717,0.02218077451973043
-0.5275327312319227,0.3344435742512336,0.33625924255388717,0.4320579246488388,0.2035616675012017,0.10942880443026363,0.156406026228523,0.09888881761293296,0.04434798004775851,0.14729101174788065
0.2701509382139062,-1.0444908144933145,2.332454181894472,3.1090261663188232,-1.1911929733809474,1.320950402404624,-3.955549104764004,-1.1371525355229228,0.001867452971579835,2.432852540820516
-0.453588962734063,-0.3451676878444703,-0.7480464768363919,-1.0928971244351546,-0.23417841712398263,-0.6549848791461444,-0.37177920451291685,-0.34038217964805545,-0.35675530038835196,-0.2923052894392925
-0.9001193789196342,0.3407122188442735,0.12214583458418864,0.13428125632338983,-0.13982231994107705,0.08552865982043431,0.08397782709776305,0.06024726650473401,0.029476030574425924,0.1123458488217102
-0.5392582992306224,0.4930718548554716,0.2041412076223202,0.35338779624447225,0.11993798620109879,0.09617107676976192,0.130756170767138,0.0805905216166706,0.009176376112443915,0.10545003544737602
1.4619354972504237,4.026146090549056,-1.9664732204729742,2.1623288766068285,-3.2979484042410854,1.6828855951691437,-1.06988274511315,0.766943767081464,-3.0168879957965324,-2.8614190674474993
1.430514850959479,-0.1210636850867548,1.9267940133602801,-0.02453869874509764,-0.15139596429682245,0.337777659052108,-0.2543630084502607,-0.3400106289062779,-0.08154583525251034,-1.2022759448479263
-1.0225997105787734,0.23889029987168597,0.09998061777250732,0.06288548336149632,-0.21764200673650486,0.07816971397603992,0.06952159615886415,0.05655625916930916,0.0475099889690105,0.12335748164984392
-0.08144695882984897,-0.3086489537147996,-0.06335841468748737,0.0644714890146731,0.08249996445647335,0.1544189915104281,0.03308892120117771,0.009209208231249915,-0.004299575162406059,0.04548898678355932
-0.4369800522366869,-1.0054531263165554,-0.0025291339379407223,-0.07124235644510839,0.020515093249819278,0.06301021670149164,0.01992740855364336,0.012176370890876882,-0.0034076755339331522,0.04131855509629228
-0.5235838023700122,0.3938506162246103,0.29979373582294805,0.4214175562178157,0.17909425931497727,0.10949721504192254,0.15625734459408128,0.1031599885224086,0.04851862649147055,0.1470274086398811
-0.6546637327871353,-0.7570578360920387,-0.09617744129727075,-0.11122446125293288,-0.06100316944442418,0.08605381745726845,0.041207385392778614,0.025713014629569774,0.02399825589386667,0.08362868785607885
-0.08206550108540311,0.7785466966199217,0.18036475296438245,0.3836697672310461,0.20489786054597772,0.14961986019596715,0.1751479221085387,0.07927960308956067,-0.0007327562990686942,0.07984913768060538
-0.3058114220812625,-1.0471104416447856,0.04132027687057064,-0.023375658290281258,0.008619774652077352,0.08162820767786817,0.034839691129259574,0.017271051973581183,-0.007091052354175138,0.0326465736522921
3.9151266045036346,0.45810495786536,2.126819657875575,1.3017983138203615,-1.5327785873818982,-0.5558305969125579,-0.3437980219401672,-0.7169228237379733,-2.2299683052265644,-1.1811309777080565
-0.02830147100798367,-1.0866822839424655,0.2151300268196666,0.07000775402331626,0.06760432987573342,0.15556976154275273,0.0876086671804122,0.011511410486660548,-0.03470066388868356,0.014790148783968518
-0.6388311544426251,-0.755322923082175,-0.44764596571814863,-0.3767872696071615,0.016441399534100263,0.10677020400875467,-0.0037347739982526015,-0.03160140306498406,-0.04178593149948388,0.10125663888074277
-0.9635436553402671,0.21263226145233413,0.0652200591561118,0.05592796102760484,-0.24297005663986831,0.08734800027921578,0.08315112003103182,0.07555406256798228,0.0583223790931415,0.1260994582166281
-0.7623363572262758,-0.6083560226911356,-0.12736376099048854,-0.12478223771574987,-0.11600325808399145,0.08093255905423104,0.046775941323441844,0.025718586384730544,0.02931260434201625,0.09915538858347275
-1.1504746207555396,-0.15929054830083067,-0.07978035628635614,-0.03988146452707407,-0.42485103906392274,0.026084721766658825,0.04625661636112759,0.02189434160592471,0.041555172645293806,0.11958550674176284
-0.9110277320017683,0.3415906157167666,0.13100758914522367,0.13499634579054365,-0.16179878447216384,0.08409899677733902,0.08386431654899129,0.057883759752229945,0.02935065587641903,0.11495935298808438
-0.7825303038815414,0.388320811968887,0.09635145313503354,0.15639734308928607,-0.13399724612076835,0.10774750842775091,0.10629122052836318,0.10112844575785976,0.07020904275439811,0.13109349416610053
-0.6095077507746887,-0.8656431367477684,-0.1803393053487205,-0.19855571608888137,-0.009087944674738755,0.10789723948564295,0.046132909095555306,0.022285601095430017,0.014872480441425199,0.09524747022987021
-0.9882104381067321,0.1711705841984581,0.057178883432902755,0.026531846258672675,-0.28691420723214867,0.07956570201856816,0.07242373339076913,0.06443048073071717,0.0536725549050371,0.12397245913942756
-0.3781333021028983,-0.49760668817111214,-0.008286450230955323,0.0347266499536332,0.014198209974606005,0.19715010745543973,0.10628507735328852,0.04134020816564421,0.012599091270015145,0.09096791573149465
-0.4988997752532212,0.563627425133051,-0.7232905971257649,-0.3797794645588073,-0.3974976370179052,-0.5814160426431871,-0.3626153933319995,-0.1967214387469165,-0.302270905248846,-0.2096800050320617
-0.38007237055633036,-1.066267588759882,0.014191827622966268,-0.061682028394525,-0.010045118546945887,0.06670340953206629,0.022809030113358764,0.012917008235471603,-0.007480251000459772,0.03462546302503271
-0.6942073589605425,-0.7579990211310575,-0.17639304838912484,-0.19204420320243734,-0.06713571002239373,0.08686182680159445,0.03344129640809285,0.012500829693070016,0.00375435381312454,0.09048842415549455
-0.33252800159124113,-1.008323313029125,0.0271530747992667,-0.02266847255004324,0.02494645277486983,0.09400518186130732,0.04323217402579079,0.02220155907921468,-0.00010024835917758601,0.040680410221129
-0.9371176346365339,0.2535326701382072,0.0757545769768069,0.07750446245543849,-0.22706833122051678,0.09326285822181629,0.0888035242660977,0.08049714237028946,0.05899309860475132,0.12787476240122003
1.8329108213793066,-0.703632873010647,4.718949838355985,1.241581907844531,-3.0584695628096634,-3.114826300345507,-0.6724047786492136,-0.31428098553881795,-0.159173974651068,-0.18410686804524962
0.90621729928942,-0.4881370559087999,-0.9878378280977181,-0.5071964365849205,-0.1512000233577127,-0.6732579482091319,0.2757949788237267,0.07842432978122536,-0.09765263545179668,-0.9176502407652782
2.7226552428064803,-1.1219279705067324,-1.126506004353678,-2.046564751638655,-0.3057255859238525,4.570405445984916,-2.122218067481752,-0.541050869709516,-0.04260704229960921,-2.197583422373766
-0.587115007077469,-0.24574059440842402,-0.8120820786797261,-1.029569926918567,-0.4623761535383206,-0.7134019727724088,-0.39235280635221736,-0.34279249403768797,-0.32521953818822463,-0.3190947558357548
-0.5997046339058822,-0.6384725562327215,-0.07565618448800611,-0.07497221854758479,-0.10933525287613391,0.09616775050868052,0.0545461746006012,0.03250962837576122,0.032743793718003844,0.08968486613851816
-1.0607719627389969,0.13232143229185486,0.05869605366833807,-0.0069400399489466255,-0.31032878116752094,0.06588213137368854,0.05311433309406684,0.04553770749992973,0.048091970398692126,0.12136797770153344
-0.9694840016097852,0.17909799851987682,0.05292010365340387,0.04280133194611739,-0.25857038429285994,0.08350498958737541,0.08213178612331512,0.0747900489111973,0.05708536983142889,0.12639627328145395
-0.7576618653761799,0.43580412438955296,0.12944615429373396,0.20576408589204892,-0.08027157855803176,0.10373881830454082,0.11146415017291167,0.09178728358937488,0.051251881633871565,0.12649730911220092
0.4714783132536182,-0.4844435315132949,-0.30566239948415447,-1.4104770003381821,0.11909291442759012,0.04788178506196783,0.14739499534834632,-0.10130012038906977,0.08099443640055841,0.06572706508674046
-0.5041911804123858,-0.271529911773625,-0.8855137282334568,-0.6815813618842372,-0.07430787659347737,-0.14589053017414289,-0.3182422157849038,-0.24408662489149452,-0.22120615698259977,-0.14144435315989484
-0.9692553808340524,0.170650131473205,0.04977271489277268,0.039360329148207876,-0.27427292123269525,0.08407567784114714,0.08333204510241957,0.07564935218734375,0.05729663260653896,0.1268524369125617
-0.3097096094725553,-1.1308534198026654,0.41002400352965934,0.021078927862234125,0.08665693169996706,0.06920808319443061,-0.0008038697858398787,0.10433658717659948,0.016231653831214513,0.034882532000555355
-0.8031103764560718,0.4276025008125266,0.1511729575650618,0.2205053449985596,-0.04452003649550999,0.09806578977038372,0.11177896420574523,0.08856432132446292,0.04984827610779132,0.13065324927446348
-0.7415153998936734,-0.5749349111873039,-0.14353413475815927,-0.11790537888108363,-0.13258436709179788,0.08816863888420136,0.05819737227365837,0.03139102851830345,0.03549199568165007,0.10733539901790551
-1.087258759494382,0.04941889226128746,0.02107674399423324,-0.04578640481424372,-0.3719373309443744,0.05201469423242675,0.04041289312700763,0.032988048544344506,0.046556605528524884,0.12012642737415505
-1.1365715623809929,-0.04105674641903062,-0.022206498044997226,-0.06191615272370145,-0.3983862132823065,0.038066124452598785,0.03368200256381676,0.021333692416670044,0.041510281824727366,0.11746807237904183
-1.100542239174721,0.062387345696647674,0.026673435026723407,-0.035807628850889686,-0.33678984645786836,0.055715673489777275,0.04475658474393637,0.03762536663017187,0.04793226956558421,0.12143689377346857
-0.8223767258585364,0.42053053651580047,0.15785471385088834,0.21899003681073795,-0.05141183645390402,0.09391282989172098,0.1081973397089768,0.0793069408923129,0.04056910479157395,0.12668536020097118
-0.0798287885233977,-1.6247466976578249,-0.8284747455164779,0.2992133680986682,0.4948439741551172,0.16641227736129582,-0.1860822675505738,-0.004278644690534589,-0.01369404915130808,-0.0001711153310909263
-1.1413961643184332,0.012297510668370728,-0.13384386684389438,-0.23024018681514713,-0.40762641948366196,-0.024177207479369738,-0.05434438509571404,-0.0408767224115937,-0.06013402753949449,0.07251526315853825
-0.8183816153078101,0.3917341934292307,0.11514274020639388,0.16872852781158676,-0.1080406422722837,0.1014379114495472,0.10345170126077993,0.09044003004496344,0.05851277378387076,0.12674235230197511
-0.6147745425587539,2.0794483704303337,-0.40537682697457833,-1.9171483969338752,-1.0711386972701564,-0.1977730298244324,0.3837044259648924,0.045992723218684146,-0.20695735130494203,0.2154212182075207
-0.2635551498276304,-1.2917825479315381,0.0545086739839852,-0.07318268494469664,-0.08171589068778158,0.0031144587467689844,-0.020296085294161482,-0.017050817376323312,-0.04206413971004222,0.012080843930234451
-0.744945985829864,-0.6578410821126772,-0.1458581779218176,-0.15141846069845344,-0.08473680668534049,0.0801332403160801,0.039312431791719865,0.02001763966692571,0.019944694729796056,0.09577450288564829
-1.0132282480203476,0.1668647473007044,0.06035195974519201,0.02198082846614353,-0.2831116364286571,0.07699798827393753,0.0685638780300161,0.061356742306569255,0.05524806263158403,0.12499240064176245
-0.88435760395802,-1.29492773297406,-0.5198410469615898,0.6383273750597377,-0.43048591933529384,-0.16466056124492406,-0.12240223942639386,0.025725845771586636,0.1937488118848828,0.07690251409792516
-0.7241127272708483,-0.699909353486926,-0.20486058354741396,-0.1888478112355311,-0.07252608308620734,0.09882248847651423,0.04328597994877146,0.018106041296453507,0.01171625689704424,0.10246864257423624
-1.00686707060799,-1.1429440183014996,-0.3132906362766134,0.5379231744996806,-0.36117427831334403,-0.1024372121195426,0.14098861256300818,0.10906944082754307,0.030210136121673316,0.008035486101346417
-0.8880168382073168,0.2095566726636056,0.054557230774340174,0.07738212178611471,-0.25930991974633466,0.08870828765914594,0.10246031344005041,0.0914011231704491,0.05794428456699562,0.1285322486489657
-0.20378362271215752,-1.184792525177069,0.09534232087529043,-0.006414581913859316,0.04588893684716373,0.05207573872875016,0.015287427336854599,0.0017064419855198209,-0.034324278084909364,0.006759273429425806
-0.9108383421633865,0.3593258650870707,0.13400699286790851,0.15418325357426002,-0.12543158615096786,0.09018653463888625,0.09356059360243764,0.07342022876461757,0.04721130452626276,0.12643018657344024
-0.4674442829993559,-0.8222916463637646,-0.02910815206174545,-0.030255205770566687,-0.007746166882915165,0.11490161010423056,0.06006928206469153,0.03403779900026311,0.023363433977285217,0.07199252447401161
-1.0751665527295469,0.03544529785298959,0.009176327441177034,-0.03616496445269642,-0.35525431615075553,0.054828871057472695,0.04837219241592679,0.04025306576318909,0.05175476278462721,0.12303457041749566
0.5650610148780468,18.00955818556964,2.7183028887576572,3.2854398497476534,-0.6526477888771491,-1.9109462595753026,0.03166289254186258,0.4346415918289636,-0.20279266404671845,1.0866488134765442
-1.1722988290034253,-0.18006681056289953,-0.08949699189644227,-0.04434896809613738,-0.4379820191245851,0.018465582429035787,0.04079587990632198,0.015265166951225805,0.03240915972594342,0.11528957476066685
-1.1828262560767957,-0.027200242135927127,-0.01125005108313604,-0.07335457783557434,-0.40166920796433025,0.03420091568366042,0.024534229517313055,0.013581573242251723,0.03616307153148258,0.11419278908107001
-0.6531190711306711,0.36168915866031653,0.2835059018257397,0.38619816332711493,0.15021767524436727,0.10076091295597259,0.14469157487590198,0.09462445729521053,0.043451595150583916,0.14512337381291662
-0.9256536567721113,-0.39039354623539985,-0.22073422595850484,-0.14835585120879938,-0.2117137141370547,0.06308710331183538,0.04865675397463338,0.012423641161786122,0.007011861765621471,0.1201116893085803
-0.5548540117528836,-0.8439495087877862,-0.07427028212155232,-0.11575172428816491,-0.07856856932842683,0.07504474743663056,0.030835539042929107,0.019118047812936266,0.00980112972388126,0.06712019816457483
-0.4983807397435645,0.31049065686634947,-0.8499492137945193,-0.6711522242389909,-0.27548736791120043,-0.5631332094349757,-0.3571423831693936,-0.2216820292141523,-0.3296490841016078,-0.2260255428194574
-0.021224764601775654,-1.301813404052231,0.22956433292112532,0.05246990916410994,0.09501639833775118,0.060920193049909886,0.033099330525072676,-0.0037749693620945,-0.0643007130746406,-0.015460332761146087
-0.9601595387366562,0.22954343212798267,0.06996695569365365,0.06636615465408399,-0.2293783405737907,0.08977564044415103,0.0863086377169562,0.07986127915202904,0.06299591656435141,0.1294145403854764
-0.9953939750524418,0.19114609432096774,-0.3984847531894339,-0.3874718275750793,-0.3616754302343289,-0.14433475412095437,-0.17339771121763076,-0.11423654505643152,-0.15938642118060226,0.03126224592801268
-0.6801309983716308,0.6388638466845457,-0.641559931733327,-0.2999331210802593,-0.38044502128990043,-0.5321134268056573,-0.3584487769616858,-0.19872082774171923,-0.33794271205403836,-0.1805416335079534
-0.5919284140618131,-0.3081443197837992,-0.8471145682771347,-0.599910826371325,-0.060549060419662154,-0.0011257376034549947,-0.1825169093979572,-0.1290756418690405,-0.1400605680543053,-0.03168241564230491
-0.3809744963259496,-2.1260284649796537,-0.6462459705094695,-0.7789149156282096,2.973562997285995,-0.08582185283263909,-0.0022872433722106716,-0.046769827557481936,-0.06835444406593129,0.12835385130057198
-0.72053236729743,0.4644356302369296,0.15454993348122364,0.25006957301546623,-0.030029230176190417,0.10245154194695937,0.12029761431024594,0.09480145791431319,0.05109033531957417,0.13316300433091355
-0.8441591088863172,0.10253946945137159,1.3771182062302312,-1.4428158956697674,-1.062129190132104,4.066058136729251,0.5949621560423053,-1.9893728276456104,1.7114357402750313,-3.212024094478282
-0.7522269856071878,-0.600418978014784,-0.12775030628022876,-0.1258502918225067,-0.15928966815583112,0.07846364203874634,0.04658473795814998,0.025936726116315992,0.030179533192071527,0.10018345614559461
-0.6431248785606427,-0.8337731452965365,-0.12272533033380117,-0.1574244701425169,-0.033901562391694604,0.08570480857516008,0.036131544810910486,0.021189141420168922,0.01634579813980647,0.0835625021194493
-0.8608976663273915,0.31803374780685506,0.08305679269448174,0.11560945194781379,-0.18127936670079678,0.10183970959931891,0.09971704688899076,0.09390854735971013,0.06663190579785297,0.13058288993041836
-0.5784363226045806,0.2773857677145612,-0.8754006998913071,-0.7387104722419516,-0.26820346899391373,-0.492502153594408,-0.31393979135818145,-0.2279543878574098,-0.27790614315387485,-0.20060097161174473
-1.1496212904422072,-0.06912069457858543,-0.052787313159592626,-0.10877014244345964,-0.43838790663680566,0.015273517187220994,0.006016161588071444,-0.008663329240460127,0.0014533114707900936,0.09876844612697604
-0.46776225157869294,-0.7549101476486751,-0.04917238789877759,-0.03776238057795986,-0.043399457140447247,0.11896295239697385,0.06597686493079256,0.03696342101584604,0.02695419701834537,0.08007966936949203
-0.07406611964132058,-0.5481540796875756,-0.7994477909077896,1.6588542326650035,-0.15369462835090456,-0.3945345072002079,-0.5504797426474255,-0.3521260381532095,0.049291466821628195,-0.6959276682548114
-1.181221750265886,-0.08160724274005422,-0.08394713946146591,-0.13851457613593895,-0.43170035734895823,-0.001513453898730848,-0.010006829090028249,-0.022351235689274163,-0.021219422113776636,0.0895576365494271
-1.0916509626479562,0.0484043921404742,0.01968348263055634,-0.044203254780757435,-0.36096085440066394,0.05317422211673843,0.041718261646314814,0.033761125429391116,0.04443218938207175,0.11867988565776108
-1.5290083167894148,-0.7504129683953218,-0.5073435468637467,1.1713466705970321,0.014810739948502296,0.09422498302917966,-0.7354056219012955,0.1361560617526834,1.2471022618685825,0.33378345741737486
-0.4207174664550673,-0.960804909295332,-0.028912603774922923,-0.06950570377155607,-0.008375460532715373,0.09012899854285344,0.040294707320544486,0.023629837687563417,0.006516351665385669,0.052142299366196514
-0.4895194748132741,-0.994141409034957,-0.08093905303101351,-0.13487709153197588,0.004339076470953515,0.09818287926073638,0.04464687591859655,0.02840244850237386,0.016586294431880932,0.07219757140782951
-1.1757487572364007,-0.16068327626813986,-0.0771020185339013,-0.05552930912340741,-0.4555252834216663,0.017271574015703107,0.033054187967637066,0.01081897613513084,0.031832709454179785,0.11331546561578572
-0.6757152536728717,-0.6050561631405654,-0.10433996370337362,-0.09563945064440306,-0.107857105483881,0.08959615014956714,0.05414043834011493,0.031011786492047683,0.03204133454813954,0.09626513488523619
-0.45527528689213775,-0.015043469424404092,0.1788477773301702,-1.1061806258724132,-0.48246460360721694,-0.8775018654673424,-0.1248629984729909,-0.027095718444483767,-0.6132890801385326,-0.318837993554344
-0.8306779736296576,0.33763562451483864,0.08442381816508483,0.1251147212714324,-0.17895565889110238,0.10429879584596226,0.10191052150863011,0.09621642301746583,0.06750053923281366,0.12988624523866893
-0.9255544805631715,-0.05025694819943163,3.531945152261528,0.870108557685635,-0.5205355302276065,-1.0698328589154684,-1.9122573746781149,1.3601105021505775,-1.6836087880646882,0.4526923181969781
-0.7279447420631082,-0.7346899893027582,-0.17468644049928822,-0.18060249861968872,-0.061889936361409374,0.09561093915256795,0.04209342890262821,0.0199659386041619,0.017862617904979367,0.09795165881094882
-1.1595047568622985,-0.07865346637377899,-0.03986810648002177,-0.06667551307245247,-0.40616494847656154,0.029558649695539875,0.029252430079363432,0.013833433682506344,0.03460807254023048,0.11449954385563421
-0.7950755969676746,0.39592862626553993,0.10791613012990371,0.16730871771364736,-0.11292590322671646,0.10432053738930097,0.1048194543310155,0.09342499528199039,0.058091899739966334,0.12708147793298358
-0.6933107166965446,-0.6151353182613207,-0.4654029130692107,-0.345283213631652,-0.048419727597504084,0.10950168597027587,-0.009387506623154768,-0.027723317497479378,-0.03414713177194513,0.1024875145462654
-1.211513005086735,-0.11407055524302398,-0.054274339381981396,-0.07551411875904451,-0.4389018746934035,0.01791188154758982,0.020811798831951743,0.0033671643325613424,0.025143252137779258,0.10982457654443255
-0.44577798387928874,-0.6003741005913631,-0.06331119161397088,0.003693797546444982,-0.029530662037492404,0.17147034839179948,0.10595861972579014,0.05012840432113949,0.030648780966329156,0.09643175827515313
-0.9969310073715041,0.21624345999668995,0.08449762814247162,0.04446453985008274,-0.2570754670420811,0.07841017859458449,0.06785344950002362,0.05560703344018092,0.04391386239943519,0.11914227949213312
-0.6685677189874326,0.7146882429794437,-0.56310869064953,-0.1303032334803937,-0.4835512756059662,-0.5707492094300032,-0.36811178649482656,-0.20318650075361638,-0.34820535270150915,-0.18395675830851643
-0.9779148400238517,-0.32076374321989837,-0.19061285753795942,-0.03152838336151205,-0.18975828395237468,0.04052974743874439,0.09125737596677647,0.043505723682918565,0.04305810694172171,0.13014270742736866
-1.1419553411743235,-0.2077394459091807,-0.10943466614433256,-0.026218847789036007,-0.42361247021952475,0.021137967372117025,0.05561442549497712,0.02461850614309568,0.0349116990110913,0.1174476147305339
-1.164433344391806,-0.0973646560128854,-0.07532204096582412,-0.12003616881161595,-0.4592853992896732,0.0023036430351388052,-0.0012417054070803192,-0.016055122232857127,-0.008063878796151789,0.09541306090905383
-0.4305699813699334,0.4666945631354253,0.2718230472633022,0.42949320854330403,0.20650231422073353,0.11668788111218976,0.1619448992784678,0.10081200709738064,0.0364214448198923,0.1373145509650859
1.0750125799102732,-7.259245903394281,-9.187587210111186,-2.0559244426253724,-1.738729939133878,2.1008428516164295,-0.0016663755927780286,2.2659577800282493,0.3408504243335236,4.0581691816651295
-0.5859423151883223,-0.8275705915197523,-0.08829246223070783,-0.12983376075769318,-0.08738161677137087,0.07578609645031834,0.030899519115855444,0.01823239585666964,0.00933462828940054,0.0709053931574534
-1.180465106409799,-0.09271851993805282,-0.04982405031781385,-0.09192976089129028,-0.4563208369806522,0.015073946064550705,0.012434964005435313,-0.003051413002168088,0.01580302714224272,0.1046723173474823
-1.0824431592297898,7.300282563572262,-1.8595189716967897,2.0132153017362313,-2.2391175065258597,0.8196819840610567,-0.1246385849098018,-0.27845027595814087,-0.12176017652950058,0.6811254904590601
-0.6689979757351165,-0.6959853338372207,-0.11331518790951185,-0.12257425092232578,-0.1180977574530537,0.0844389981273983,0.043543976762887196,0.026182759899495672,0.027435603008320385,0.09113489140474483
-0.7839294292218615,-0.4090646631106115,-0.15957197816113455,-0.10625849628328857,-0.13936153467947798,0.07460370925702164,0.06731116283478598,0.03017976594801334,0.03151342505392112,0.11576644361814341
-1.1544484630455862,-0.05441238155495131,-0.02697316904600259,-0.071280632297989,-0.41749906831013783,0.031501451185846706,0.02680283105952754,0.014179203938790698,0.03650034697225668,0.11433765331051858
-0.8019124352388867,0.42882203650623846,0.16199266403060256,0.22946749813708334,-0.04202278692538391,0.09531409501504301,0.11098816556679446,0.07704765272996134,0.03169197946318118,0.12102074451605094
-0.3072830527209577,0.620911577843546,-1.0142699133598083,-2.2751264774521243,-0.33316867494945174,0.1709830471860301,0.37363695146929315,-0.725634565939532,-0.3134601827990661,-0.9100489837739232
-1.1111041930983898,0.014809224077655668,-0.020435493140647222,-0.1176020500590024,-0.3834912052070972,0.02000527067921986,-0.002520386446400037,-0.013596096664804653,-0.005657480193330409,0.09514954819184483
-0.5010263596849337,-0.9546095955751644,-0.028560787013317126,-0.09182104384782909,-0.01593432107652268,0.0643120151664173,0.02129363761433454,0.014408630212461944,0.003584987258146726,0.05131208419430811
-0.9854136659077609,0.20667528058593138,0.0681978241674344,0.04899583804578095,-0.25802180059989105,0.08571301282120243,0.07986759722259423,0.07298855818977044,0.060959647011751036,0.1285048116638534
-1.756719620078527,5.801552480327448,-0.9925600040089247,-0.597891056172912,-1.6160463579375668,-8.44761105097687,0.24980018702607026,0.7478833929530808,-0.3054809351000293,-0.14410090506283665
-1.0603304168395074,0.12586423251864962,0.05538092021532851,-0.009988913065781908,-0.31376722432385545,0.06525240109812588,0.05255148083236974,0.04499043286022309,0.04861675549965845,0.12062378314119782
-0.6561454645555056,0.3493194344644249,0.29451492184735495,0.3898149482477227,0.14793022967026523,0.09877153656884081,0.14360436398504003,0.09239031916176604,0.04115092196457309,0.14536500107304637
-1.099357014304968,0.10016177365309857,0.05603921172466825,-0.040180170111674816,-0.3423927501973659,0.05024761455181786,0.032485440772733305,0.02270173617190633,0.03111800014958769,0.1112144552546478
-1.1334908078835362,0.0040903281070374204,-0.001427492664548806,-0.06122927307817351,-0.3606489656114949,0.04328897466220032,0.03242214732026101,0.021860914172766564,0.03627711868388483,0.11462012921134239
-0.9128537774046223,0.2668600135886471,-0.37541717904202626,-0.35308560972650255,-0.3238935722529296,-0.12928240731667678,-0.1553071118856829,-0.10851365839424575,-0.16491119885727853,0.02883328871694943
-1.1521013645443943,-0.1635492089400206,-0.08082333617106278,-0.042113683264347876,-0.43820662433228524,0.02412821848969829,0.04427906769046443,0.020084246375147805,0.04031606656131987,0.11860708905637972
-1.1207402664643031,-0.011207273370220915,-0.01010770590884055,-0.06583358353772202,-0.3761729766473721,0.03878957965766649,0.029656214495566418,0.01854122032656956,0.03454213019369701,0.11288597175855021
-1.0992617621950904,0.02627646795064976,0.0062976711364984145,-0.0396680730210404,-0.3457612670990732,0.05273162039450133,0.04598065742698605,0.03746955265174811,0.05006437246329924,0.12267597229576582
-0.6819796636324271,-0.36451739562761715,-0.6235729833456957,-0.4338849486630364,-0.08479747055875649,0.039098112992657065,-0.10145364875525412,-0.05410112892372169,-0.07140459501924812,0.06500289889131251
-1.0697894183604606,0.08046168035894426,0.031801290070155495,-0.025881622142460092,-0.3333201500996012,0.060743184553480295,0.05044660277126074,0.04340048287117292,0.049232064560900665,0.12148995635350292
-1.1118432950875494,-0.11644487577094435,-0.0603998209109088,-0.04052246671112444,-0.4171665306648448,0.03508489426933854,0.048344280263307775,0.02727924782163591,0.04729927978163688,0.12088220133385806
-0.7945784876833138,0.3978597956049507,0.10903371257196658,0.16946247283426705,-0.1079370739189094,0.10463732793511496,0.10547391651373748,0.09388406211319152,0.05824241528542825,0.12820875875600762
-0.6185391325952307,-0.8341225293619918,-0.2190222059091379,-0.20757268119840389,0.011014118266498119,0.1259203116662496,0.052400302414873395,0.01949052136170005,0.002629030221366391,0.09601214311746196
-0.8849561287085422,0.36716976712694155,0.13218693659741587,0.15699301319086453,-0.13141951909594005,0.09034617783785982,0.09340412976811076,0.07044542841153155,0.04055441613001737,0.12218917086617552
-0.711664321205342,0.33479028376723996,0.2947811893304256,0.37558515317097996,0.13037284444481415,0.09001262449491464,0.13306440611749482,0.07450212698095077,0.02184289755601207,0.13467985907733285
-0.8993374781385254,0.285043932261263,-0.6120507440394068,-0.5377214979745515,-0.38126389271713135,-0.3172890032886328,-0.28868593057297015,-0.18628712327884217,-0.23962186041225678,-0.06263058026504759
-0.7446632988980764,0.45245675617407516,0.17015285214622175,0.26255722193050424,0.002935691630434268,0.09843235082162756,0.11989011761207866,0.08777186357362222,0.0400987197376228,0.1303795357552864
-0.5900047267790551,-0.7740802490351394,-0.09336285153306896,-0.09800726173907784,-0.07186776600349146,0.09898476453492577,0.05019415406284065,0.02995810216502044,0.023217328861880916,0.08166497847604003
-1.15564591521533,-0.03806725120782307,-0.019228622810829366,-0.07562873992282085,-0.4138178022041025,0.03191670084726405,0.023764010515904772,0.01205635215738422,0.0332843481190618,0.11199161309599899
-1.0616030796225713,0.16432782707779797,0.10351378907183206,-0.0125861220252847,-0.3287044044553272,0.048558667558958546,0.03025918202863875,0.01323896324037795,0.014896177783247118,0.10366823697092835
-1.0500580517776361,0.1878212215979562,0.08434981025050721,0.025309059605083346,-0.26832502740103964,0.07126457526347753,0.05920904689433855,0.049054810217854135,0.046073349805759625,0.12052986126187885
0.06582686214131521,-1.2623628610536872,-1.6112718346778176,-1.1725647634271843,0.6187037358582322,0.2663452998634515,0.23369381878127093,0.12439235745859498,-0.48147997820493943,0.03128097472013781
-1.1792587875671374,-0.051255738767747284,-0.023672458251178915,-0.08307075307624542,-0.4378928065835862,0.02654526924895365,0.018537908582533617,0.0064671113261147006,0.029708565414678232,0.11011473137887365
-0.23096500201647358,-1.178542552290959,0.07922858158692282,-0.019237612387169478,0.022791523478137062,0.048771552125860464,0.012043360508318349,0.0013218288450104591,-0.03152510674620626,0.009210965609897767
-0.8822207675535421,0.3800643941418103,0.13992761957740327,0.17273786409636963,-0.10467663012905702,0.09104666452212254,0.09743022635240153,0.07559562133262053,0.046934829848126136,0.1267209320822317
-0.9821977156728816,0.24975417337304506,0.10092356893693491,0.06460908650326436,-0.24852859827407617,0.07936820329002336,0.0703087709370391,0.054958537530155754,0.04227177728738242,0.11996502107949085
-0.9039037716303523,0.30677164214338615,0.09634399781743462,0.10592426682011861,-0.20131933684528763,0.09401969259811284,0.08899551277614445,0.0749819858189745,0.05140912352784971,0.12280950669490977
0.7753232546688895,-0.7877092058405301,0.7904189642618957,-1.0000431786104258,-0.7434950047584182,-1.061192832371982,-0.21318342203688584,-0.9265308746114093,-0.5312901321294315,-0.5637207899553016
-0.8010107800700769,0.4159687192918651,0.2086027045553344,0.292212870003203,0.05408105206688451,0.09275791638730163,0.1230013160200968,0.08173028752282088,0.032273628301784235,0.1323671534595952
-0.9445231615336414,0.0884997666424502,0.014719990018215367,0.033849170215780607,-0.3140166724161827,0.07537360703678998,0.09308824416373303,0.0783378493198069,0.059419118901420605,0.1274605873609978
-0.6061305084438424,-0.7567820023695775,-0.09173080986854762,-0.09880213594176136,-0.04726179960731545,0.09209656903115243,0.04575652263005573,0.0271996563083538,0.021888882576088734,0.08149199128111144
-0.9955639742268889,0.09267376414376234,0.02360001650104599,0.0036516223845615404,-0.3300118015918097,0.07173447040423826,0.07192056536099416,0.06343125447114048,0.057399537483892885,0.1263065738966362
-1.107199132803455,0.0958931331673704,0.05978973032981626,-0.06453607294931145,-0.3655391610682099,0.03466174604662428,0.012420654602377504,-0.0007105630972677973,0.004990183998082862,0.10003096986107402
-0.5798748944883754,0.6146438971267139,-0.6279781374795567,-0.17185958407094695,-0.5099255735566093,-0.6351183477662202,-0.40254866784494103,-0.19921219052337957,-0.3257841317601564,-0.21695729348763157
-1.063305084535655,-0.09193439312378882,-0.055644056397484445,-0.023330084855564436,-0.3794524645369256,0.04462686415946068,0.061069467415938855,0.03836831047810792,0.050834620930028114,0.1234494532149879
-0.7988991789035402,0.42774525780788764,0.14766828739183416,0.2123860053662842,-0.07816144587500126,0.09741173766500902,0.10952538390687717,0.08380761762260011,0.04495082202270576,0.12666456304572773
-1.1124614089562186,0.054723391217026546,0.02951881629832289,-0.06928534837631088,-0.3791089626137963,0.039557065131935715,0.020671499277012444,0.01050395278749698,0.023478566281594233,0.10697326300749906
-0.5855572642630357,0.4814043914776794,0.20928854684467416,0.3501465341736483,0.10046234439225395,0.10905909958205422,0.14474279930613057,0.10761632934941945,0.05284245769275768,0.13713511066616782
-0.7255638113711329,0.44436497182473,0.20185476199193286,0.30192368299805306,0.04562904839622314,0.0918414132129274,0.12204655445855482,0.07848022211099072,0.026643472451034596,0.12459968103064986
-0.9095428962768185,0.3045718965446474,0.09341767190943553,0.10636543279058196,-0.19253675196238687,0.09598396035619773,0.09156505263852979,0.08060378029948244,0.05742055892739417,0.12625386138916816
0.03801319817977693,0.32412283084859195,-0.8344749880830931,-0.372793891511442,0.4302498268905741,0.060288100265937276,0.09594415946074451,-0.1615056632773642,-0.031317069291173893,-0.19189400255529707
-0.46549593551738244,-0.9194205553151242,-0.03589333788123519,-0.07790144580615316,-0.037159519581211574,0.08156484628973842,0.03464670109889082,0.021230534836386324,0.006765861895703157,0.05529986120145847
-0.5574053098253569,-0.27403880915131834,0.05471435247529728,-0.4996012073642052,-0.42175321180816816,0.8031650425086065,0.1904221322959634,0.14473949730735894,0.10839208693613804,0.09723415735068969
-1.0261055763861486,0.07300774984675057,0.019503258863759487,-0.01092986616254157,-0.3394885029293935,0.06664662435919935,0.0638318594207549,0.05610374414552898,0.05731445741007235,0.12476481317447871
-0.5610348456802811,-0.10572557111644038,0.6632129621304489,0.47836160773358427,0.05890549489106244,0.10737587257724822,0.1543853911066784,0.0957957005387755,0.05586178927852133,0.14456671065350052
-1.1018072964503396,-0.03490655362466653,-0.022546020257025304,-0.0482117130415233,-0.387782119426245,0.04428108087476607,0.043478018245461866,0.030890086447858088,0.04957775298626426,0.12153656962041302
-0.16368198584077545,-1.127709359299329,0.12129131091535841,0.019255929637217988,0.03872406675001852,0.07983512330504185,0.03726956647280583,0.010124490874222484,-0.027486685180473317,0.013548778844306818
-0.6868157719451228,0.4669040262877051,0.18430257390937496,0.2977157224506894,0.04706146620017313,0.10126333954533645,0.1288016330594556,0.09486065670943711,0.04162090144372746,0.13219822721367083
-0.4699922162723612,-0.8872963610475718,-0.025416923330952117,-0.06300183525005622,-0.039923251877293196,0.08018687462379255,0.034163349698524186,0.021327129016902566,0.009727208983319401,0.056267322993074756
-0.45757332802784223,0.2645675040061392,0.4216599098862004,0.46760478383912785,0.24442599533027765,0.12707903564905795,0.17586209872879896,0.09640848554272613,0.045990667334787044,0.15001250241901495
-0.38290724488914535,-1.1082029729853369,-0.030596205049753578,-0.12161202192903545,0.02516810175263824,0.07494473588317037,0.02927253093498243,0.017880143830006544,-0.002331697962641272,0.04842892073583442
-1.1193817339963137,-0.12040877770943105,-0.0634334915238946,-0.03588274986927959,-0.4020599050107128,0.03581580785215126,0.05135542170199994,0.029413663531943163,0.0485631486249274,0.12343818549734792
-0.5280675674242445,1.9818497065024583,-1.4409731908021508,0.09437729719873303,-0.5066379764843449,-1.7245004637872532,-0.17780997994016617,-0.3880532753373054,-0.35390427773192107,0.26823771079547015
-0.8054929633937872,0.4138520286564586,0.12978202724691051,0.19322253975767462,-0.07700356614893449,0.10143963979866452,0.10863737133748169,0.0935195690660699,0.059832115634211876,0.13289136181257707
-0.5279255319072396,-4.519958184120665,-6.072562698788884,-7.479855852189329,-1.62071047484737,0.8017027477137539,-0.2641865517482751,-0.3952895899458314,-0.17856964793057056,-0.1860790531960576
-0.35045135301112434,0.5146682366513727,0.29403779961814586,0.4631172250468234,0.27136848449877904,0.12939888978964414,0.1796468767870995,0.09505204491889688,0.029155942287696527,0.13283620207017305
-3.00746709556755,-2.0410935846406484,-1.5635407113516395,-1.0011054231005625,1.3362025235163177,0.4391640891205261,-0.13276876943389335,0.761306856274999,0.7950565703085232,1.1975477991961285
-0.4265001573401695,-1.0442504519187161,-0.12106592560538636,-0.5610807712061802,-0.11156083271662989,-0.04892420822847413,-0.06588116669190457,-0.06893091441511774,-0.02317489583201275,0.10467245834596178
-1.0911247510639202,0.13994542002071417,0.0735547153406977,-0.01075028993140632,-0.30116213118428,0.059853996877815424,0.044055517611699506,0.033637365481569155,0.03676564859550368,0.1157708156071547
-0.8323893628411081,0.3832980595804017,0.1146428674668902,0.16189690922643246,-0.1243425287526715,0.10091347717579624,0.10231041405425366,0.08802753689914329,0.05634516823207341,0.1276434934673549
-0.6735274034455306,-0.5138652510189422,-0.12468423217045235,-0.07645843114613687,-0.09483796189730384,0.10560337325015728,0.07822194175676035,0.04082298972674452,0.039286047107317305,0.10997249296817076
-1.2272085263553691,-0.2879752294043174,-0.15278104531765518,-0.028130380761723004,-0.4899043470812202,-0.003045363567642491,0.04754409140423385,0.015021725121907139,0.013889549981914022,0.106696146657767
-0.5928922997882994,-0.87949429814482,-0.14887519153417697,-0.1907168906251789,-0.03067335945643268,0.08987250332258231,0.035156268089120805,0.016047909334867477,0.005623037158289936,0.08267396084060463
-1.1716987053963956,-0.1896756447753184,-0.09472368266902596,-0.04478502964230753,-0.44476099263043567,0.015336271111661972,0.03954558921868837,0.013259155273461998,0.028897850363618166,0.11248976493891776
0.09574977851303106,-0.7699622517763313,0.3951628278120729,0.19669668469096657,0.09338773357886386,0.33298710820066574,0.1609330958551645,-0.0007328830865323189,-0.021080562443884565,0.04784120742402182
-0.029497607409843078,-1.2083545484382172,0.22948881674644078,0.05775384313169783,0.07542010207409104,0.09151682194991577,0.05238422407070466,0.002703863491803478,-0.05128337968086903,-0.003438508206411426
-0.988115381482024,0.24003896157645888,0.08682634293274398,0.06519491854629426,-0.22150938924536848,0.08387754180222855,0.07619665720056563,0.06573186375722216,0.05188699975229342,0.12402128944180724
-0.6843927267716673,0.596050934843176,-0.6570938533060404,-0.31502409053735875,-0.4599478711776653,-0.5609750337267796,-0.3763370273561116,-0.20838713064561398,-0.37054656991221196,-0.1991472754697762
-1.0838098203551823,-0.03668471842771949,-0.02526646294803664,-0.04040857192429224,-0.39263041347766786,0.047773374366147835,0.04977354160357708,0.03616055930726912,0.053409433215647846,0.12490479813583734
-0.8803588620534031,0.368749991767931,-0.6306963976448245,-0.510007453453001,-0.40001700343563207,-0.34428901339181495,-0.29292688743808565,-0.19488917805231326,-0.26061943194056864,-0.0807645447937763
0.969035168207877,-0.5572636594875965,-0.8322145385338947,-0.33313228156732044,0.5859317812943396,0.1948756193239812,-0.4458427097962375,-0.3516826789237717,-0.3968242567347067,-1.2500382022333223
-0.5012277052204903,-0.1741607212677883,-0.8507222913879793,-0.5861723297639345,-0.11335035654522059,-0.08258986556547203,-0.21648922732920922,-0.1284264426317924,-0.12602874582293,-0.04464997898071964
-1.1579828726163564,-0.05454151812792524,-0.03187131996219705,-0.08556199630728684,-0.4102225422772281,0.02434133267144063,0.016845371185436473,0.003316232329120915,0.022760035201657137,0.10742471432650029
7.254589045338641,-2.9945191033251386,0.6502856273735772,-1.3408120769431642,-3.48623294380071,2.0685333784813302,1.5410047237423692,-0.3186008484431511,0.06984490352219791,-0.579852114605569
-0.5335707046774739,-0.9746306070976305,-0.14080373497066717,-0.1995317098153067,0.005512521870093198,0.09758449914415485,0.040112353036809704,0.02015922466388421,0.007875692826836088,0.08145564043357124
-1.0085424555357716,0.1252475319824294,0.03960419289938817,0.008890478322982986,-0.29882179090122585,0.07442593293341762,0.06951485394072675,0.06188514522875894,0.052088253493022714,0.12411502753948328
-0.8717583791447989,0.29671888274840097,0.07724389962228051,0.10504190357914016,-0.19131517131634512,0.0993773001567639,0.09808843832330967,0.09164736980098406,0.06328239458274242,0.1285548673986115
-0.21885068258922746,-1.086997920137232,0.07950607630851307,0.001144518209904657,0.012272477270644538,0.08706513742939977,0.04025364874335116,0.015335519521997253,-0.016723384675870062,0.02222160549177535
-1.1166113006618288,-0.022811285678743066,-0.015576412789774806,-0.05682858061931348,-0.3833267233211541,0.04233439388501108,0.03704930803312997,0.02556463279753076,0.041885212688759624,0.11695893092310017
-0.4480885419029801,0.08410615236897825,0.580575423280268,0.4881796936816683,0.25596934615438777,0.10978934696663284,0.16085203412071536,0.07617198984765025,0.03480718611441062,0.13838691790331148
-0.37563705683219634,-1.2936438777995256,-2.431140672956052,-1.3752452366415147,0.3464944101943674,-0.560803015558361,0.16758434304717962,0.0052443178290438675,-2.1549205534982576,-1.0177025454134934
-1.025602410561242,0.19247192830777843,0.08005829914870013,0.028899992987636708,-0.2597306880467845,0.07380549759718395,0.06174082746363005,0.04987989248772532,0.03986083689559415,0.1178220248146409
-0.5523753079759445,0.4616121327409064,0.24209362120784034,0.38361398658620827,0.1279543176826132,0.10721821817549822,0.1489781584864852,0.10109330756880129,0.04250853063915165,0.1389218025103761
0.8407897403689243,-2.124943492593936,4.525034576485446,-0.21235656466414526,-0.6767959197679494,-3.323505440759795,-2.199886574838274,0.6691779186970062,0.39152151704961685,2.110353486601124
-1.116929287572125,-0.031141202416350003,-0.01893961195706223,-0.05266721420146065,-0.391011735438692,0.04304235454402433,0.0402181217313661,0.02853690450511329,0.048917051079377584,0.12114113810383191
-0.8679655933161597,0.37557310486782897,-0.5321046460928756,-0.4355700369211633,-0.3648897895288138,-0.2444203239396368,-0.23209535373472004,-0.16081345575688288,-0.22970214511483758,-0.027471601585731056
-1.0633703949410567,0.11032769376350532,-0.23349630408148392,-0.29614922864384086,-0.4006625143008697,-0.0589090296397388,-0.09880924840181847,-0.06548420443913697,-0.10474892937452307,0.056277685650645545
0.7480801242243167,2.101694532484241,0.48378286127282794,0.6464201364495694,-1.1126609071702622,-0.6906837490581795,0.18258474319314444,0.3993048996949834,-0.07715795918272968,-0.7606670552173029
-0.8427108801150532,0.39045459726139403,0.12810056632987993,0.1728097451425051,-0.11355890003648349,0.09698598007599214,0.10140213402661111,0.08231596765611605,0.04971870851429113,0.126142155719373
-1.1270594520517427,-0.04716794165646038,-0.025978778755240656,-0.06005549066743254,-0.397225865786406,0.03740847363354033,0.034735233169283126,0.02192560163974102,0.042599286003091125,0.11722142177551297
-1.1790552635283955,-0.14288117663296057,-0.0688363525188779,-0.06146500118417571,-0.44362772684166935,0.018487623500096445,0.029677377793303875,0.009040069979128576,0.03006298827160279,0.112144418441235
0.2849994974525669,-1.4740830155945648,-0.6865583940459585,1.325760452365156,2.066623475334856,-1.3380010064783379,-0.09203557768716875,-0.5879023268543551,0.2923957413408277,-0.7808515547368099
-1.1064595998190931,0.08988909684056041,0.048466764293843854,-0.03889387648112338,-0.34376645282569224,0.052213422987689675,0.036395485472127724,0.028387404187216657,0.039595520510681215,0.11666443249134796
-1.197284460164621,-0.11153198414125967,-0.05219563799879487,-0.07955234227524403,-0.46852022715357905,0.017114764022896,0.01910411833576055,0.002659348765594862,0.025222317069999223,0.10881617852935625
-0.8006322899254739,0.4218944557401868,0.13872174908448634,0.20150441221712326,-0.08867734929284549,0.09930012853291224,0.10869187551920112,0.08641444479855469,0.04855164164320049,0.1280046905552529
-0.8250644189423345,0.41966488272367386,0.16535941313983288,0.22007984969726416,-0.06814191552969187,0.08840435953812247,0.10419073813416674,0.06865428313975129,0.03101624163853883,0.12142417316865706
-1.08957367202651,0.07315723303725442,0.03249467206689793,-0.03423746592520928,-0.3500900065133881,0.05763536311941232,0.04567910815319956,0.038914672819029085,0.048140659490992006,0.12126666515402455
-0.08978482137976372,0.557728952695591,-2.8466259988709535,-0.6171682176526363,1.0351009703750254,1.5737118238834684,0.1979091939504113,-0.11964483176286914,-0.13054704411814877,-0.2883660140709796
0.06007502000416479,-1.3391075096183271,0.31536301241184767,0.07410218261474232,0.049023822273673835,0.06028046058705506,0.040899744867919315,-0.010977176002973344,-0.08387362788908641,-0.0261912733565254
-0.6980972648901297,0.46726096573067466,0.13373548945606742,0.2317157864066858,-0.05330507443588381,0.10804770107705707,0.11939280250004669,0.10105105079329595,0.059518945045504826,0.13130029423079873
-0.7803841826726422,0.4216582572912003,0.12448438678003633,0.19357043735682555,-0.08620560455153188,0.10397891505511424,0.10982898328848857,0.09482145371032928,0.057332010788274,0.12923921032648564
-0.29278771438826595,3.42243594586518,-2.8881031093452956,2.2662278817535135,-3.8195988635529394,0.9124521106892606,0.9095476394127201,-0.9649463403904184,0.0038415857150057133,-1.0649314482805194
-1.0260622674748339,0.1717846739105426,0.06869850807996991,0.018751611338455956,-0.2816223833874045,0.07461484498522017,0.0632208896423231,0.05383025431077561,0.048107429669072346,0.12058913090235182
-0.4901691773194237,7.016347900188289,-0.9637711447115976,-0.41802933104241724,0.43229277644894804,0.2739823064281346,-1.0849824520012954,-0.30042138477469527,0.835478069766543,-1.0420258041793764
-0.3994511097197333,1.31195017199165,-2.184399322619726,-0.10245747566882538,0.8068041901383448,0.28187348818098434,-0.6150193595893552,-0.11745045437698678,-0.582251875863252,0.01715281199139375
-1.0939201553495044,0.05638835505775694,0.02386735436453133,-0.039371202977016864,-0.3538129343405593,0.05470378885205055,0.0437669824383545,0.03667073042476798,0.048456554697246565,0.12121272778925019
-1.0005385651994543,0.09943300816270462,0.026911271340062135,0.005082196208025396,-0.3199464750707483,0.07258509332416882,0.0717401171912485,0.06346159384599316,0.05639050425734639,0.1260739360871947
-0.6675244080237259,0.3275938818676642,0.30198476645977224,0.39042203784442076,0.16013416992239107,0.09749400247030972,0.14252611362297848,0.091547727371033,0.03936827535313712,0.14346974640134
-1.0414684583182148,0.08117936814892579,-0.1376681854878996,-0.23944086998215527,-0.331838451091718,-0.021112329663411877,-0.05908681322430182,-0.04060731890526315,-0.062367055496875476,0.0655529223901122
-0.70556322628847,-0.7179832984659877,-0.13290612491164128,-0.1500650395914128,-0.08037507904771396,0.08065237910854746,0.03675107226095933,0.02008737491924827,0.01833614806396547,0.08964808916469605
-0.5640362469791825,0.5164162443466007,0.17530383303477207,0.3197983673249363,0.05735210160940273,0.11150260363881995,0.13903825488483437,0.10362074735777739,0.04147654816180128,0.1291487882127134
-1.1094716836525693,-0.026687708029808747,-0.0175093650666153,-0.05102111752300336,-0.3915558389156529,0.044698403001546184,0.04171362109968537,0.03008765840818536,0.04872686212051789,0.12187046401994264
-1.1018440815848842,0.04944771769884803,-0.1821427829663625,-0.2675837125872792,-0.4243421686837619,-0.04283854417083197,-0.07741913615639112,-0.04792685903368538,-0.08023315111830694,0.06525121792388901
-0.5975217182887902,-0.7309082055678194,-0.07042147556377519,-0.08742604651972373,-0.1204151434649064,0.08419242728371015,0.0417297956568012,0.02666018518587826,0.024796212435092745,0.0799293303934235
-0.7565729385320221,0.44950961821468566,0.16798602181856145,0.25420001566750383,-0.015955425438381264,0.09668068385124487,0.1169936144872463,0.08468540449641268,0.03741404723361489,0.12849124609594467
-1.01838792050994,0.22505842679186863,0.0931709867388947,0.051439295832716815,-0.2447321926092492,0.07786268242469128,0.06813061702442498,0.056247662143344666,0.048285254554308384,0.12279748082749177
-0.09762654372707869,0.7921437898084062,1.1108480752193257,0.605307833490454,-0.18133071126040826,-0.1903642312746395,-1.0998089387044871,-0.6068220425349992,0.09885467281724708,0.13964592043693816
-0.6096116319719072,0.4914985037894577,0.18818651639825504,0.3221931203574161,0.0658008876325721,0.10575427094400155,0.13617098080516932,0.09950678826680165,0.04319052112634483,0.13333981415979138
-0.9721935776758999,0.22668885688663482,0.07746991053728651,0.05624412268951234,-0.2509715082363836,0.08486854036519124,0.07727678985717978,0.06788527015382458,0.055456745341828276,0.12463392622999114
2.8970415012444044,-0.026423431466283735,0.19229101509806337,-1.5168872658677626,-1.7630069942445712,-3.561838053889903,1.8418709041428138,-1.5408410828578905,-2.3851665050638218,0.5016265823926594
-0.7750427196885953,0.42913684890235426,0.2055779420530666,0.29269167909494687,0.03522744843582103,0.09122399812806438,0.12144535802085515,0.07901069096008258,0.03068142944370503,0.13140208627789254
-0.9070416927736012,0.2808413576298445,0.07951765304774246,0.09451968778897553,-0.1947319270711099,0.09558358834454897,0.09176817425386324,0.08320144674722203,0.05755801182285894,0.12585280215090242
-0.19162775152078945,-0.9417264196195103,0.059507509916706884,0.03094992391154753,0.03027339020683006,0.15242947494629314,0.0838700581511375,0.03196215708311527,0.005373607168156513,0.048544032841381986
-0.6085977104838654,-0.8034182944835568,-0.07156533107548528,-0.1077601948966157,-0.06920509469001321,0.07268102662215027,0.029921169631508905,0.019512196626207817,0.014569255119093233,0.07115466530318924
-0.5184346319178054,-0.8859249934004796,-0.057417186803295696,-0.08953607619509352,-0.021080425772654277,0.08852811171435562,0.039458274873087534,0.024261713576960494,0.012593259269175467,0.06452381948333799
-0.7752778788297386,-0.5445453607363925,-0.12268192328363077,-0.12701516351964492,-0.1484690074140086,0.07067971961891727,0.044368983523915224,0.02365693516369144,0.031124796281274333,0.10085295325381469
-0.9780940476286958,0.23196784147215024,0.08481797825970419,0.056273152343814664,-0.2430378093093947,0.08214361435335817,0.07275967933608472,0.06013899905981431,0.04413421752184662,0.1193317965277935
-1.2299088949277888,-0.22048454540362541,-0.11078300823282705,-0.05446405528486972,-0.4772967317766279,-0.0020891125089759453,0.026646142836324604,0.00027659117629502217,0.010878442979981369,0.10526438684448708
-1.048496362337886,0.1037894249282446,0.04063608703903154,-0.015068813363850858,-0.32917826881208184,0.06511070128782571,0.055010942082839,0.04843003014925854,0.05212704787405806,0.1222029352878401
-0.4687779531292966,-0.9951420769580477,-0.08229988491162649,-0.1326892321779967,0.043786424295060494,0.10047491445465795,0.04554493066033416,0.026868288427151166,0.010755847972863086,0.06834636142391126
-0.3266446275856864,-1.095480369563761,0.02210535554944044,-0.05317408725539716,0.04038916152097239,0.07783922326034157,0.03134218670330048,0.01665137669143835,-0.008076381562606469,0.03285280478942954
-0.8147512766187402,-0.45838743447310637,-0.17602264120829,-0.09703041404960375,-0.11395656560180475,0.08976693023570421,0.082306323565136,0.04049421647496816,0.04110678274733314,0.12357187514991609
-0.7391093378892017,0.4273867353556922,0.21926902461367573,0.3156499084730715,0.058995245532593506,0.0897571340021182,0.12351461310219816,0.07516622165075028,0.02040202774222417,0.12505688743843768
-1.1598126348018756,-0.048900589481381075,-0.024490650405532964,-0.07437354965707978,-0.4129124435717809,0.030498209073725305,0.024306894793376704,0.011959579274145706,0.03419318078587968,0.11323937734288886
-1.0613087467655937,0.18710525185868515,0.09289727094984421,0.02075733036737079,-0.26715589043033894,0.0659425486498737,0.05224421050324983,0.03887142171268254,0.036612024547707074,0.11612239682219104
-1.1693024034541328,-0.13869550429796496,-0.06661803465727151,-0.050944359749988614,-0.43516877714508223,0.025376992210153312,0.03851728557562249,0.017938142938132014,0.04147588362238548,0.11917862039481586
-0.6573865158593666,-0.8185683906454584,-0.0815214723703542,-0.13375316425726708,-0.05244191088183495,0.06433232678186987,0.022307296982802365,0.014501384165945614,0.01102022015038696,0.07138592419219483
-1.1459921300009976,-0.02565883455219333,-0.013267353167241416,-0.06676313538472557,-0.3957501651009402,0.036528151410368255,0.029133163105538498,0.01852066823719134,0.04109407481275728,0.1160724595457233
-0.7890360103868111,0.4355049408015425,0.16395359637771947,0.23786944582125097,-0.030891260630220407,0.09456940201871819,0.11206167766966633,0.08036774021815213,0.036937039839145744,0.12487388605246022
-0.8207968907354946,0.42046329333104354,0.1864396569366119,0.2560917006998568,0.008834644167808823,0.08868612665385488,0.11176452405796643,0.07312840877530072,0.028445004806990134,0.1264581899395094
-1.0605422853151645,0.1571558995984759,0.06832056562416983,0.009661033166113686,-0.2745653525334273,0.06957488427327356,0.05740017643532216,0.04870307703345498,0.04655506753124787,0.12187501679099005
-0.5937427327970085,-0.478913682962857,-0.7653624286462328,-0.5187804200414109,-0.023264069157922448,0.05444412164944288,-0.11614045895372994,-0.09848953263661718,-0.08705852627388228,0.041349035729365664
-1.144721070162082,-0.05728326185606223,-0.0295368110063091,-0.06827615469736,-0.40968804493273775,0.03255933452896741,0.02891482794324367,0.015481418442028475,0.037036972410856454,0.11429062928990856
-1.1853516059049507,-0.12939983529685511,-0.0597112645131069,-0.06169915457944962,-0.4546900422903941,0.022321925515834784,0.03087991049721841,0.012374506692145196,0.037472244231136285,0.11571943119057093
-0.9979899310687301,0.2090747824356302,0.07514272364375835,0.04556576775391602,-0.2602150975283092,0.08234960712245767,0.07429664109716792,0.06639293317076181,0.05724542825698402,0.12619159215920064
-0.6228414752206963,0.2541190331394691,0.36156245196862313,0.4163427768718495,0.1909404462810301,0.11200893847573241,0.15744364937351168,0.09796804009768423,0.04421574881508259,0.14222190173927932
-0.4703973133266453,0.3756026245872236,0.5969572518334564,-3.314431128626047,-0.5473158988933484,-2.0083278051473394,-0.5058954934963441,0.2056548630730337,0.19575378139096467,-0.014914761290434815
-0.6044500148071317,-0.8401787834528041,-0.4409369736698554,-0.4599429891670385,-0.050589663760602255,0.06879310239134953,-0.017790632735107448,-0.03650193995828039,-0.029152337338121812,0.11007729605076919
-0.7687392731679344,-0.36427041081889494,-0.441652534300547,-0.3369310224594481,-0.1397306235740897,0.05084008831345107,-0.053951320453742624,-0.038851171492769225,-0.06056193566110592,0.09923248682830445
-0.36401774902732625,-0.9729884679073416,0.01265869132320965,-0.026925298031897665,0.011110609010805067,0.0986447835290718,0.04668023375289599,0.025466927252797953,0.006759780421847318,0.048369431300078355
0.2640839090881297,0.8361373279056006,0.5167689774903496,0.7394594286720911,-0.4912798701753135,-0.0758524440109759,-0.4013224211122441,-0.2599786215955291,-0.14132185800198052,-0.18979781006758847
-1.0754570157804226,0.07206834407988931,0.02897270019751549,-0.03563841693051856,-0.32641622397982645,0.055261342852052454,0.043121046876086505,0.03489778823266684,0.04073359656443468,0.11550070168614787
-0.3751645704529863,-0.20183674101449373,-1.198190882213482,-1.01243219138884,-0.13694100750498517,-0.5057365400199599,-0.28824478726071473,-0.27147472059077093,-0.38860268685531907,-0.2080001017799923
-0.6000811214627718,-0.8791043472267966,-0.1437460167778371,-0.1737948487318483,-0.028527284666272714,0.10044601336271407,0.04436741065755213,0.024923969808127274,0.016891863142714004,0.08876522946015775
-1.0894261478335943,0.12297672900475955,0.062192367241604284,-0.017697580879148377,-0.3193111825754105,0.060312981135264405,0.04547055662725254,0.03730058492763768,0.04342904081611003,0.11878718933302826
